-0.06854236716264092,-0.09404177413209466,0.078510339822492,0.147796404827483,-0.03225503870437832,-0.13701231598420552,-0.07321481324065662,0.05654660590078799,-0.04538219451384758,0.05921268283581562,-0.03292522472662967,-0.12286871993987167,-0.0037497057539096343,-0.05088029311779071,-0.10865456237339205,-0.1635351978403146,0.07074544019051773,0.08570350179030337,0.10611243532646222,0.1390676940694204,0.07912548219664639,-0.0882834262967937,0.005765143886932548,0.03741109462713827,0.08849718263527262,-0.04660143938790937,-0.02465342806512633,-0.01507556575162259,0.15064425250546556,0.09129336766809634,-0.035871670317605554,-0.00920740698016307,0.02152558474567502,0.029306563996925317,-0.13261465625924204,0.025963491163439326,0.010796162084973842,-0.0617490536538209,-0.22538695208027898,-0.10911492855350956,0.0912512706617705,-0.05283990521906801,0.102621319619051,0.02471860444688269,-0.12460709858329161,-0.029568864833605737,0.06063188664454912,-0.0992609183977167,0.0441443418812131,-0.11309106357534127,0.08562251221594253,-0.062123860971378606,-0.12671829376913601,-0.12716124860419759,-0.1961999116340438,-0.021907362274211164,-0.15047901363968932,0.010918962840351428,0.01821809985253851,-0.09619413613739304,-0.10057269310533759,0.10208203320488535,-0.018800554002899494,-0.1558512636407016,-0.046804510274944505,0.02979905906472984,-0.1990112304965422,-0.04885244810172926,0.11258785235863764,-0.07129678698709675,-0.11339675374659548,0.021235766810990337,-0.15200308543337943,0.2773184854839258,-0.03044706813484483,-0.011045258839846016,0.04225210235327548,0.1450778864992011,-0.1193226996335052,-0.0972748761790751,-0.13971799886278216,0.06980904242860159,-0.09943707374810856,0.018107145627804706,0.07441316530683087,0.25481270440431475,-0.12582393493259464,-0.1453388549710963,-0.045350400494395475,0.006297658734789398,-0.10570181891850992,0.011843345317901259,-0.11329980825828866,-0.1779820279906169,-0.17982021217531494,-0.30442620490961153,-0.31014368119081515,-0.44688265459743226,-0.190818631826255,-0.06387439493533774,0.071376205676857,0.11729169404086631,0.04874468674643041,0.2455814875823631,0.24279394246542724,0.33747628497964066,0.0670258686470188,0.05422188097847566,0.08712263144910892,-0.13890928447639286,0.11685467711921413,0.07861255276727436,0.2095483757393332,-0.11253095638955904,0.12359402827528151,-0.10846129781271427,-0.039374145371068946,-0.24696176218913468,0.07411546304223987,-0.25654383464798386,-0.20280337299302148,-0.37806999424781795,-0.5144371034321186,-0.6791551943815636,-0.6226875235528396,-0.8555462824345977,-0.8045140191773635,-0.42042317050545835,-0.26174021747290577,-0.1714141445100264,-0.11922025277542887,0.1840832511082006,0.2866249897651936,0.2138172920452299,0.17708363029645843,0.2699160705445924,0.18071134845824327,-0.1311452653632297,0.1334602216878744,-0.042117175019035925,-0.04592670734424551,0.08070145965012554,0.11523818605595151,0.10951781531937349,-0.04956530924650341,0.06266382393501053,-0.09366648256069039,-0.14233552633308066,-0.12775663741834706,-0.28215048558845424,-0.5322543504148385,-0.8718103021220048,-0.4922081980609355,-0.49947399195632625,-0.69105290292116,-0.8996003916803482,-1.0699247594037635,-0.4484034919831626,-0.3272990151531623,-0.3752829219957239,-0.4670651065688157,0.0014301696625115302,-0.04464990809261419,0.12114979574452918,0.07249016041521344,0.038240248762743866,-0.02157012336625539,-0.010305445336817726,-0.045744316966339564,0.1324921140535798,-0.009812841006307048,-0.02182245308939463,-0.02539280497234058,-0.12947884443196286,-0.062264587596712585,0.14364893215867974,0.26359498116140095,-0.045250387450849,-0.4010488361184851,-0.5716897414852856,-0.48189496339371213,-0.5118835527884638,-0.49497855886207054,-0.6405040270757788,-0.23477318667932554,-0.10169494292600938,-0.29654434460535944,-0.32586813780739815,-0.27853670675445286,0.293232931190338,0.2881715068786464,-0.15633183909882725,-0.40935787646277266,-0.07638263408177713,-0.13840888290326145,-0.07008868790174652,0.1279045866066085,0.11404027674752501,0.03474853779290709,0.04980587977483241,0.18878426411919932,0.315494336765471,-0.06739055618919859,0.09057139090237962,0.06194748042965776,0.28059174056049324,-0.03916208097608997,-0.23933894257161695,-0.5162810400865379,-0.6594847768954502,-0.6673205766903069,-0.09156988707643418,0.03490620150633533,0.016683161230198133,-0.4134153211844935,-0.5313065584026436,0.0162184171134134,0.26206559952021696,0.15389449006323144,-0.03618652516997141,-0.603225282701619,-0.3301679169109949,-0.22073669332492812,0.11526670600864716,-0.16987920942963047,-0.04059502176844257,0.07582998651955515,-0.08005807924907424,0.18827950925649048,0.03963133365485569,-0.22038084806028527,-0.0009360163875011927,0.03190100353696539,0.13378303400966426,-0.030411389177291668,-0.5961797666684079,-0.6175776292975281,-0.5162283270637714,-0.3606392354283697,-0.2944603781241172,-0.15892299476164234,-0.06338962894482479,-0.7808365372929359,-0.6089116972197174,-0.15257293197409225,-0.106385715857557,-0.1938858744151204,-0.5404597120239986,-0.50906774965524,-0.31128191498733876,-0.059885324665689375,-0.06669067666584191,-0.07795028823951389,0.07510176165118654,0.04611493453504532,0.06620012191800315,-0.08119783541099168,-0.1625745377062553,-0.46108621549681417,-0.05903559380848013,-0.04184017316497601,-0.006780412504404009,-0.24641992427788004,-0.480196555823647,-0.0954519033580744,0.005429908555890625,-0.11421528263097709,0.5110793998657138,0.34149419284303306,-0.19946843979150314,-0.11642873202026117,-0.24685151464164118,-0.23431028463658846,-0.5636386373251184,-0.6745721108753683,-0.9053729423026101,-1.0897882216428325,-0.6109763545777406,-0.10932286550895032,-0.14247520094664223,-0.028580881048921997,0.043264772816434996,-0.07420007741422618,-0.0667733964395534,0.11502743896634142,-0.15902109038592496,-0.25122101305770816,0.005698966972928433,0.005525523929083156,0.23410344918629586,-0.17863169830496334,0.03889352045464134,0.22000958360971903,-0.1536580080958893,-0.4003189587177026,0.46460783331243044,0.5233101706976213,0.10369649082061155,0.09465440893065048,-0.10229585232058822,-0.38172487471651123,-0.7086753168144816,-0.9888177096698793,-1.2675323643066998,-1.0859162192174738,-0.41034704205583056,-0.10652914136972902,-0.05134842647506832,0.016202422135122817,-0.013124399830166519,0.0072901817227688966,0.230976921949526,0.004270042692274102,-0.18402196608068916,0.053685130628962234,-0.12823054012556567,0.4095690283518915,0.5181288866094855,0.4651274761685872,0.8250138910322289,0.7333712501561249,0.30235903107063594,-0.4451537581398226,0.11758541967046066,1.0281450408535824,0.9034801898330147,0.4913430301970999,0.22311280972943254,0.2626097801754748,0.0878734794297654,-1.101670951754553,-1.3346197029661386,-0.8588727265426983,-0.5732285011588897,-0.413672245114532,-0.17048494490676355,0.015038662392194174,-0.04595274698035493,0.03857347783502228,0.13447397436206496,0.17506395736344632,0.14128583479883208,0.12984864691739018,0.3725370172286166,0.7878389666748233,0.17927914704105952,0.9984437103246766,0.9299161162021468,0.567919181038992,-0.5669414739480971,-0.8622844853590694,0.2435056365146521,0.9175950360846556,0.6216554234395365,0.5324800542891234,0.7650366579681851,0.42367416819947656,0.13558458743870833,-0.4069810192820504,-0.6007259440133227,-0.3307762790698344,-0.3939865008692565,-0.09547217973455775,-0.1436183849463496,-0.06667077505102706,0.038502282025196406,0.0023028133025714925,0.17439804346247975,0.2951967540327185,0.03751948568397446,0.1838133980321789,0.499387045694954,0.2738651461105268,0.1390041493380875,0.6965520733886068,0.5429470383737944,-0.24345216592895777,-1.1153874705491218,-0.7881696979199092,0.53531339886582,0.6834952863031319,0.446835767646583,0.3304407531539985,0.8243303319548776,0.5731130814387199,0.4816168622371398,-0.2993852907577641,-0.4001181123594945,-0.027062752868432443,-0.05168835865086153,-0.03770337840656589,-0.13260348101862227,-0.05467156515234973,-0.14945362105417007,-0.08360820082390027,0.17857318222652208,0.2822884240603239,0.291071861781016,0.6962258040759707,0.7790982559106233,0.7889910295157023,0.3943385638334058,0.41051822857409587,0.3623243487007588,-0.650804808970883,-0.6848047518826885,-0.06790394114333602,0.711521015480027,0.9328111867522495,0.3662046070993029,0.7447750667415411,1.2775001479068384,1.0981645355120397,0.9354258381828412,0.1971971805189238,-0.34562901994677125,-0.29514411563084264,-0.23577944130452702,0.10048858554082783,-0.16070730737791994,-0.06678099329318316,-0.12416307121535873,0.054456559894753884,0.12096741811005152,0.09499159929429186,0.24667486003542316,0.37644438819677173,0.5870908376201605,0.5467069119694468,0.4526474774862833,0.6459582697605385,0.27105152106590336,-0.12137953105184968,-0.7083208580829276,0.03122260974314061,1.0565289478449114,0.6279782534769413,0.9900938434940186,1.254724872046181,1.8686058310875924,1.4874742953148363,0.8101636245686232,0.2108040810742138,-0.2649969388493662,-0.28977606521559596,-0.23641157973176216,-0.046358473757792826,0.019245923067546928,-0.05205538966421331,-0.12138615240110537,-0.07683781726592116,0.037389936631932554,0.11750032722470259,-0.04259838919053145,0.35780669746539134,0.2552923111034918,0.3998981217437284,0.17199946597641697,0.18582779471540206,0.12977396219777826,-0.2645033162222943,-0.41724376102827804,0.2785284712451349,1.2405166356617772,0.6734794887322096,0.7285517018758232,1.3735224036703173,1.4269649277045602,0.8530231215319299,0.12839245303418703,-0.5521524771902232,-0.6029628950425832,-0.7503736857408383,-0.5676302335499243,0.06921226798518486,-0.15791484079366547,-0.08516567469720263,-0.1753659006346103,-0.18522778402704979,-0.08729321348554114,-0.013763252135431003,-0.41730321458433234,-0.3396978418194211,0.008700064802139206,-0.32317953862018156,-0.4420806730410187,-0.04989569694753722,0.15435882319475044,0.4221109065036377,0.6478859390118176,0.29222808626013,0.5334087904688577,0.3897032645004212,0.7701521669328913,0.6050154490927336,0.12231215398089003,-0.06827530328995883,-0.36130743579484126,-0.6818235537879564,-0.8288819721807501,-0.48245810234546777,-0.5080262729985375,-0.1371849701947806,-0.07028469427529006,0.07511854920073127,0.014008534102665567,0.110669740890266,-0.24558121006355835,-0.20487452039726797,-0.3652544824052115,-0.7321715368168475,-0.6949011830574074,-0.33640928507409806,-0.5309088503905,-0.45539767960025207,0.2202784768120686,-0.28007477401141534,-0.24598997865616073,0.0206757907315243,0.1886102125266885,0.23268788845007574,0.021071920972457286,-0.3411980546576912,-0.5174583629869689,-0.5922772370086316,-0.6433226516954587,-0.9110358621316609,-0.8559846739711454,-0.468200083497644,-0.058663545820137615,-0.3068407389955717,0.03664441302823438,-0.11706608499927856,0.16958762400668465,0.11168215777908061,0.028238867004712287,-0.26188467815617245,-0.4489793117744079,-1.0016778939264386,-1.4036149901587551,-1.6074012302031395,-1.695487369254463,-1.382851170269427,-0.6206059160128141,-0.6848597108608976,-0.7193938822384686,0.06882190715078901,0.22544386436244274,-0.13896426186973254,-0.5660158958423402,-0.6251111364220935,-1.2316866073984636,-0.9532625040836817,-0.6802592078736247,-0.9546462721306272,-0.8256059386149553,-0.3387168353865872,-0.07713302606310106,0.04134953306717934,0.02347535971121212,0.005468750360264784,0.03994365993269954,-0.04993305686907399,-0.11878285656483287,-0.3328420578292051,-0.6205883839475043,-0.9776166932759631,-1.5852835139766086,-1.7557581364692565,-1.5283403194022975,-1.3017158582331523,-0.8927165124683398,-0.6779273494238194,-0.5477013264797669,0.33806384581151155,0.08321270581203495,-0.45136618015427504,-0.6359733861142671,-0.786714998615578,-1.1106820350878148,-0.8489227889869736,-0.5867688449349684,-0.720599665823218,-0.8185381857473949,-0.12580094061424102,0.06221500563272171,0.019193430628169014,0.08505514818285562,0.06682334415548355,0.13556576884287538,-0.09918660092466057,-0.29867257479212456,-0.5087203463361629,-0.4938580591893035,-1.008900786126378,-1.0582462436883948,-1.1073725076739336,-0.9318710821076984,-1.0818188103223476,-0.9624384262587589,-0.4696645820633092,-0.5585826349906893,-0.4301938922332137,-0.06358886963768304,-0.13926856521705466,-0.4311071883744737,-0.7372895954691114,-1.0773696388727165,-0.8043623573941922,-0.35236850115719,-0.48833349929757325,-0.3550919502406325,-0.09740505326158241,-0.026924918936109002,-0.25223500326330595,-0.013734548268924368,0.0838995320777157,-0.0276752484093335,-0.05221970931735062,-0.23207161646237862,-0.3071203040003765,-0.632199462626149,-0.6825352442626551,-0.5567329732028702,-0.5473411787448103,-0.9827187229306247,-0.8890883050678396,-1.4060061519968639,-0.8032027899208647,-0.797350419598568,-0.14053855110444294,-0.11199203087402076,-0.38252879775720255,-0.47685691031235006,-0.7050070027190324,-0.5643210263645795,-0.3512211029172131,-0.10592685689371813,-0.3462618941168334,-0.15343191031190317,-0.09786036836797131,-0.08991944689612058,0.08594587486227134,0.012518344604813988,-0.18519617255417373,-0.02610633870095554,-0.05972525625869874,-0.1392720841755364,-0.16567412510549304,-0.22959599907258416,-0.03708728007848094,0.1315758986041114,-0.3689674178152892,-0.6209368365906524,-0.9832064596345019,-0.9096405696359473,-0.9041794598091271,-0.20678307992987136,-0.1866280612034793,-0.4487004213541545,-0.7066194780634606,0.1199794932914382,-0.20968811166534895,-0.29465560398259616,0.0752446697874005,0.32167830655112467,-0.20501048726053578,-0.1671573845581987,-0.2636907131135143,0.18887989152524642,-0.012053176903699506,-0.06658465903835187,-0.14096212325752802,-0.12900093288117137,0.05071575634830174,-0.041584121373805176,0.011753273823317811,0.15273955023242272,0.5257447432354059,0.35755486484994287,0.19088475414595416,-0.308936597166549,-0.3903873518618929,-0.3110986018574678,-0.21465151265997234,-0.019096011580413186,-0.045759514994946224,-0.35502574754965666,-0.2621173250087564,-0.17097434422707006,-0.30093759391801794,-0.036659761559921296,0.3253663277827007,0.15521624840198403,0.31529129411678963,0.10307297750008378,-0.07486685405731361,0.062426059483296305,-0.08318355896782306,-0.031111122530316393,-0.15550303942158458,-0.032392904586784094,0.00921289743811365,0.06955074324556676,0.1684458769393583,0.27951475286353944,0.5262452349988795,0.40002905324845855,0.37689505173103266,0.17832777985709172,-0.11147270906247606,-0.17790742397300233,0.19410033702076795,0.0981186717879346,0.409102997904751,-0.1975425355364399,-0.4475942835669925,-0.44809029600940453,0.002926809538148059,-0.2223641691991389,0.1926142952879049,0.4207691293809317,0.1297370503835904,0.058117775256498194,-0.09410425199337669,-0.16049254472208502,-0.02426351384541681,-0.05059223154174564,-0.1541480091593044,-0.12061808857267795,0.10279530323997979,-0.13831188956775733,0.10643662888831769,0.03617889069665132,0.19444816248914268,0.21733583256500463,0.14633774334844846,0.2294282338709115,-0.06690081003836872,-0.027622818405519972,0.07008871990250243,0.3513177842523088,0.23539311633477017,-0.04159425832000933,-0.0841438780479408,0.03353927785484077,0.00281592245520517,-0.23166828644065995,0.1663832476493574,0.003900662456903192,0.18691962441498372,0.0010975728144312785,0.11344896259311624,-0.0549739233447522,0.05172630660293879,-0.026215374148027593,0.04954388495379291,0.16839781231623654,-0.038319060061947595,-0.09587657906031333,-0.14314478225608238,-0.0390876058166534,0.1148308296622497,-0.23100099276010044,0.16513365856943024,-0.034661195779418154,0.06096296886372017,-0.08046840415595273,0.04617274418633023,0.07288776798527087,-0.1751650387013393,-0.1664487095698209,-0.22080097637764334,-0.05493313335590083,-0.058037771824250524,-0.12660495197436503,-0.09088329557734068,0.17958002734731895,0.05825211808601725,-0.13308820521080697,-0.15437145722295423,-0.03660402821043953,0.013730050096345339,-0.11832575690205399,-0.001918805254579415,0.08837995748104713,-0.11936314558037439,0.10875060470937967,0.10548479805669023,0.04744051509288036,-0.25808482300896496,-0.010507839287580109,-0.011054477872033928,0.05536701352052327,-0.11993199457837109,0.06846971522490647,-0.07494519247910084,0.02043154921433266,-0.12281574682154672,-0.09236476719705855,-0.19758380052526583,0.11696704163966612,-0.08187790434546216,-0.04743844190415214,-0.08087960127258903,-0.0003430834615744043,0.11618484914898838,-0.21032926197881538,0.053641402631736584,-0.07235384953772464,0.015312123944212231,-0.08003760043858893,0.18052665038515023,-0.04936713081362716,-0.10573239750791807,-0.07090501853694386,-0.030626960249376074,0.07512400437525171,0.10383553318520733,-0.020359052248935694,-0.020683650502258986,-0.11690307130610644,-0.03282443210087945,-0.04180514243915035,-0.10817307244132211,0.16430396734158273,-0.05011643043735531,0.2299483326251102,0.004538804332385597,0.11165457431910572,-0.049051075870906506,0.22137510127912804,-0.03973791803743941,-0.09881850408220619,-0.010863925671154327,-0.04212258245000991,0.06412704313250589,-0.061799282200069416,-0.09655807982517997,-0.025569279960998264,0.07766739311692267,0.0037866460785617394,-0.021416042409235874,0.031297289149958,-0.14045961286065514,-0.08957502734951939,-0.2069976886019179,-0.020468250236421723,0.0098203127146574,-0.09475682870320236,-0.028420603682798508,0.011548106313315622,0.1372394442835426,0.28164517244086235,0.19002083545966425,0.08321010227774582,0.03659580123424399,0.14353837794038918,0.23895772807110488,0.16599755147543588,0.04755843432918227,0.07626815825052864,0.0990384199169121,0.028926670417862,-0.03114788013652841,-0.053046161986548906,-0.14530209914399858,-0.07002749651823392,0.12715162147773687,-0.10934771235675778,0.011812130867353532,-0.016870125912922154,0.006255423543013554,-0.24811548652911974,-0.03973657909161179,-0.1726608708324412,-0.014648141693590418,-0.2801613660607601,-0.3316854638811502,-0.05235233743324711,-0.13872365117315222,-0.18377079713482317,0.10679286843376545,0.2551696530153105,0.08187862610969485,0.47649077858345135,0.4469276187845478,0.28501212335081216,0.016856388473665402,-0.11874708678065793,-0.20478315566708433,0.20653134542573678,-0.04381006459279556,-0.05623829483337618,-0.12501286054797295,-0.07196301856708476,0.013180039888224382,0.12122176788741539,-0.04030696541471472,0.07120544597858101,-0.12430689606530074,0.008584812978695646,-0.017811555260231253,-0.3373691856813037,0.04699527765133903,-0.2754745343647723,-0.5566232909675592,-0.3327075901730017,-0.46683627585527737,-0.34195998750425605,-0.012095312714145972,-0.02804397060701014,-0.013999556462682698,0.2676923212758842,-0.006444746862121347,0.15471817287689252,-0.048096234045803765,-0.1758729785503366,-0.07768140207501029,-0.15928974330713044,-0.20028428136011528,-0.055113634982518284,0.03700821714641441,-0.0664708860039246,-0.0026857726803624317,0.09284611161967804,0.14327406982704122,-0.08488857862891977,0.03320467308348218,0.04267090898653756,-0.24523435788251916,-0.024905290976673766,-0.27793673462645085,-0.46779900248467093,-0.41667009121482806,-0.38663304291980816,-0.13713467629241421,0.3399419579593452,0.555845728164256,0.44854579629318564,0.2232031563042495,0.09812574273916343,-0.10633003078006133,-0.2813518570603132,-0.29484764857419965,-0.1827922255388982,-0.04423687734101702,-0.2857733511586371,-0.1807171575554735,-0.11229057232463242,0.03152007561798324,-0.20909741795497572,-0.008711072738995917,-0.07255174540823114,0.1124144998064915,-0.05499704671306257,0.046339654882423365,-0.12622952532186066,-0.04541422939572634,0.023463443943304515,-0.18782196343246832,-0.6296360590774869,-0.7006954199385231,-0.12787362695112245,-0.08946818769091054,0.3206601556682495,0.5992497854489527,0.6846369182633264,0.05105565715733156,-0.35457235941777454,-0.857278238072666,-0.8849625185009642,-0.9752219697880256,-0.5689005764343497,-0.33290003384537664,-0.08990464064190791,-0.24432637779346536,-0.05443754109251387,0.09991948391792245,0.08272116591522809,0.09251109187273163,-0.0646985310649452,-0.03952879323086811,-0.08178848474413689,-0.01260539737477097,-0.09065392766411336,-0.1513656559802904,-0.19872234667698974,-0.31586598823318585,-0.7807165878563055,-0.7295657266776612,-0.25201511303271434,-0.09164118033831843,0.21036696611245798,0.5410893303885066,0.1882052835652267,-0.1525378334732665,-0.7858830823140387,-1.1538334145389282,-1.0394661140609474,-0.7783859262183072,-0.6997384127421423,-0.34273243099865913,-0.14222674952521758,-0.10904245753140306,-0.08533493315484916,-0.03449819640424502,0.2033756456178641,0.03436264515354138,-0.13753089980960537,-0.11114254620140528,0.1413751095118538,0.11542384745733611,-0.1649146220674667,0.009226431772138739,0.08401625334500781,-0.5926928010668331,-0.9176814783833149,-1.0287211979531257,-0.47650892047377763,-0.2042706828224931,0.5438631827896285,0.5780406158331277,0.4058361489240925,-0.4126630051416409,-1.2824151687788865,-1.2982619723442341,-1.008112056856411,-0.8514481448625832,-0.5816522757384465,-0.4591012245945077,-0.044757818140874255,0.017889384103039124,-0.1657215592092829,-0.1971018952651212,0.06817852633026199,0.17794625565544733,0.017124717256931474,0.007140650342425497,-0.07882867323631651,-0.13703101411858787,-0.19019189237364706,-0.23958382696066355,-0.3742691076724986,-0.8625365146913115,-1.0564856599273467,-1.3011588639759517,-0.5187694910263296,0.22841454840732786,1.28503283490471,0.6971193367389921,0.2527508363961049,-0.7975223680994477,-1.5866025626726685,-1.3194351132972733,-1.0006605915062434,-0.6650499502817688,-0.48032968794080977,-0.45943644011266865,-0.3012202467449989,-0.34547072448475874,-0.3222804988251058,-0.10764404146458251,-0.0011600554362725477,0.005597090225189529,0.0032682620212259035,-0.08532000367485632,-0.16803050248542725,-0.08691430830185838,-0.45803333451391787,-0.6325746471308263,-0.7122903368347698,-0.6098076538368946,-0.8393478287042095,-0.5655056006014582,-0.19997144378797943,0.7818676699891255,1.1839911866371182,0.23950717613543765,-0.35361237012844876,-0.8825429742515424,-1.2566689811466485,-1.229356048515062,-0.7861378381917764,-0.3897210844002314,-0.5833808223680575,-0.384564962019917,-0.500053639543796,-0.30752770923904743,-0.11814033603453174,-0.2250822319395099,-0.09603007501292309,-0.04533579559870703,-0.18413241265652958,0.016930763104986698,0.0042071429063432605,-0.05756677662881567,-0.0724793558743179,-0.3932759505813229,-0.43214729728790335,-0.15593763110141537,-0.18252933194177906,0.04409093207248245,0.40252994373915046,1.1772311772974555,0.5444538149353677,-0.1804387431388359,-0.7098180217963825,-0.7657576484731337,-0.7520226587982264,-1.0035955171869773,-0.4767558040124002,-0.24796282406704373,-0.3380344721988276,-0.34364599848563704,-0.44952428487174817,-0.5429393313417193,-0.3982244489054902,-0.35228111513267174,-0.12692214374928865,0.11899735653662563,-0.3602701702994993,-0.1406644244286927,-0.14284358152537588,-0.2526840540186469,-0.32632779681267077,-0.19879588948711963,-0.2359337061737914,0.08210728049427389,0.23795414288590136,0.32907231628012723,0.6141565532453694,0.7052942841045646,0.1356221727745884,-0.8917128625161436,-0.29912319284608563,-0.08717443218351718,-0.3591729539013057,-0.24911833936620625,-0.07810226323632508,-0.008752810788694408,0.044391162868841,-0.23188318525340093,-0.09779882766712514,-0.5197620480100082,-0.5645354748080389,-0.29224474079169704,0.02020887281352537,-0.146501604727008,-0.050442220285543446,-0.07391558127423202,-0.16069224856123807,-0.362463179365266,-0.2072160361745954,0.14532458367683454,-0.039576671711785964,0.32394545358306537,0.36967532246268286,-0.003528091155292114,-0.023961410886390727,0.06331285834731232,-0.4077088748998865,-0.3788121256304292,0.020873520883961084,0.17244633978651244,0.13419126010484875,0.26047732164950826,0.27213102704315445,0.40527484874200354,0.25130438823159373,0.17275723485540562,0.044850194424324016,-0.4935111683080502,-0.3355737243809097,-0.056812365262805975,-0.07559514870120697,-0.15464158855017066,-0.05647256420395108,-0.008562009459678615,0.061840729893951625,-0.018934068635797684,-0.19175515184224748,0.22972268177245347,0.25659945299344067,0.4964373262705515,0.5593571156576739,-0.137966590362198,-0.045717450967956964,-0.17689471838838514,-0.2616327835130613,0.05867688818148511,0.05610991912915822,-0.13002217942133015,-0.30884015357832045,0.14986152999417524,0.33313582051316687,0.19873470562956494,0.321586602751993,0.13304595244460804,0.16553731092617097,-0.47240072609094724,-0.13926653730515098,-0.42015849908293235,-0.06409423232821732,0.12617680978750503,-0.07078028586889809,-0.03462694801895299,-0.0009422988844788663,-0.08588257473295106,0.17666438730062373,0.11498821964224358,0.38657964752538065,0.4086610267143278,0.22483794339761323,-0.13390643735685778,-0.11061446450908041,0.3101336604855698,-0.09373227820203132,0.06612174073731858,0.016402355577709433,-0.1791517945818876,-0.01851778955335006,0.036611161696164414,0.2006502331062836,0.21240924627023758,0.596300779392796,0.055993182061356325,0.17612792518400508,-0.3193299845196544,-0.17009699251918647,0.023766253039908636,0.0012072930039907254,-0.10377927350468139,-0.13432773115604948,-0.15683318470644467,-0.05364343984465843,-0.08431574866205098,-0.02412427234025765,0.10924040722317872,0.4085179302664296,0.3154754728753323,-0.07636068183891302,-0.34829692309488985,0.08711028794795536,0.36543666775130174,0.20933542318923273,0.26075099496178233,0.07348374190396254,0.05150033840777086,-0.022414797947999943,0.1409541701229611,0.07099379350755312,0.10460586767472464,0.011093587796294197,0.04858034863070849,-0.143500909322121,-0.2769769195051376,-0.2296067181839903,-0.30783890043324297,0.12085354128099178,-0.023626594744054628,-0.018914875167671315,0.09398439936284794,-0.08270800535275168,-0.14963426849070943,-0.011942338958794419,0.020635788386522996,0.09500014420279057,-0.009410621782599814,-0.3160996844730181,-0.4054692841530261,-0.4664055749668317,-0.39044849109413055,0.18187558101528656,0.6798406985650949,0.26354598250647215,0.042284554395660374,-0.2664347200098897,-0.11510238404943565,-0.3936488751696185,-0.3923376713506484,0.06196671609791193,0.04496985442237976,-0.29405718450166585,-0.15327844874803923,-0.09835214935538347,-0.23550834652772368,-0.06261863077540053,0.030280637371186355,-0.07757536070610799,0.05378927408227527,-0.08788756927103496,-0.11534466692515065,-0.27403400892593155,-0.24746384259451304,-0.06191130091458767,-0.3194475624003608,-0.2168175368169121,-0.43630042724678286,-0.5146789250350313,-0.1536840668258517,0.3095201230147051,0.47340794680443254,0.49827865231534146,-0.060630479464908106,-0.1569270495023441,0.25585460155309764,0.13256715081772172,-0.2494757113321436,-0.13962352721171162,-0.2699841350049995,-0.48884041873303724,-0.32828881704259266,-0.4360889047525856,-0.12205351764791567,-0.09701780713337402,0.14690319422405826,-0.022531800923451493,-0.000709798032612755,0.004985301552299049,-0.282363096194079,-0.3306158463824548,-0.4165661388701688,-0.34488952327428524,-0.10499031220966651,0.3853735120377532,-0.04631704859366788,-0.2376166683344727,0.06987331825542933,0.32451218778176516,0.15851881617923763,0.08543985158401343,0.23540500151716118,-0.12729006238443855,0.29379855687688183,0.4314217024586773,0.1064581293087285,-0.07520877142213117,-0.30059028792674725,-0.38207700747552076,-0.2907871362106911,-0.37359752799214474,-0.20717770831304125,0.0925995545629793,0.19620906917370792,-0.39529810711285873,-0.08002731224793495,-0.0842795834519743,-0.11193435185262803,-0.22307275360600085,-0.517606124734648,-0.35558481190767927,-0.2181467981514292,-0.04805425143338248,-0.40240564787638805,-0.08637518423886519,0.013853570845543974,-0.13683495334290313,0.07100459848446496,-0.2130037582328029,-0.15884409747051928,-0.11239052204915696,0.1731045647197037,0.2964243777507094,0.2379437018674208,-0.0008722027106490527,-0.3536378026667625,-0.19377072427132733,-0.25324273229807875,-0.07047507513510873,-0.0861856488091708,0.026807609246414853,0.04726314994803266,0.11900069936384056,-0.15819393499945192,0.0647315028036596,-0.22832292309130903,-0.2495046639025544,-0.5244267677464806,-0.5322798495860819,-0.5057880279840166,-0.6401951090109856,-0.5103567277015952,-0.2881155836773587,-0.027691829615295396,-0.023161989277636776,0.0027738564041321677,0.0682441355591261,0.040622377578676566,0.0810629931153662,0.44980193996785717,0.16996428731659083,0.022318118117059294,-0.15865300601527418,-0.3536618712797803,-0.5196475374629937,-0.1477753812090878,0.013374936265750656,-0.07893610483080779,-0.208279183585571,-0.14720611002858983,0.030704622843459126,0.0809122370343346,-0.15781483647871222,-0.025172835053341735,-0.11112856847044489,-0.4196903814221117,-0.38726721385013974,-0.4286839732094873,-0.7815117571072493,-0.7776562790024071,-0.6069077742979284,-0.2849633457886311,-0.27432527170920445,-0.16779614780673094,0.272549666808299,0.17061597342624274,0.11077663242361813,0.07275559477827921,0.3402279712542137,-0.07759397665026072,0.05488425495256572,-0.04221053449848445,-0.06714877312809782,0.050270559925863344,-0.08539668649485396,0.01869223865636584,-0.09991992490579404,0.12162956790614798,-0.02446390638465325,-0.16021950493777526,0.017542475799102945,-0.16554085448467057,-0.015482894796453263,-0.10949075213990313,-0.33916447090613355,-0.2001785087542909,-0.2386006844844726,-0.4171580044442811,-0.06503426219103887,-0.35296649068430436,-0.11897202342876194,0.36244010759311907,0.6082256175859889,0.4063997777574834,0.3690317518958084,0.49538844774623386,0.2121055624053797,0.20763483187106208,-0.13867644664954212,-0.2913577211929635,-0.09647453408562477,-0.12008961262198035,0.04400161585986583,-0.09643965484023877,-0.041275539846034076,-0.09944980541226658,0.09157177459222612,-0.08120100544443751,-0.05797684046699332,-0.1633424573371599,0.0882223704351568,-0.06779797122488558,-0.05310324309394812,0.04124278677657985,-0.03166989892186089,0.03443214545575971,0.00012633635612701924,-0.4792797670592276,-0.717466865904477,-0.2165648463377536,-0.010012438180794059,-0.030310371319246417,0.04164842370982778,0.13348897598768716,-0.06093798286712591,-0.11323319773694626,-0.1880366163409529,-0.04095036511453641,-0.19508556891986853,-0.0776954292889662,-0.005208255543221041,-0.03284133941346509,0.19901023621243283,0.07139703835511513,0.06976766215615027,-0.08458806750029008,-0.016642940260931126,0.0756824847001192,-0.028251410233117627,-0.1461868644276439,0.06577134534072923,-0.061679581959745496,-0.14866266884364476,-0.16815595274467013,-0.09679264446812183,-0.21287466142468164,-0.4365205582285955,-0.7029715396755282,-0.420061412323103,-0.43012622783456106,-0.4466177994020653,-0.2195961919480147,0.03434973747331567,-0.02938651963881412,0.10273399644451603,0.03918258400917106,0.009026895709118372,-0.1343276609311371,0.14638752562156357,-0.10282265877272023,-0.027793922998395202,-0.04922965561918567,-0.11242217639739038,-0.09283587802512624,-0.0951567124415213,-0.0548456883481647,-0.007706810179360826,0.014484491576851818,-0.0004161393610324964,0.04659848732795537,-0.027067262652478025,-0.19937697308784824,0.03885758481919177,-0.3176875704802758,-0.15116299137615502,-0.3455422157208109,-0.16718993686335507,-0.1810574079910126,-0.03453143074239493,-0.0700479912388349,-0.14863003109605014,-0.04828779769523112,-0.13373277118389038,0.06849454920042311,0.007857024268118797,-0.02274547741709525,-0.020482653531942858,-0.04828112426243843,-0.12160415400642852,-0.09653257652109923,0.07052570426541749,-0.025780306595273136,-0.03725502025114663,-0.06277832661183781,-0.03873945630798214,-0.04242292802823436,0.08996202361421761,0.08566948135045585,-0.036917014032148386,0.02942114711674882,-0.07733956907243027,-0.03818296563090903,-0.09010602269518087,-0.03777507839819294,-0.08512349118617085,0.006778579080852675,0.09619472997101634,0.03694528465121866,-0.007492168612150657,-0.1498620160732996,-0.05841988952194491,0.0717966418146938,0.008941942583415598,-0.016871736750062833,-0.06648262870072992,0.15578440868516844,-0.05204903130947139,0.05563416599468076,-0.09335824904350157,-0.023747959971696462,-0.1335572859016219,-0.17539419294739955,-0.008656423599495668,-0.21412248220896357,-0.12744890550009416,0.004456886040723228,0.16354307592169148,0.13958106269656456,-0.05654865446268923,-0.05041627561053071,0.10207666962416687,-0.08341224635733382,0.027677256287880692,0.11291566295193017,0.0041402616866937055,-0.07577379724329752,-0.11720190441813763,0.019238505014674254,0.005219793829110523,-0.044265776244764736,-0.2550090544055007,-0.19844796211445254,-0.23048846657753058,-0.2058771211167733,-0.07617321058073617,-0.002403871016587012,0.06834941263114913,-0.1601999790264373,-0.021421224074837143,-0.09309423542321166,0.0439058870251038,0.039863593486006516,0.06155306694187543,-0.02012420280999339,-0.02759126277941906,-0.04510863239487882,-0.021217001765817284,-0.12107629095937857,-0.1365007681258045,-0.027339117690901527,0.18757958187710091,-0.01220193932934336,-0.02542361892880257,0.03289204196811582,0.06897524114724998,0.007450436203180544,0.04891259273716168,0.10988232143519538,-0.035896328522673826,-0.2120965734129961,0.061986769246796775,0.015638507423054258,-0.041067432390154014,-0.07490277841936444,-0.025371869354831596,-0.012304503892644193,-0.024009767904999105,-0.04863916618720924,-0.1278254712190874,0.048933629024401286,-0.09872703582164513,0.03163591320462432,-0.20420199706315842,-0.0622460463308377,-0.17488965411735763,-0.11153940893801437,-0.3653693977147312,0.02851109414937993,0.10730451320138215,-0.034975159781844914,0.004245884974531512,-0.30588039163460123,-0.10085645482799789,0.06295800454130655,0.15603964059555925,0.06475431097934087,0.042592846714731465,0.0009062025239281224,-0.022085526641143067,0.16213695497217728,0.17407701697545946,-0.1294256849347299,-0.09407609339068373,-0.10195340488596386,-0.04003538811264577,0.11612049112017098,0.02041573829812772,0.016735343453679694,0.11169092702344957,-0.06934816524668784,-0.3054274881109752,-0.2035631583185858,-0.4689957194273583,-0.04559473038405369,-0.4082885481945072,-0.3602758994271157,-0.1298145072775986,0.1999500047864367,-0.02662638002435063,-0.05574746602790338,0.23498965092517457,0.32023221053022055,0.4104816676029069,0.41906749455809367,0.05750207833080646,0.1749874882723955,0.08454299800174521,-0.046953529776238505,0.09913010986608325,-0.21187976236303996,-0.07337807705721133,0.040300472517731716,-0.16975842242181416,-0.08869224842855787,-0.019449223303680062,-0.07817609518047978,-0.2649658090838679,-0.3292524252607561,-0.6580304549301996,-0.37937168362112755,-0.366196315980517,-0.3727851332395533,-0.15363811241904818,-0.09803483106308215,0.15515288409429734,0.064005049583198,-0.3967233291852889,-0.32299598744657826,-0.17268773736603216,0.04097718359440883,0.23506859181711667,0.2885183675614622,0.2576962778871638,0.1634012491999543,0.051884475543837405,0.07045034359201573,-0.12539656941812413,0.013367466945057993,-0.07655376163702096,-0.0992965578383247,-0.04579755985081354,-0.07133490725408068,0.1351328103803649,0.11884551613202703,-0.32524712546500606,-0.575882653590211,-0.19861782396136787,-0.3321740105734287,-0.4868519361831667,-0.249914743703534,-0.27615402878953976,-0.21825043604814995,-0.0013271473853758975,-0.017832473254556887,-0.05913071659879617,-0.29481716712057904,0.09164733287132162,0.09122486765796071,0.02631133399642804,0.42844963857283114,0.34987385513189895,0.19556041802170362,0.02675051550239168,-0.08446671692131683,0.09388877905806263,-0.04238407537683301,0.18486749294837462,-0.0038770313601093898,-0.13292994750937687,0.023594901655508344,-0.1244817373142874,-0.12748523274485285,-0.3869930809304506,-0.6505096237139434,-0.29618566921288925,-0.2325600567355305,-0.2055169378614621,-0.08377689181851261,-0.18324377459669647,-0.4443377283961005,-0.3583779806204966,-0.3026369340215139,-0.09487957181161663,-0.3087171979098627,-0.042546544282848583,0.04406170840015065,-0.18813267045701895,0.023988020561984482,0.27884437225948383,0.3092397897836284,-0.0719245287926527,0.17720910662974354,0.0648707541030927,0.005320576891614412,0.04790952658950951,-0.015935106235015865,-0.1347162147863607,0.08511285864347923,-0.1501612403448348,-0.2662162614552451,-0.47717521561228565,-0.34393727765187193,-0.4183588584367149,-0.3367730222624841,-0.14675760090409973,-0.009440266936734809,-0.4166333265233034,-0.31351576338826004,-0.2461028839361128,-0.3627578594774198,-0.5043721762194652,-0.21117765832810365,-0.09222179793220579,0.10587336047921941,0.08215820071830246,0.2869535527532711,0.43027187780518367,0.40402930327010816,0.25208120711550136,-0.09345153075573882,0.12555238345190084,-0.2333789432879813,-0.014172366945090074,0.017854605998588916,-0.15245643361287858,-0.3276558875053876,-0.1994819165067386,-0.48830655004364376,-0.3433366000995416,-0.5328199984629263,-0.12415791903895909,-0.3849871670825653,-0.2874782747468365,-0.3640270157999024,-0.2674089009260036,-0.3787474658912997,-0.04422837682662888,-0.252675519215208,-0.2439603422291714,0.085911460349285,0.15379967203447886,0.3087258539650938,0.26820172704323286,0.32623569820898524,0.4763869859655121,0.29027500230491515,0.3087450412110774,-0.21910228338690008,-0.04985251827264291,0.02234934223517656,0.027421556766700335,0.10792424170692691,-0.024022970753648735,-0.18166162971425345,-0.2721524306192954,-0.26967757569630274,-0.423288600107954,-0.47675461425591026,-0.4485467363859636,-0.5400327357454945,-0.4636089912346751,-0.8506588765313237,-0.5953007440311938,-0.18852774836015004,0.1304549973835266,-0.26572293767128774,0.038993165555236284,0.030538486766356513,-0.0970452593325879,0.35591377141168046,0.4941048556714244,0.545927448450445,0.07403350374466129,0.1219503398224071,0.26128740232545905,-0.09744075858730204,-0.0319333169839385,0.13732815297895282,-0.022317217531093687,0.14086458493176704,0.0682842780931427,-0.056836923476679735,-0.17267994661083125,-0.26557527743710685,-0.2765989143537879,-0.5474094342368561,-0.6337846901027255,-0.56420424338554,-0.947395810918011,-0.913449279366227,-0.508362548213141,0.10788054347886032,0.2939229052440933,0.0049249984688001115,0.4330325423158905,0.3330704038930547,0.18556048233878145,0.4466556133357333,0.4547970447678028,0.17571309464657206,0.21754830010879364,0.24053701267806085,0.34658678502600476,0.20327947217939352,-0.09711247605756121,0.0710789840180208,0.050051698930643956,0.05087076009342978,-0.0069045345934977435,-0.2545189456673986,-0.10820472969397771,-0.46974744063722046,-0.29305194513722405,-0.46801856820637927,-0.6841007057251669,-0.8369921559337405,-0.7242267537935985,-0.41020867773400516,0.3209086019894136,0.6244501746104062,0.6737767854330458,0.31918327721602874,0.5644814041290392,0.5594598025407714,0.103639254411341,0.07978205967069497,-0.12809978535042538,0.06623388471796887,0.1154955550082625,0.1303782010839772,0.08839489351210283,-0.09134270512025226,0.015880987126996284,-0.02799815479157672,-0.13794918382926888,-0.05920171053347913,-0.04512460099922676,-0.08770440542782341,-0.20138236944580393,-0.2720665628159349,-0.3330199233786816,-0.35071194980231146,-0.5697172916296667,-0.5563648137504418,-1.0445477117770443,-0.36924877252912064,0.6348901479583613,0.8149560933931607,0.6880524045633097,0.271546613268066,0.347925567268462,0.12447711074723707,-0.21023056935932208,-0.32436050105614717,-0.48368865872799394,-0.4122391089010598,-0.35224654369702035,-0.4965703562264266,-0.03198741342138306,-0.020624463109475934,-0.008020267588967966,-0.097062543431115,-0.020800808227551586,0.2656645188115257,0.08242833444340093,-0.1900014436395215,-0.18828445121649134,-0.13566569387811314,-0.5670266336506281,-0.32655960974363457,-0.6199163131095995,-0.9605922152416007,-1.365239421937412,-0.21389644405801528,0.5476740996555851,0.7434437937301928,0.5634764732362676,0.2331470455862296,0.1875732411551662,-0.5079689759489708,-0.4022863311886462,-0.32250842713066563,-0.38342826134160324,-0.6616743526586423,-0.42107219060536943,-0.5261830664124555,-0.3525970932229381,-0.09727425399468198,0.00609546499566664,0.049089888769192104,-0.12365585458385314,-0.040817319808223576,-0.0021812670222935196,0.10744471803585631,-0.16003925682200093,-0.20329167616643157,-0.31095769059862877,-0.33664652820431684,-0.6330280503491003,-0.8852320358185338,-1.0318493980926815,-0.24344998767874526,0.5210732565045336,0.5764287892382053,0.08475051352857464,-0.5480377793658486,-0.5154933246423316,-0.809511041493547,-0.4066260593092879,-0.2412538496697603,-0.432156749403644,-0.5977158231985389,-0.37232124598445054,-0.2554093290492516,0.12962627863984522,-0.12289920834366702,-0.027595261973387065,0.06294209633241776,0.12962881094228013,0.1703427536722932,0.0700253940436001,0.09601721385975344,-0.08875464413024729,-0.0625560775084973,0.057459372396580666,-0.3875359420783388,-0.659538421035638,-0.6220032641301657,-0.5981688303587682,0.06652706249288386,0.5770406708507213,0.33725599661613315,-0.39660101033033635,-1.0576652208135575,-0.8246340274051733,-0.4964274850087214,-0.1324833528217615,0.12354929302713677,-0.5607949529437175,-0.5321441103083339,-0.7728417758318411,-0.30437841889708783,-0.291011873829848,-0.19595037613113425,0.01288171516552638,-0.036603895124777165,-0.05185893745124139,-0.17290041281613155,0.13078567840038458,0.28495272416795964,0.25250772848085906,0.1577174341125615,-0.1915045296077859,-0.5441717546881655,-0.7976121649610748,-0.9292610913202257,-0.3960538232489895,0.15746599852395202,0.5515035419039631,0.10028179868634535,-0.6298828719831369,-1.1320950434915515,-0.6331171087318603,-0.2688706674685751,0.10078323635377827,-0.16189783470348285,-0.48002938731068373,-0.5412386960545851,-0.6109745481959593,-0.2770615768264825,-0.07667949427858632,-0.1787243007290753,-0.05602898717165068,0.06119395940391313,0.11915727326634619,-0.0692499477673187,0.2823666419286687,0.6529451540906115,0.4064074508306964,0.11527229663355346,-0.09137353259064518,-0.37158739371185506,-0.9991032449964096,-0.9827558368483078,-0.6751614988884848,-0.1648471127255819,0.11471808359856642,0.08468779192218281,-0.4043190074312141,-0.4330293506200669,0.03926264585856853,-0.06507792848533225,0.07010472281622002,-0.5475604073450938,-0.7569706127522804,-0.7366360921645787,-0.39714894071030593,-0.24995374511003798,-0.2173080476006208,0.03227552808695291,-0.06126657520417421,-0.0536955308690697,0.07008815662368074,0.1964045366059922,0.30150256633096545,0.37091857194346073,0.2969486492613508,0.199829519565077,0.0666119934001369,-0.48112648825069315,-0.6314345007457836,-0.6647242889497837,-0.3337352907661826,-0.041282415805792255,-0.08720106752958526,0.159992484134401,0.18536842129619804,0.13918709153072714,0.08292902560439985,0.38654892087373743,-0.4170947544162716,-0.8659780835527571,-0.8973985895033144,-0.7673491365111093,-0.6501701426685621,-0.2731402542480422,-0.16474984336630488,-0.014235879433458653,-0.04811666333420817,-0.01425132039795,0.1440216781629381,0.03603190297850314,0.22027827512819842,0.04824591790194491,0.21236316115010628,0.29297923005444027,0.3971002010826997,0.0071682859768263125,-0.027150943619621278,-0.17285005645737508,-0.3306391508309424,-0.5202440347880288,-0.020517821869771462,0.33614802154146783,0.2985749673792048,0.3726154222592523,-0.006827995241323291,-0.3932625982318338,-0.5349385992144557,-1.077103049886769,-0.7958265781562175,-0.942023337829604,-0.3241690833156695,-0.11297069271484564,0.0036583464630764438,0.08236543125141726,-0.06725136439418872,-0.011361476680718227,-0.038853527959457464,0.23886397969511408,0.114597753434373,-0.03449588580599138,0.28879853585912396,0.31528971189408833,0.46576450142981596,0.1118650555675002,-0.04369033244826206,-0.1522719663249803,-0.3545840590177982,-0.47724539395931015,-0.2683355779241541,0.16712613944559004,0.10483859085495333,0.08286005190282011,-0.3258407165732685,-0.8162481797487334,-1.1933947551424353,-0.8699982271272738,-0.5569840339509711,-0.7223435497005064,-0.5038367475823967,-0.09944021733507129,-0.08680224398106881,-0.12057153744746735,0.10876887507526507,-0.05588399988452509,0.03708797829702594,0.06250904845373333,-0.015847844047988023,-0.15865909872260303,0.19906486066938453,0.2764629902622493,0.12413034193802884,0.18344809062498846,0.34429098545821835,0.3527767098171805,0.18869047873588166,0.10300585424557979,0.2762159321938986,0.06809812555606547,0.01660079791208647,-0.3259146748127939,-0.09231150725455516,-0.6435679687203356,-0.6713459643239986,-0.6729823440849911,-0.7641850023191771,-0.49149450150140017,-0.2673161820581455,-0.3658578714771313,-0.045499926110198013,0.0830338080231765,-0.12462483697358237,-0.2778730702591871,-0.1498876001515294,-0.04949273983965,-0.05790000915909381,-0.023968707219221563,0.2566165205237988,0.2319160051170742,0.3188955434043486,-0.028745078675942465,0.07374314764003384,0.15034911781395804,0.24120592744661767,-0.09495803573786842,-0.021618220998605848,-0.2648236712717924,-0.7088961355600127,-0.41602756592897083,-0.20384599276324886,-0.2150368116951171,-0.7020018834500177,-0.43102780456628764,-0.3810986429816943,-0.1968398740248447,0.0718139567807519,-0.1835804225511646,0.16437887367852783,-0.03307588197061545,-0.15510674081648007,0.0519539130789067,0.03492674035933115,0.1844162279279576,0.06257097813924159,0.11673944885482163,-0.0578378939517063,0.262981195823598,0.06940556737665482,-0.1619572553717925,-0.10537170277568292,0.11396497094233311,0.2845570596652884,0.3516861233236401,0.05883725105893894,-0.40794533124022614,-0.22045990786319794,-0.24034653197802885,-0.21046073050626368,-0.5934649523158337,-0.4749126359207083,-0.5820744327113249,-0.4801288575131118,-0.055619287338071664,-0.055576478931950085,-0.04003392633239142,-0.09680542837422566,-0.011107432111440906,0.15705561471155183,-0.07819105301170934,-0.03308737953820794,-0.09877929952916872,0.2579835227499296,0.12227131766521106,-0.1181042570842979,0.2231364082058501,0.06112282721111226,-0.05431317828279726,-0.17460443632959366,-0.003515151612171477,-0.010425986726315584,-0.21025842857795016,-0.31942934525448446,-0.5902606530369005,-0.2681145645159778,-0.2118692502598216,-0.2912332567851216,-0.34776810783657636,-0.15260843257336837,0.014062015939326131,-0.06853213034514531,-0.08055789422853973,0.07702529347437864,0.11878698319421555,0.10465453047391164,-0.06989575039137347,-0.1690725047379778,-0.03386901463859878,0.0380100915503035,0.28472474931614444,-0.09181712747513206,0.2569443591958794,0.22872444825438346,0.03181871841512555,-0.12301799289445019,-0.2754288762513687,-0.1998942683035815,0.13578098138962028,-0.14149499374636823,-0.004785412945973874,-0.09473101536837054,-0.2996032399873955,-0.19207635164245976,-0.2192007720469486,0.004950794218607471,0.035330402354873065,-0.09003531126917946,-0.04877365181584171,-0.09156962409833805,0.08120029685384479,-0.15924557966603342,-0.10448198356025545,-0.22517247540623453,0.002032878243165987,-0.22089351343823033,0.013511579602276657,0.07477385707215775,0.0357150612737795,0.07850908119444228,0.01866210244695845,0.14249787072031786,-0.0206393446688565,-0.14422745109196813,-0.01675453099589253,-0.07739234907276905,-0.10595284278321714,0.06401888571649317,-0.11109324130362958,-0.103477154051408,0.01858454855520595,-0.09708321657167074,0.0007206886542440146,0.09592303604850014,-0.07576508959293012,-0.009216028813723626,-0.06919302852544644,0.07132214440745445,-0.08466091802057474,0.18226612284111568,-0.05238339984173827,0.06060941060320448,-0.19139878608280758,0.05982184210570985,0.09910044803588222,-0.0802993096272793,0.03096109383288209,0.21939859380426574,0.13071592009955074,-0.16140164775172225,-0.10471250694346952,0.05693428785297639,0.05624068897385954,-0.06172471088424592,-0.1461535537596911,-0.12081060985076998,-0.15609293331524787,0.039951486975670206,-0.02673528195834541,-0.06388458633798526,0.01451608413435742,-0.0918646751615044,0.09465946533607668,-0.02198203741677307,-0.08632387423259927,0.09360035900246177,-0.03785885596521167,0.07408192716481313,0.017187630630924298,-0.11479541748103614,0.001309496261973958,-0.03736952817144918,-0.08294692628924823,-0.07677418272197294,0.018635961922791024,0.08436139531711555,0.08261308066347699,0.1995375636594347,0.11564737426896764,-0.0004584284976861884,-0.008937335896775696,-0.007861471714504667,-0.042523717696994305,-0.08037988302013972,-0.08440626269556094,-0.2072964350508401,-0.03906762943089965,-0.03255580163481252,0.12224781323231325,-0.14880753135483327,-0.06161732746357664,-0.07847010839365857,-0.055192984464204266,-0.10911825335828874,-0.05582866234193922,0.03255468289600214,-0.09645715630023828,0.08874512499468303,0.062148661912542306,0.0754401343884994,-0.06116308067690902,0.11212188078513428,-0.15159364896148098,-0.01552113746926269,0.1328259931611108,0.10838418412428276,-0.01358010703082584,-0.09440438987437948,-0.03989238148014826,-0.17009293885291607,-0.07267786850554506,-0.19330140278378624,-0.08449161455778127,0.08910781365655948,-0.2209183344165356,0.03440105002211305,-0.07487273643111145,0.1913478025010661,-0.05111437243236756,-0.08183015624212815,0.08557004658598341,0.17448354017611023,-0.17547388114823467,-0.059535850311128936,-0.09413894482707445,0.037617620918142934,0.24168032598659,-0.11876395227524088,0.2143219139493872,0.027109250320102612,-0.03707147733745101,0.011849551844058412,-0.008329395615878532,0.17400624484599247,-0.07233081488702654,0.07910366771371465,-0.0857677302759508,-0.13738928043327428,-0.19680129331129173,-0.12137792205027408,-0.14172666779427853,-0.028000546657945997,-0.34690904542903434,-0.1809321495908415,-0.36457274182546473,-0.05925765188066842,-0.22945351419399965,-0.17730722282552044,-0.02361301193053411,-0.15779745041955837,0.0017283501815541264,0.007618881229320944,0.04609028398933641,-0.03510895558576819,0.05427334345619842,0.22227208510030377,-0.19593384254886992,-0.21075503414185326,0.03578647733833814,-0.10802699411499843,0.03252583276868313,0.13718616841669865,-0.13792200984949302,-0.039699454945002294,0.07570094661211924,-0.07618752957065589,-0.03923221899575682,-0.40198315016270886,-0.27473705129713816,-0.5475091750896963,-0.6035983394828895,-0.5887769842482484,-0.44601663821755216,-0.5518296600323163,-0.38402137687546434,-0.19556060425211944,-0.0679558343608978,0.09255296244026982,-0.13554513238081628,0.13918203418692704,-0.01609533183675433,-0.17022553700511173,-0.32210861819169573,0.13662730570028503,-0.04154806182326728,-0.07156772419677608,0.14354306036793757,0.08482253983795894,-0.028695009920645043,0.004949109345571742,-0.21704586474615267,-0.022392534079197356,-0.37048461719724407,-0.23362683597574724,-0.3029965235823549,-0.5663208726516408,-0.5010514405506866,-0.7350025287162852,-0.6737982968957359,-0.7472735596855935,-0.43175289430833536,-0.4206504050768499,-0.3568086389789858,-0.08580142021735786,0.341120046360928,0.23607943105673138,0.25649027220816445,0.07388350437653521,0.06858075452772758,-0.07525520749724166,-0.14893371858633114,-0.09797859248764614,0.012636402090191134,0.15742563672055243,-0.06742037176162628,0.09310045533785191,-0.13438206453149049,0.016201189238150494,-0.14955836362238142,-0.39540289770414433,-0.16955818114773996,-0.28529086406531257,0.08183918149045999,-0.12391401898549387,-0.5088310782604966,-0.8004214045683015,-0.19903372438613343,-0.2840534614079605,-0.1567679985008137,0.059122266778330934,0.22647015545648302,0.22326427084414055,0.49102233231556974,0.73509964141074,0.6576760806482123,0.31806756757102717,0.1472004092547131,0.04853516987734194,0.035711852416753266,-0.13342413367823067,0.07912945430227279,0.01586762983810556,-0.16669963128328077,0.0028157489081953365,-0.14354729691635637,-0.40391755755880165,-0.5064436561206417,-0.10257302711405208,-0.298919396668185,0.019131610098504087,-0.10678579757117686,-0.25466829067103736,-0.4878737257448816,-0.6366509534836104,-0.649452091898074,-0.13829889996940903,-0.07032989134424053,0.015252607969770115,-0.8001026372273676,-0.34656184981566596,-0.014048395126705693,0.5746741223427922,1.003178072278731,1.0111836452349388,0.43866275960503964,0.12223788811450266,0.012417653990005098,-0.11652238708138404,-0.1261218276234674,0.01209502349061162,-0.014124482591956915,-0.263036451852989,-0.38475844719983354,-0.3241904800239658,-0.5086797968840459,-0.25648258773808436,-0.1852459825918571,-0.2987034480486664,-0.22427405985394278,-0.33350737837194183,-0.2738830531122542,-0.45363990625085937,-0.42485688538779376,0.013373675042664207,0.3792285663366992,0.09760605618924596,-0.540565643996268,-0.4261817634036206,-0.005044765541405298,0.5277843690058093,0.7523508851919704,0.8902055950930514,0.434684286409413,0.2069581389355368,-0.0015554882990932806,-0.11360234000410427,0.05771008638757962,-0.05165865359071739,-0.2004946214585357,-0.13643511896150118,-0.25495464037547044,-0.3785994998815104,-0.3714503401047699,-0.13033994744333435,-0.2775753709767085,-0.25327727543393097,-0.4415604613348419,-0.11104228937543599,-0.49074244570104014,-0.30953920471394597,-0.3031161922621106,-0.06602611628008598,0.47968526713538445,0.6710829160047971,0.012894750863390913,0.14904761430967223,0.07928496275825647,-0.2569140164590291,0.19984593003313308,0.6090415941094982,0.608942144470002,0.17351316624686852,-0.1456396827437484,0.01388016664544775,-0.1736451613304059,0.26024433804329855,-0.11556905985979511,-0.3273043193178771,-0.5387094851113214,-0.4799757686013583,-0.6090631206933138,-0.35686030148683123,-0.24145040570532308,-0.29047092506792693,0.057755473979340895,-0.09572029736975353,-0.21674446114694418,-0.6337531638418483,-0.7452451468650798,-0.5078120339991445,0.39830841196141753,-0.30116577259105415,-0.37369494560834826,-0.3262354813591396,-0.6088208936643889,-0.7869316027850012,-0.3798225771062333,0.11654876215850035,0.035623290860079045,0.12088070802361377,-0.06737867965203083,0.00947464678802354,0.04275028343132971,0.064118643856184,-0.10161753755478714,-0.20735872551753035,-0.3458916090326171,-0.5739837708205286,-0.6055325683500469,-0.0049335630638482186,-0.18083594506299072,0.17295191838841112,0.2665422368549558,0.5303309881504416,0.38601926880387205,-0.11012711770093918,-0.8720563864865577,-0.7140939161821691,-0.7132121392110586,-0.7120589928565844,-0.98237465609419,-0.7465894767810851,-0.7193553968174493,-0.8013469556061399,-0.6023370920653557,-0.5267344481985481,-0.011401283627054575,0.06314580106852347,-0.052047296692269616,-0.12087196057991534,-0.1287513424278841,-0.06620433491796689,0.009869378912840655,-0.17218363194666972,-0.19140460610460522,-0.3474512545694231,-0.5780553127630359,-0.16783984803168828,0.018670569160471932,-0.07552052555943017,0.1256589886298837,0.12821163525684026,0.2372674434010438,-0.5432207750248779,-0.9543270381434381,-0.8406316477881286,-0.17642508708869756,-0.8115864286024183,-0.9799070276627437,-1.1890863519592478,-1.279019300665589,-0.6247980812829491,-0.9798284581877394,-0.4120899464414853,-0.17563315562754084,-0.023159295019651447,0.07036956609193361,-0.05788046520234535,0.1310626683823042,0.00018497076817834248,0.10035726079310782,-0.14696045544667613,-0.38127587399055013,-0.6663417878145819,-0.49904427474684204,-0.02941813807017178,-0.08639334444010557,0.23289494757165086,0.37400253532531774,0.5848821665481667,0.4217438495509753,0.08580098615002424,-0.9397215816790303,-0.366212984684269,-0.04055695819710759,-0.360946735310265,-0.8825482791408938,-0.9489149342598421,-1.0835289764165794,-0.652501187896461,-0.5582866778702595,-0.353956616357541,-0.08301938879750974,0.04969890287209158,-0.038879917038127675,0.02257672235472872,0.07959946893262028,0.10144746844097484,-0.27529265377439766,-0.2301992102286953,-0.5878124743280095,-0.4837161508623407,-0.4189340365703295,0.22087847319706563,0.5382407939995458,0.48950902869989155,0.5974154711369735,0.9151563726714768,0.7043972620622926,-0.12917308477244474,-0.7892879399543333,-0.7611729680607038,-0.5354808110370631,-0.4406107412990442,-0.5609050646894772,-0.9752877230903,-0.2840077840030791,-0.26965208593058765,-0.0764925325263934,0.06440389275280156,0.15304513923519292,0.08075164865893834,-0.013101621222093355,0.040988605721129216,-0.04353280536317778,-0.043863307888497606,0.10798226089732198,-0.16686777019038262,-0.17461010214003694,-0.17783804147463783,-0.01268607271811054,0.6231064608720619,0.5549779464220257,0.7705492818639069,0.8881061159418575,0.7496624572402347,0.284218877999612,-0.29403986418757266,-0.6682821178099765,-0.5583720780845383,-0.28648655179135646,-0.032129348189260144,-0.09787295420698341,0.01710038584339594,0.22295816052634626,-0.2897069373323367,0.11357373585566263,0.09070786743105656,0.10655088660659695,0.15530500588698667,-0.03056946463082671,-0.009658159304101355,0.1407872651308951,-0.027472452698175207,0.0068681472447310885,0.10125103506384679,-0.04886177615515312,-0.10956746721037565,0.5011843386504807,1.0579217730278077,1.1495418253070777,1.345410264303835,0.878112312107232,0.5738767300244604,-0.22723245934411174,-0.8751165188475553,-0.4270959001324358,0.09513292522968679,0.042734894577696254,0.015987645113601,0.08301649326452207,0.33176859894292177,0.19874521443351492,-0.0890312756678269,-0.2215735693808546,-0.20653817625471296,0.1076714204976295,0.08310012897760827,0.06545429901921528,-0.16332877549338928,0.11799484172430515,-0.02494276499092401,-0.13517267310459202,-0.13581083080353276,-0.42739687107710883,0.19412721940866173,0.805764136538057,1.0410126980079482,0.9496502137915901,1.2419215817477967,0.3268948561807667,-0.20761551981096588,-0.8135936321722871,-0.827455108220716,-0.1006329492540242,0.569242466969687,0.8929951798707215,0.5820487812261707,0.47596087027391765,0.5411610625899866,0.6230239291724312,0.8190025933680698,0.018240056412234962,-0.1776743666757385,0.011749274671892641,0.2544238700478789,-0.012951587174961103,0.04373562813004802,0.12981945636085107,0.01875075759684957,-0.05826809312084416,-0.31243733605339125,0.13985448606364367,0.3741853032775341,0.6979628037772727,1.1236618387106911,1.0732197408844244,0.6966456590914505,-0.09109202639099917,-0.6760566546668165,-0.6928088450153017,-0.5356466475893086,-0.08297880461055948,0.1889834153141291,0.9458247363408027,0.9221918334249343,0.7255568992994544,0.53208394447308,0.49724008664685837,0.25192433347741433,-0.1437759916477301,-0.2361011267550689,0.06165342378609115,0.2688070449148091,0.11286204561144178,0.11518543546025063,0.08469839700817058,-0.026428410365449677,-0.14680499095666916,-0.21645343438624084,0.34858539051567367,0.5124211694619921,0.9096245662659941,1.0401067867936988,0.7296206824717625,0.3485288548925253,-0.5603566903588385,-1.0327845144308654,-0.9958975784864558,-0.657975554349132,-0.36994775436364935,-0.11259721749328809,0.3706563365973201,0.5182119738942228,0.35338430225215456,0.16088657427386927,0.041649455197537655,-0.0793487906097315,-0.22885158286341212,-0.31452981508400507,0.11826435015346039,-0.07012515741840583,0.02343246361669185,0.014211603211153816,0.04392381801848031,0.03285971396956984,-0.0494614091494797,-0.3275293787204945,-0.015635432957300424,0.5452782974903334,0.8773388237026251,1.1866956148513503,0.6691955816720117,0.1960271279082161,-0.6832291034729717,-0.9219468043342817,-0.9076984119070585,-0.8023212585333539,-0.6794223183221054,-0.392799450074912,-0.2499565518835534,0.03556625146280224,0.19652291950293999,-0.1695251783538467,-0.41699825339523566,-0.3434602902110036,-0.04495702604051429,-0.1010685863874556,-0.12073810896359702,-0.21859350650614018,0.04775977603865236,-0.21734642322662298,-0.10135010524736353,-0.11857830255149786,0.0953161637237021,-0.32250530397914834,0.07458250616604628,0.33211775647786385,0.6996944366419706,1.1225232484044854,1.0016251862561956,0.5660283010563163,-0.044105761002842164,-0.44437874542163086,-1.0122539302761298,-1.0078317199447573,-0.5649846610153907,-0.49301319082066003,-0.4165398070034788,-0.6143287212088906,-0.2598914980260036,-0.09477047909256059,-0.22156135108278519,-0.14445424082184125,0.02019804603358414,0.18447148184706352,0.0041637307843855,0.04839381817747955,0.02328762747667381,-0.04915323781734909,-0.14140994590208852,-0.14799793477886364,-0.054780951557998406,-0.16422494434978072,0.07469470746950432,-0.02950917784803772,0.5471829438316967,0.9883049730926154,1.0354590698269492,1.2440296441409688,0.6190178984474176,0.21351497499157227,-0.40147551242865914,-0.4821313565784887,-0.39575689914974554,-0.5092208883774121,-0.8769905303070544,-0.8983980237179034,-0.49999480223806864,0.21932675228696308,0.23496747589911893,0.08478571860235878,0.25515712068388136,-0.017482298428268657,0.04324478273984477,0.020253231223256004,-0.07167459127671728,0.10950486562076002,-0.22630902584808607,-0.09330507314042376,-0.09039399047503985,-0.0735507613871689,0.0034697863976430408,-0.06542411474413344,0.22004475571131732,0.5050658034524697,0.7766808758226131,0.8960041446919418,0.7075201371672096,-0.1291072836478945,-0.3435891563320035,-0.4730248834049056,-0.6666547691254535,-0.7909629002237473,-0.7447356633372385,-0.2478658823574126,0.15376630518421353,0.4241174734859799,0.14099589807573068,0.016226584922637743,-0.026190321530054263,-0.11818192300636216,-0.06671522247374112,0.15534680300189238,0.03652230248151929,0.043154334889731465,-0.03139593483775515,-0.12252339900292823,-0.0075043384309778196,-0.257289886917183,-0.035780524908745684,0.22719672703177513,0.25607739106735294,0.0759070195683936,0.07925055148686697,0.16930014348806827,0.043616001580175826,0.07536582128162109,-0.6751444288554187,-0.8254812851411221,-0.8823708006656853,-0.5326920492869088,0.05338479171806683,-0.20417727856050613,0.11210361387512001,0.14940031962934722,0.17464639908528978,-0.024377348653386154,-0.04876474586052735,-0.24168528959012225,-0.23577451176630387,-0.05964674652150104,-0.10003132910996283,-0.035815761127339134,0.10138616018429146,-0.0470182575559406,-0.11531036656739076,-0.027773211517257358,-0.19606061561311708,-0.32959364926251444,-0.1459145901723384,-0.3865931297888529,-0.3375457119722764,-0.4291367956249584,-0.1770602325355841,0.15443855621646005,0.09741720523183253,-0.17408439762341307,-0.6780886061431838,-0.6908672905055541,-0.4747030988835503,-0.49144439976117993,-0.5040945027919477,-0.11591081265012845,-0.16556170826018454,-0.23438581198583894,-0.24853931570177734,-0.11182170731180821,-0.020866420690264207,0.050540235247821835,0.10061091645314825,-0.25100043528966104,-0.028909492299893272,0.18891770932678914,0.16531347066912663,-0.06164592232736268,-0.04762279057962818,-0.10900431067726891,-0.27508559256342824,-0.36229463276960155,-0.5902011265139571,-0.5051797459025302,-0.5978023711763999,-0.5429420328700959,-0.48199660462990407,-0.31038695459616317,-0.4472462569043152,-0.3568606675336779,-0.38339560345197227,-0.682535450080614,-0.7391381836845978,-0.3624697387159178,-0.42594197683584695,-0.31599856636094265,-0.20568527609109674,0.12318118439891672,-0.07429355938362812,-0.02628129606489773,0.06651629516829223,-0.1519024683399754,0.007410017072275299,0.10709397462023133,-0.05117868442746328,-0.043945939334842955,0.006085569226626575,-0.030746253120546234,-0.19909905797779107,0.07671305465461231,-0.03203242937470738,-0.21588408711865228,-0.20966583144510495,-0.36908461873991727,-0.23896887564911348,-0.23647453009573952,-0.4961369150119028,-0.25105868083819644,-0.4163591568306788,-0.4852670940179719,-0.15644730046203165,-0.10155712495430318,-0.19266763485502744,-0.1765357111530676,-0.17431344963517226,-0.07106864484077943,-0.20783261271470702,0.07922053617836279,0.04746206767489212,-0.06909384381903792,-0.05074648707809395,-0.15864580821073954,-0.11755226667766185,-0.07678539092797744,-0.1210241998978517,0.0660888000737174,-0.020549831370038647,-0.11539997104441435,-0.1263491743955315,0.17754606588929414,0.0036399261547453007,-0.12075557273781802,-0.04886978246791547,0.10219727412840832,-0.08454365919235157,-0.08673655646432736,0.02528852214471375,-0.08018973768530777,0.07692820893017582,-0.014580032801016371,-0.1671304717045482,0.03726980053211205,0.19478051908316996,0.02103137142252727,0.020703870797816645,-0.2893848162648411,-0.207188935867115,0.13102691579129522,-0.10973104318089928,-0.07353146836941792,0.0443088534444908,-0.012134668355289606,-0.1470400018897763,-0.09603038285178771,-0.0614828265182282,0.026884489665668868,0.028873503066586245,0.02272021411361535,0.018245286483995884,0.030575196593576246,-0.090417266245879,-0.15485659350615352,0.03283671716304837,0.08788313586686085,-0.05834779162887192,-0.02254709354047895,-0.0004831441547924088,-0.13801777968936185,0.07487189732488213,0.022999259708281344,0.17589882661630427,0.1318138846266537,-0.08264456130739707,0.1278311683013104,0.004823494849361964,0.06197319332150469,-0.0028021722695576535,-0.029112106485942958,0.006873190199768036,0.015330897320199575,0.005423056431428268,-0.10065986624166257,0.08942683554380138,0.15883893142227656,-0.07623965890511418,0.11064150471565794,0.13190855842145616,0.20050523455583555,0.11896149048357844,-0.04152356015042516,-0.0872464771784241,0.14325676978602517,-0.18613969468570932,-0.11190613414331908,-0.1304401505170463,0.055880537198160496,-0.023935606539099565,-0.047977005071846594,-0.12330555833869523,-0.042206874255731046,-0.004841674603632818,0.014895662121425046,-0.02926859000200331,0.02983475956847996,-0.002416593091803884,0.012762969486424981,-0.030672879109264986,-0.06474624869129747,-0.05983427268197543,0.0789624455317939,-0.2288002918831254,-0.06499632258699407,-0.15395313499607668,0.09093290951197407,-0.058739883307571884,0.04386944734252769,-0.2306354350211771,-0.1444838694743469,-0.1639950209849655,-0.15462146326785078,-0.15229082400446145,-0.0927367098696328,-0.17075718155918812,-0.2858242277458531,-0.23737523206609357,-0.3401266952331278,-0.0840976670965597,-0.05225544451397272,0.06745303740630205,-0.30992349749415243,-0.11063083893746957,0.1381442203936221,0.04473872955848636,-0.15777143312635802,0.033901111368425205,-0.06415240626747408,-0.016835362278015333,-0.04361322300219931,-0.17552728704055548,0.00765619483945979,-0.04740666438385411,0.07959019123689277,0.006174466578949897,-0.0031087994192550037,-0.23500836855499124,-0.3634932499105395,-0.2572557003019146,-0.3862550090682186,-0.4100440488194434,-0.5901190641229702,-0.23238402154665788,-0.37165473516643716,-0.19751862457618918,-0.009405067617771243,-0.15882679883876089,-0.07115225782295533,-0.0042142789428536295,-0.039429046321566796,-0.06745017911214331,0.012279562488380533,0.045586632405806585,0.06993840087314561,-0.09943725138530995,0.13843136572327377,-0.0008720896655000472,0.0582736972409885,-0.10029508019474023,0.049816216580755406,-0.0632177148627376,0.15603098978939228,0.22038998704597512,0.16641469256649638,0.02003135557891999,-0.24398782682054365,0.11500126008577001,-0.31607158761128035,-0.17868965352877397,-0.38437027008022406,-0.42048655829839676,-0.3199700557508899,-0.19811502463970787,-0.39707133525868277,-0.15616844148448922,-0.038038408625379515,0.00430918543843056,-0.002114417866709988,-0.05624522361648,-0.06306003857968023,-0.2569757188798131,-0.0290696098467879,0.10581731160956286,0.03100207427250752,0.09032054839477413,-0.0675102407765969,-0.1646653684350075,-0.08596851944894071,0.03881316011733726,0.05398270703388541,0.25867883087401455,0.02506368396337987,-0.0689299708023309,-0.07531323305498992,-0.3329271395703386,-0.13303881171838033,-0.29170722739517474,-0.0866506321392686,-0.2409615480204579,-0.6798290167683428,-0.3849445525177221,-0.2473837849738614,0.02415621467805488,0.08819568034456943,-0.010464913522086706,0.014029235538240677,-0.06498052074843987,-0.0393797737361833,0.06658155048861707,0.00917168614421739,0.157899249171768,0.012128236629317356,-0.043823602943348784,-0.07394081569847742,0.1417830539632282,-0.21176345244871647,0.06321153460727369,0.1634648040247166,0.3065230646411193,-0.14477739116084526,-0.20157057860199382,-0.304175028450014,-0.5217579362840824,-0.22256747478347258,-0.3320373843397064,-0.28443092477205295,-0.6292880960760953,-0.3407093998107905,-0.43653749740012854,-0.3749900365172528,-0.21911127297765728,0.20775794424892924,0.025854172862469858,0.07221503510794038,-0.1131020478111741,0.03148399409820077,0.19311706980316476,-0.0028474633535501494,-0.06561877084716715,-0.241789303664406,-0.020006471983268475,-0.14246366522614143,-0.24140010679958313,-0.15575130754178912,0.23995165142507113,0.12209417672242037,-0.23334495874816502,-0.4346153152899774,-0.5738845850738167,-0.6980003272275924,-0.6200589160428611,-0.38908943002158985,-0.383957385929633,-0.21232928999440384,-0.5709182609321819,-0.5554682075767402,-0.18709020055773062,-0.09294466110580707,-0.13406715525942325,0.12799747292083785,0.4948987373205319,0.21988492680945154,0.008432630008215281,0.057932073072144444,-0.00978308296136647,-0.31128021193630534,0.03669318567843437,-0.02750549489271224,-0.12814246201944643,-0.21555314625095479,-0.15546022685596098,-0.10569657290246487,0.13451529065741732,-0.21727818544902974,-0.18191038731291817,-0.28586971182381454,-0.842360993626065,-0.5110497510837188,-0.300709957987243,-0.5651166161821066,-0.6835283200558742,-0.4877084057764584,-0.5839309074953911,-0.3952539641969522,0.19395989599477706,0.2884265357364053,0.046631743755733014,0.5756943035690514,0.6789537925218545,0.45206833354280357,-0.007923701311481696,-0.08422943896121209,0.0879161273453883,0.019276119412344632,0.03137457754231484,-0.1079475514228957,-0.12691497458881545,-0.14665603459809243,-0.1380096813342278,-0.32400304613658987,-0.08022198051597208,-0.26731643515026393,-0.1206038635574319,-0.46948684459078893,-0.7072051950346802,-0.30039593095748235,-0.23024066028794157,-0.25390113128869013,-0.48950411398737576,-0.8713160390000135,-0.5636329571879624,-0.42883052509828473,-0.025093951435746126,0.11438021374562929,0.3570666515534988,0.6705690382474141,0.7067367777389786,0.3120853028637337,0.020016895719130227,-0.03076593747000918,0.07187421136156405,-0.05870393013745179,-0.003947881053793743,-0.14547374017787004,-0.03863870652933616,-0.1358751363530973,-0.144567430803761,0.03554677167035767,-0.08434983630079729,0.25177146312571447,-0.15640258510179664,-0.6653584794699143,-0.6540871436913755,-0.111112112818783,0.13755038088236446,-0.09538995282577058,-0.804012377287875,-0.9371953728731229,-0.9226029180572148,-0.32660137058796473,-0.11686368219723978,0.017233628765341763,0.2062165158122192,0.2091024528823159,0.6265548945702905,0.2049467393404083,0.009863595774093237,-0.035782586061672,-0.2006826087042003,-0.2039668780978574,-0.20984118338639327,0.08643744899426346,0.061024920565722604,-0.04721471970989284,-0.0004982874225222336,0.07845397415344817,0.17511320793272872,0.010125304347047542,-0.252706167109438,-0.6261227501089416,-0.28043832466584495,0.31271084746694977,-0.11166207750198823,-0.16955958002447075,-0.9143345851941599,-1.126788810738556,-0.7717002938646916,-0.3947781692582384,-0.34206344931374527,-0.17572061703502564,0.17699280161589617,0.3424655750508987,0.27381054253678916,0.2511779683586964,0.04389653063068807,0.015300815447152675,0.014126615184826179,-0.07051725846352248,-0.030134299269888136,-0.11329232181749697,-0.07881373220339055,-0.0060182138604391085,0.006658208953153025,0.0602371095816696,-0.15028801870535505,-0.18980888185357528,-0.04683093290335268,-0.1519142053275065,0.1648455561537842,0.47095251200921484,0.2818496536111051,0.026408611025911143,-0.3819613700613466,-1.0610160511779911,-0.8916628062524722,-0.030374795611698625,-0.37020998378246406,-0.3066292689875644,-0.3687958202317966,-0.08284195265234988,-0.0012558095420492925,-0.01842310987713692,-0.027620861737168025,-0.03940244442959516,-0.013991071835551963,0.12269847826363865,-0.08288566428007645,-0.016517454352732268,-0.08756436140193233,-0.2859358291787607,-0.12547304995157627,-0.3068385412213459,-0.32184354975075646,0.12061399405095188,-0.08540851389555593,0.2570001262780784,0.48821707996400726,0.7752985971285815,-0.21704968974933875,0.28788996373399395,-0.09188198460234542,-0.033942358735498904,-0.08274468492297019,-0.01346151369121052,-0.276360201577622,-0.08679610993665254,-0.21730375451770836,-0.27399777138503073,-0.3052880987948573,0.036698522348485786,-0.14932456169470706,-0.13077813339455807,0.22138150751578672,0.023314521719178898,-0.017936517853734325,0.02976541345965772,-0.14503848121410728,-0.26662201340109537,-0.5221417643250214,-0.4948012442898071,-0.2952365473037143,-0.021486386847124526,0.10287848994050189,0.4669959278744792,0.6352002056589185,0.3532785568591054,-0.4684899933928417,-0.3419318815151255,0.11458267299117202,-0.057528658615070845,-0.1034298247098909,-0.3048715964065395,-0.28232671907963014,-0.1479206220826452,0.11285088300079825,-0.37023497810865497,-0.18440065326544344,-0.09779512002274945,0.05604758579014428,0.1290679419534683,-0.23386309168801442,-0.11991192740653274,-0.005674791913202654,0.007502805025916084,-0.21570145008564168,-0.34893332058406834,-0.42710637662957673,-0.634778489597417,-0.5623807716355985,-0.40706743704324516,-0.36540873939057406,0.27161697661977574,0.21814969004327428,-0.27208033523560593,-0.5264172808433285,-0.3039730283373489,-0.3512925069878086,-0.39989913399309635,-0.42480334613012294,-0.21575533628598167,-0.3180320124810524,-0.29897727351808306,-0.08154281956639305,-0.1370677071005943,0.03196410782704806,0.13855326757063152,0.17575547881076592,-0.052281698738344005,-0.08768234989150327,-0.19653178362524754,-0.05882187108046699,0.014135035903693884,-0.11970610995850278,-0.16416717501742725,-0.4030026710807457,-0.47459019646613304,-0.7317842280592818,-0.5424651045613519,-0.48773858209155374,-0.5122009561174954,0.013697248495935434,-0.01319727678394419,-0.37123062694751635,-0.3100636066006086,-0.7511332282369577,-0.9643778875552523,-0.6014069588479933,-0.15899494838799805,-0.05425375356311196,-0.23237854103735592,-0.06795670913470783,0.3668031749585895,0.15969741599425638,0.16066409959767167,0.16155610098881737,-0.13417811141145525,-0.053749940378080924,0.0005542710052214301,-0.04004174893494799,0.0488992926318724,-0.028072240761574923,-0.2134320514881691,-0.21831716288418307,0.03323912657934555,-0.29648751986675564,-0.22766703774458089,-0.47838308979097033,-0.14521429256242266,0.3805539461384028,0.32365241888994434,0.1345116574033146,0.004682372690313954,-0.6844176242794213,-0.8640598108021191,-0.6789227795304825,-0.45599005349351124,-0.48834693158769943,-0.10202195263605884,-0.26000362754544254,0.22629764246339895,0.31845817407863897,0.13036604563374055,-0.02679466927809249,-0.12069639838002154,-0.11386179885434969,0.11912687990956956,-0.04936269723703551,-0.18913281476351057,-0.2879361123605697,-0.009466163176963006,0.07882840344259114,-0.04739924522092442,0.022916260609373466,-0.13640794993365776,0.03115207982369867,0.11286772001669883,0.14590106698028366,0.07491560054246792,0.4182673545223353,-0.046663243490509765,-0.92276444821075,-1.0107059847107962,-0.589647148362323,-0.420821900369999,-0.4932870925500705,-0.15588767530837278,-0.0976917876529121,0.4463511324699876,0.4866194896502672,0.10452777232932939,0.023186764668390054,-0.11645645190414085,-0.06601510697961605,0.000822645333837574,0.013456807182860374,-0.012493593583997447,-0.16676315230219318,0.13415741832043354,0.010465411604474376,-0.10112880530401973,0.05763738169977331,0.111068069874177,-0.16176182135158745,0.1714114811620701,-0.020773820898547152,0.08273264968695182,0.015212511250403822,-0.274130336343805,-1.0313997237189696,-0.9726211414550169,-0.34976329675879697,-0.24799916630010496,-0.03179528853211705,0.045684279344145845,0.10100780500858343,0.3879510815668016,0.2700130937256591,0.15468617168871,0.09920156474680039,-0.10191859905345714,0.045571614671711905,0.24816500146318102,-0.03603838251384607,0.029649628138641932,0.01308210567119049,-0.22232358859071244,0.10208644144732924,-0.03614173931524558,-0.38248800316427095,-0.11016066306819045,0.12456519040971424,-0.03243928370174172,0.029508763198071813,-0.0036970193102115953,-0.3771208404654496,-0.48578540932485437,-0.8534202865243161,-0.7609766454396694,-0.4187552486297113,-0.11366085675723223,-0.2690706529700653,-0.06359632188050034,0.15949785108257325,0.29991922231859147,0.21180974381226128,0.09707067913718082,-0.0496560101572493,-0.029501466318614524,-0.07257729408012333,0.08911714110682326,0.07793609287104368,-0.02244907278246259,-0.09181303887629007,-0.05657726970532223,-0.11292786069598332,0.010957923337133737,-0.1450793369118272,-0.09972366362030702,0.04948922838660023,0.07784331835511535,0.03473104318555902,-0.18227944151251038,-0.29219351315963277,-0.5577692119807132,-0.614894296501549,-0.3800495453416133,-0.25270493287150203,-0.3030144727307542,-0.040544748974503136,-0.07318497721466906,0.13908064501172304,-0.035520884866059824,-0.010436838620359441,-0.0727305742048966,0.12445063676367481,-0.21624135572810207,-0.23797005317089862,-0.030781698561393615,0.008306986422524006,0.10735070826486558,0.17679642186794248,-0.1504372903626378,0.025063337433327854,0.10368736236103467,-0.2003524931193809,0.30580519120454663,0.08019755209731742,0.37814083113270763,0.31017483149893743,-0.2915192699321597,-0.24764661953669334,-0.3084134496907625,-0.3414656314427275,-0.25686481818454704,-0.13210301893434395,-0.2383427514311401,-0.15120990676354337,0.139057586410727,0.04915515442106804,0.06257462943712104,-0.16275523214062376,-0.044012690733310156,0.09269946304044276,-0.12901097144565193,-0.018371168202311567,0.05162322418631521,0.05481635494867616,-0.07205989116240188,0.01823255513385426,-0.2887846727090015,-0.22334348599556825,-0.27032805918246766,-0.23551481593566265,-0.1482334957480951,-0.08344717195988496,-0.008481685076879757,-0.1897618392803938,-0.11032696909335092,-0.1944395903378912,-0.39999819092399935,-0.2657189598967598,-0.12379312690959028,-0.07385342214098152,-0.08302960138886709,-0.08524954828424328,0.15057040858199403,-0.21792415107061625,-0.13799055063211263,0.06539331170518894,-0.020114456383713748,-0.09350704807659811,-0.09750061826502009,-0.08681839786246699,-0.10808550255540166,-0.025508035693098462,0.003630426335005598,-0.13790067303156037,-0.017519927444589575,0.017349049661495176,-0.32363698051973094,-0.1132206950776598,-0.12376773148339179,-0.2629242347444305,-0.1816149310247911,-0.22937372983103516,-0.15213338128818796,-0.0434348028756767,-0.03750074489275053,-0.0033099839377430038,-0.12278899813312216,-0.1844825953245934,0.03498638141117269,-0.12327726282152651,-0.12554961418368996,-0.030384873735678334,0.01593880069721732,-0.16168196613165153,0.15153782456370873,-0.09959186802428925,-0.13142953795103465,0.02678253436682853,-0.16538439259439933,-0.1853732919084314,-0.07381704494359442,-0.0819464105066955,0.062092987429683895,-0.17054455664649854,-0.18064296644002567,-0.13622296447668156,0.189647955081164,0.15002911201103492,0.05708193434157844,-0.04576279289234162,-0.013433344217723409,-0.03412033720351867,0.07661307547835612,-0.11876527322511887,-0.4267752674282948,-0.315147171076202,-0.19730378611233304,-0.08815239697947996,-0.0591748541989748,0.03149585957335681,-0.0475373193525573,0.14271361096747576,-0.239785025100055,0.0481940855613474,-0.09673242330367897,-0.08550741383299383,-0.14019574645456565,0.04094351257734534,0.07491857468427761,-0.002790126956204493,0.04768786378822024,-0.05339455512600308,-0.06487258290651393,-0.05082232940184703,-0.02564236883755453,-0.13510718849532005,-0.24973380060326233,-0.27504826447899144,-0.1364994346745622,-0.03921182336137935,0.0208207842589269,0.10245299561629331,-0.12394736680238637,-0.19752233058732308,0.04308403244429346,-0.11067803899904023,-0.01374108190163738,0.01709200457797505,-0.06644874622387563,-0.14940386395564337,0.04061452129278218,-0.10725287105544885,-0.051365800163702596,0.06476249947470582,0.08635657875127896,0.09473283466970676,-0.08524809334369828,0.004625167181966116,0.033267475878567,0.04632038653177315,-0.059870367543216466,0.0745333679534077,-0.08916808564340148,0.009384750236694396,0.00483256763298714,0.13196927632293745,-0.1747970718854396,-0.18440745892228538,0.0702679784000125,-0.08768244337120723,-0.008283411498415393,0.12456666927629809,-0.026772856230109013,-0.1334142332882605,0.13227873312027316,-0.35312457486793575,-4.1888861865542967e-05,0.05940781267697127,-0.12390517290505264,-0.03015680999055484,-0.04266416126321025,0.01588385823998784,0.01491508952966684,-0.11305941256595271,-0.1807288835621606,-0.15037508585494958,0.017766937379807772,0.05711997786617813,-0.028104829440013586,-0.05559419458608307,-0.05300590879012988,-0.003519494405212772,0.0059298143831167625,0.05858754206986201,-0.01594483073316054,-0.10066508593569547,0.03554136944763489,-0.20811252316585155,0.06121053587684756,0.1533416361730156,-0.04743160071539085,-0.10689685143386286,0.04654857651526942,0.06882705730235388,-0.023990449103641565,-0.04142631225106355,0.061867993910987025,-0.039263255610515885,0.08131433814160068,0.11710633704433622,-0.010048679020142611,0.0002354398046444822,-0.10753239631704122,-0.12805234238411434,-0.1483795138322487,-0.09572670995443867,-0.052794286530985876,0.03395443776473385,-0.10818119133251596,-0.02567049611797241,0.04369752133596905,0.04196479754728972,0.06864864012376055,0.09461631527494288,-0.0583267537522224,-0.03489375957950615,0.07200585182817555,0.029889832430631123,-0.11426837156328291,-0.1524537252978655,-0.07203177681145063,-0.009299687178169331,0.08554923979127597,-0.031493476144885964,0.024098247334968292,0.07912238862491021,-0.0910703932467367,0.03435339303013392,0.012435209575041989,-0.1543582400974427,0.17767041861558105,0.05390807897462368,0.10931764552956248,-0.047149250418473815,0.17141898035798858,-0.06380625975692052,-0.06190304034650573,0.1049352636333301,-0.018747585389128747,-0.02256841442550436,-0.16148203429393312,-0.09297937998637744,0.13993604181390001,-0.09197314356056943,0.010848046829494353,0.08318193405015023,0.17391705713435665,0.08229321928942518,0.1325276020208803,-0.11509315336691586,0.15822715746561736,-0.056603851349178155,0.01658532506763389,-0.061060158666613865,0.05828601806190556,-0.10157187269987154,-0.02009384738798009,-0.025869820958880102,-0.06407901813032589,-0.02433786466131882,-0.03417060975928071,-0.046764656015518276,0.06809050688600264,-0.018721992392923895,-0.06759565546560956,-0.1313435282720707,-0.056527058991495446,-0.10181863946742273,0.02731957699744449,0.11105138951503166,0.23616913647839605,0.34623640663086286,0.36616094521328496,0.33795776788834986,0.12258032181735509,0.22843813225405998,0.16542301723417766,-0.2610191610593684,-0.1289795597949157,0.15772917255394897,0.041146510591571026,0.03274257932578138,-0.052035985831547824,0.06447579319068468,0.04295070815169101,-0.20924387552929335,0.04197923837315156,-0.060293720962995664,-0.13096138974037322,0.09321514840228348,0.15674531438219533,0.06542550494186782,-0.2310716522603997,0.26699919881123085,0.31414342507748355,-0.035524988743724714,-0.19887143858397147,-0.014763474218805955,0.014794958592001141,0.1385132944384382,0.12643451395461497,0.29181193947756406,0.3666440965867984,-0.13167746986835413,-0.1823507778168429,0.04123258478530747,-0.038849061231916025,0.07913175754690269,0.06916870339707093,-0.04122471478946836,0.035532696842109454,0.018542525126414307,0.009935738353091958,0.09914933283895172,-0.252862658779663,-0.06462326400277064,-0.08930179065502464,0.10984440167142911,0.2459493118094931,0.01742592388199878,0.26105742100115836,0.41981281566515133,0.6050602146455865,0.08322031304529033,0.11770083393050106,-0.2939225423868756,0.20452773241063396,0.146826972628142,-0.3504750395818014,-0.006592817740262231,0.03013967289328061,0.4398278962847637,0.40947720701774426,0.5374633713245064,0.45577578288307036,0.11679631740085296,0.14360950749038978,0.03158084036786053,0.031078657305397897,-0.033955297395053555,-0.04668391717103683,0.10835532917246966,-0.1076799139753353,0.008670483963182617,0.08412843725387532,-0.06145642648154924,0.030342091435188758,0.3928828586272372,0.2548946522276062,0.09563869860218183,0.23838508009692277,0.5778065683710376,0.5273348323734494,0.4403663327240584,-0.05131451615742384,0.2444543772396377,-0.08634534519934228,0.009759922738821494,-0.14064614895322383,0.3717632346868868,0.37398206453377664,0.622031309650207,0.7762839252426799,0.4160849874906054,0.16509382005802345,0.000779730145981836,0.08889302623119726,-0.20083741321395526,0.09137514806464182,0.011331147914190834,0.22796438954934192,0.2719187854719248,0.19204421351590892,0.10860054544658262,0.17658992125453277,0.0729387140758727,-0.26430904590638715,-0.4371346686465595,0.24928690518301833,0.4076382924761117,-0.31464791648983714,-0.0657285723573289,0.0401417756973786,0.3069546639944694,0.4165638525543274,0.6438793300090905,0.5582878789548775,0.3500083463954163,0.4615788298719661,0.415749524016044,0.3574455436797793,0.3109048252291684,0.05493321529618893,-0.0940730704315509,0.008603385967511219,0.10128210488991683,0.08605232580372134,-0.003556820773007028,0.05311881244370356,-0.06926062696483518,0.0196633861884157,0.32155231817885216,0.2704579448277726,0.17530350014535506,-0.05149812749605612,0.00625693887670267,0.2778640986889444,-0.07261485183410826,-0.6132692166748975,-0.10025046411962953,0.31568722350564477,0.4500319689925486,0.1960233058509613,0.038409384342116715,0.027898438695718675,0.08056723149960575,0.14000235351796114,-0.04494979052653549,-0.13691304858866699,0.00938845303825334,0.16061940967154123,-0.14944049152745822,-0.32055333617808257,-0.0375714126913238,0.10806372041653416,-0.02650224048746197,0.01569570600369748,0.23010562512953145,0.3044230963380171,0.47036251784812216,0.6064734591402168,0.41533685696370926,-0.2286016057495274,-0.1982585458165357,-0.17469124846194542,-0.343461725671217,-0.1560161424590512,-0.002980242059327805,-0.047249922111673115,-0.221126920047692,-0.2352733827947213,-1.0789008598219032,-1.23057152541548,-0.1802674324722868,-0.2845847606017912,-0.3642906764367903,-0.4679861510323144,-0.19856120764793797,0.08798983881413643,0.15194297144445942,-0.006454032265117485,0.1038066458829195,-0.03265234117381103,-0.08477285269997702,-0.0035761440813452117,0.33458197026403375,0.23263337218319927,0.2843792994379187,0.016736925913591005,-0.026458707179139323,-0.47272449528213756,-0.5731481506908782,-0.5507452627071784,-0.1887674056337415,0.06322853784799104,-0.20141768443462474,-0.3902902077364151,-0.2708802599131306,-0.2699633626786105,-1.1214332807136551,-1.6655072431215086,-0.5964883846552508,-0.5624978086841235,-0.8417729231846997,-0.908440596737476,-0.5267971701006287,0.053478864501876666,-0.06029152407131986,-0.04974321700302874,0.01753952778782874,0.050179387520927814,0.02246680176456783,-0.020316565290784523,0.03211591766835972,0.057532738442160405,0.019903991930791908,-0.0714658033971349,-0.3940121846578393,-0.3176369971938078,-0.30751728714674226,0.19485961064815827,0.4334964035935012,0.3690015417317886,0.4167051796643442,-0.13717086260562794,0.25421487823066624,0.01854081464376394,-0.3906476841636185,-0.6467663770425355,-0.4551970134553376,-0.5395447417624503,-0.928555726203414,-0.9817210678493447,-0.4180500763871361,-0.046896744776334966,-0.10787127629063431,0.01979853041416299,0.10279312818473153,-0.02780340816148166,0.008843848843811382,-0.15161336406052617,-0.12562217843202148,-0.2132654218310889,-0.34055857281558466,-0.4141945365905518,-0.4754067307568702,0.060416218972148654,0.45304607720070755,0.8911308812106018,0.48958284983175193,0.252549269739029,0.38003397734916666,-0.05068555167993292,0.05263803184775739,-0.2122713758463376,0.13753150908513928,-0.09446001545916526,-0.17140148666724364,-0.363941360626097,-0.7276862510373325,-0.5749382747764206,-0.33167883412661486,0.049408114013800325,-0.090686763230147,-0.07682111477285004,-0.1870567600946214,-0.06239711239014285,0.20180322794241048,-0.13267162630184434,-0.22205677583408628,-0.16245913014020838,-0.42798189714729584,-0.5697420412482626,-0.43158413880909946,0.14935163309441912,0.4731807876998458,0.601765165646526,0.5447607558974551,0.14463464404406107,0.11526718001336587,-0.10249311585043899,-0.380211926220766,-0.2550553854913864,0.15336397939365431,0.08941449167726413,-0.3341048684124889,-0.1780998318317014,-0.7005950506844537,-0.6583929623038057,-0.47245997207358653,-0.2668585914218608,-0.17040668176900056,0.014895931443161361,-0.01885578214661726,-0.05332997069584432,-0.01229889663144551,-0.1240224880055185,-0.040112938729320986,-0.27992838484718235,-0.5289546786733429,-0.46506547977508433,-0.3079079936769589,0.25125172665568474,0.2570668287060717,0.22210085885105674,0.5641873602352219,-0.1445139930292996,0.08848124552132072,0.18515275905333275,-0.06744924261842462,-0.20831325499624312,0.03274811450843385,-0.2550035226404536,0.1595042739953523,0.005504854165651559,-0.10641455320194486,-0.17551567200665424,-0.22203808643625664,-0.14800896524851165,0.09555535475588277,0.03842200553835397,0.02122599265839715,0.13992976645426192,-0.15132641233360122,-0.17017452427230859,-0.0837478567358205,-0.42732002561431903,-0.8639662849768127,-0.9330676827175265,-1.1390851183024195,-0.7062410989005589,-0.1622168377017059,0.21801031502568047,0.9235019804761507,0.2019325872631728,0.07118519491982567,-0.28324615294723093,-0.053985833749641846,0.0763414970687482,0.05579559754820758,0.09116418507915389,0.25807586039121366,0.46024887936413417,0.27324562550563025,0.25592417035894977,-0.021704462042780443,-0.0689438183202475,0.04128681494254505,0.0686498315275013,0.04675637207699601,0.07201883750343872,0.04475705258853405,-0.1700428939741814,0.20584674274441067,-0.2426843528002961,-0.86114996225371,-1.5625922006847353,-1.63356904061318,-1.8222460511866614,-1.4441315055958943,-0.8151168026209841,0.08578264774231892,-0.33655362946339346,-0.7402155086977994,-0.8192795922676708,-0.12239442524205182,0.15668897928680145,0.32660811593226435,0.48806715413894664,0.3176530339725302,0.22337381820957522,0.5592968846832657,0.5323510456654044,-0.05299315330722005,-0.01072378972499152,-0.16482419913630553,-0.08642724644223494,0.06784430666314299,-0.03079327029744612,-0.15007733592308858,-0.11406978190020556,0.20149887080767617,-0.5607622302669584,-1.0465635871838663,-1.5757029687764226,-2.2355967755575237,-2.9381261067706133,-3.2550953957473747,-2.408687067815467,-2.2166689011562184,-1.8025616648744145,-1.3191797683111228,-0.6287555337624211,-0.06327757468113719,0.039739001470694896,0.16198853778417727,0.2875595302032445,0.2807213752485017,0.46577782755105906,0.5061180297611886,0.500242040146222,0.14977792833358777,-0.3435035982598781,0.08906503969873436,-0.1794120771603506,-0.10638919429267026,-0.023611853983976576,0.14549715258590745,0.25765199976187403,0.35810381583554735,-0.4585819398899496,-0.4965301056397969,-0.9544595216506707,-1.4139486931807461,-1.9690364775593427,-2.476494661212495,-2.399906842397019,-2.708235396579585,-2.0073160243786146,-1.2953451490851233,-0.3655876021121,0.114966392689856,0.004401435895026428,0.15049328216608326,0.20393441409964103,0.2063942234967519,0.4409859004762862,0.5548637051088834,0.22483642185368327,0.18503337204531195,-0.19194648837563638,0.01289907570444337,0.03408849185943684,-0.09113780632571104,-0.1522496484124541,0.0762087258644791,0.28846802261172405,0.17857481189542118,0.19983952947948827,-0.31027649004112484,-0.14201289142289691,-0.1924310133016434,-0.3777564694748918,-0.5328703110170905,-0.22032961540294838,-0.8416298791096893,-0.886529337679258,-0.8737294208487063,-0.704426297227043,-0.5555156578466136,-0.3004918113512253,0.06556495608267389,0.015858732138758734,-0.04065979230635213,0.1753607098468585,0.46425403615377775,0.35408552855779435,-0.009317719868856638,-0.19314806695318404,-0.16399930226136067,-0.04377366781923442,-0.05866608704978772,-0.08986363970820772,-0.07240982585657056,0.6436533850161849,0.19096787084926128,0.5092182534384191,-0.015508835754135662,-0.020570496170679443,0.01734781177376624,0.04228948250473316,0.3560149058981415,0.662296045350349,0.4150004639903016,0.18815905396479152,-0.3062599948919803,-0.36290461903124793,-0.5003500951057314,-0.01052389884569687,0.14182727119410546,-0.5162921307474484,0.21011353063280142,0.09983999252876073,0.8315761592175434,0.2657432287088017,0.04013047862596713,-0.191449449841114,-0.11219912740511451,0.08105408954097933,-0.049929635074971335,0.023663230782356534,-0.07244792940232159,0.17079626749731835,0.39901279633680325,0.5528180484729721,0.12637745249668306,0.10395511302012317,0.48672134700952246,0.5880543457038501,0.3993174941926077,0.6481475687178346,0.8073978495958547,1.0865610426855843,0.5063327162379626,0.045861387028455505,-0.10701689504022698,0.07805379711669122,0.0489319842742391,-0.08799043436943872,0.5440783583623259,0.269250552753175,0.4856620589365534,-0.059439118426997346,-0.10871224577454293,-0.11182283783028728,-0.060745241359132424,0.05223398475207393,0.0052594664214333856,0.06928419209984486,-0.059473282979001514,0.05750300074002969,0.27098562938862847,0.1378222301644856,0.12371053934742515,-0.010100244229490237,0.3734152463070486,0.5546876836079551,0.4129885656254293,0.46619955432687465,0.23045411250584336,0.5719241636947167,0.8004654299957695,0.5227340290291256,0.5395292744359997,0.6125570699776993,0.11656361339239578,0.3387677394439076,0.23913138829449224,0.04344990589020561,-0.015160849908305721,0.10380483430894402,0.02167950406183585,-0.03656588188706984,-0.0812718992317807,-0.01691022404720608,-0.15059489309506968,0.08066884125677308,-0.05140370113621578,0.030692018485493775,0.12318307711616552,0.4623771838362525,0.3949872049161325,0.18478798267255359,0.372863872937196,0.43103481329622206,0.27374545621680385,0.39667761603097423,-0.2619247151485046,-0.4525323650556454,0.08070419151252053,0.08807791473280158,0.4080317876677502,0.22238852688373245,-0.02745455763869419,-0.2788389361734333,0.0557472770929,-0.12441188793399295,-0.055933850119663286,0.183569045539986,-0.02683847477485516,-0.057153172319951144,-0.1661592678988189,-0.1284919364067648,-0.08313752788282515,0.17514815312448018,-0.2115456998964984,0.01258069253346378,-0.027117001732666877,0.288584007757984,0.4795539912651677,0.8317362440039482,0.8518357552326107,0.4455256518731812,0.47351923998975337,0.20713700579737493,0.1922606779207562,0.29777723000609346,0.38740664180975964,0.039411011921478625,-0.5534909577410864,-0.4705487316082663,-0.34727080211409983,-0.2615498879970513,-0.07356064913320125,-0.024771307907521266,0.029918989903694106,-0.1600082763961301,0.12485416945267917,-0.09019239561538415,-0.14168831222948713,-0.11620300014853803,0.0585149105440132,-0.07962801579748226,-0.0493094128415969,-0.15454839101478757,0.008250229378037792,0.36413793678490475,0.37119612449850303,0.5915482726515322,0.3088114765978177,0.3921999354629253,0.4632699237998928,0.4477264638403713,0.27495417427368535,0.19064491659651905,-0.13216625299356757,-0.04686976150044307,-0.16036305304799903,-0.1253957614963081,-0.09039357541694037,0.3257061987294506,0.11828479477267134,-0.03899237993693498,0.20813005398614012,0.0863423183805624,0.0921451020382305,0.05507783834036957,-0.05781716948145839,-0.13456199729895169,-0.11041179304753203,0.08775538681009447,-0.11367538677187934,0.026517716439368864,0.06320143256747997,-0.0623748847699164,0.1221060940363666,-0.01484355491726309,0.0911632870734478,-0.055809938893458526,-0.001084799762260172,-0.21144095403434401,-0.010489253252358123,0.005012176449379433,-0.08049198502587805,-0.04268496852394992,-0.16404324986488336,-0.15484133580514553,-0.08462641202339583,0.10345913974116698,-0.09906920632964544,-0.0949619917132264,-0.03837277188415289,0.14970078135220027,0.11250469640509299,-0.01769234947600072,0.019624969512562283,0.027668325713866453,-0.03956602998445652,-0.027154355059701908,0.10993349612600208,0.10436450891222625,-0.016977626425042913,-0.12990664473168506,-0.054369496991877084,0.05142118128761114,-0.012139597070852805,0.0019132553461927763,-0.010865839512182701,-0.004390578802883978,0.2099895536793692,-0.040924070826767495,-0.05890231183841719,-0.14602595387530184,0.04224904796674725,-0.05226000137250684,0.019331740068553396,0.07342828290469756,-0.13587839865400575,0.01881452777112326,0.025408416625760002,-0.0190104322147491,-0.03394229795745243,-0.07519750151132033,-0.021584401312576648,0.029142197294031294,-0.08135458585408915,0.10573911309496072,-0.04343753892965824,-0.02846923760462298,-0.11132692934770892,-0.070779529236758,-0.034846795781886826,-0.03220000599750017,0.021501435179454135,-0.10200190615618816,0.1663298241721554,-0.11738445301052865,0.16816133760099894,-0.04759575724874464,0.08537984036398792,-0.0316090906073728,-0.044613814444428565,0.006729597377634731,0.06221619251162192,-0.10975131611057674,-0.11870167479950965,-0.18686677059044507,-0.11331459664715592,0.14905493357446595,0.06369304133368874,0.1485872192468146,0.09109326540263497,-0.09003174201436882,0.15419907390063095,0.06106641173340371,0.028505302629987312,0.020553671315974752,-0.027428831400913137,0.028859425015660724,-0.1286218917788777,-0.13537769102913944,0.015549573273967672,0.04461645488867687,-0.2972367919407482,0.020244540812268858,-0.050873455758447525,0.028834756767473328,-0.07335350580594587,-0.013200966666253072,0.02246792103139476,-0.020494419087785584,-0.14414963441148093,-0.026620544426036105,-0.1364990991488728,0.12249904270902201,-0.07305073600749654,0.15544263549369997,0.04405223669434172,0.004828077326444356,-0.16983781971987072,0.008219396080803272,-0.011039039154343242,0.07725353921622259,0.026938304542485476,0.047368976851112236,0.08520248413264052,0.040762362636616555,0.20925216436575853,0.15992117548067325,-0.1241014534425978,-0.18378836893977243,-0.07241161721090139,0.06841563597138602,-0.03711687409412725,-0.05603122420829393,-0.21747742505701456,-0.11048287303790065,-0.033015121652119284,-0.005274226039729116,-0.21373345337945268,-0.029249490643355844,-0.013425150487941044,-0.0038858554554752163,0.02295904080032806,-0.10840929385518695,-0.06812929571407496,-0.054546551803099565,0.10092886981648151,-0.04947425963528303,-0.01997302365376612,-0.0124889778541425,0.06479480927183755,-0.0034946545174184386,0.012536876582515635,-0.08609102982222408,0.04300568381007308,-0.044429981196891996,-0.15482519401462017,-0.16105111400912356,-0.1626657434740738,0.04014449217746521,0.016798096286152888,-0.028399419641307613,-0.17339064376234198,-0.06351382765057084,-0.20669918265959786,-0.06413392529564577,-0.000255192215617512,-0.05942509957066073,-0.07457843086003388,0.08102394669569105,-0.06994182810294679,-0.07015142336130785,-0.028922800845489084,0.13075427414596869,-0.0778354562127741,0.020936838710181222,0.044050715637499155,-0.04560497874230033,-0.03550621780526347,0.1538853617377432,-0.008838977682770593,-0.04608708703569209,-0.2056223475355891,0.006529271985829743,-0.010266189963568172,0.14892773766944598,0.14509414291753778,0.15936163705675058,0.07169605591838782,0.1258544287610415,0.13868824971293153,-0.10888317416694993,-0.26492906808840694,-0.11250430030432179,0.009630335791183718,-0.02821165855273794,0.10199816505257685,0.24693960386842398,-0.024073669548365713,-0.22176694214089093,0.059192080140031585,0.05899401140078153,-0.186837297207675,0.007397363780312475,0.05616914999391005,0.22591428677073797,-0.11375578279589714,0.21520135573016566,-0.0630611475386371,0.02066326605269603,-0.11907287832442763,-0.27031530225202527,0.10514025969386831,0.13709451962485356,-0.14489307489573244,0.019654429751423702,0.19265412668766005,0.10791942500498602,0.031242932674167365,-0.016116507204653532,-0.07230227156158542,0.3098171427582826,0.0505532979099274,-0.017067249650692288,0.03889306912870909,0.20686324520946853,0.11601586169153338,0.011308098599423978,-0.185014497149058,-0.077418196148085,0.15716447982243323,-0.04007934439428305,0.0014199774835021769,0.2138109676335316,0.15464154704478736,0.05730598428787861,0.13509243800225007,-0.2623151589403249,-0.12718372972435385,-0.09104422792452291,-0.03083763377674971,-0.07149333034708541,-0.18415495644648197,-0.05891736914160084,-0.04800536481331606,-0.06371960786654782,-0.3062243388288672,-0.4526670112128686,-0.2872447776421827,-0.011724977079461098,-0.09650747647002426,-0.08249069312449199,0.08133723170256056,-0.08782908427258364,-0.042214487446161145,0.04613993055075179,0.11413610284070407,0.013155951052977264,-0.03245450988422082,-0.09019575020369199,-0.005398710448954227,0.0655474279665358,0.044575683344806716,-0.11739203579480399,-0.03612650094256432,-0.14645947689687974,-0.3621855057232978,-0.02671996784233485,-0.1782187410606015,0.13034828880246507,