0.12524294333881297,-0.09329448987454073,-0.014256335271465173,0.07926543714819143,0.04772336270894983,-0.005954414165402611,-0.2039064018496451,0.13141094697302186,-0.08830205650181178,0.09192753471865667,0.09325578191176445,0.05784059931102046,-0.0009380978002850411,-0.04492531834557651,0.12357399278415848,-0.09960528643282268,-0.14412212491555493,-0.19881135054048066,-0.10479851947692442,0.1800976775482584,-0.18602641046592122,0.059234222768720236,0.08413425774886424,0.20960300599073334,-0.066612549132749,0.009141758581845348,0.11866784798730154,-0.04615858872627542,0.010491470367699922,-0.1342789809424716,-0.014934243603318192,0.044299333659933084,0.0839472454883801,0.05422980488247741,-0.04003995884711534,-0.15085179624332293,-0.04669956119752273,-0.05952779539547228,0.009389843188043675,-0.1446084565252393,-0.02949063468923664,0.08916095200294662,-0.14843019412371203,-0.044164628000676,0.14415046502369921,0.026175241349468203,-0.01601864330934742,-0.12411514169209598,-0.029472911878808808,-0.14506779500233016,0.028808335603350336,-0.12136581755627059,0.057520857053657816,-0.02211776753243794,-0.09312074294889855,-0.13519222783773338,0.10486961230827563,0.06948880511246025,0.0688353262121706,-0.09435148133516442,-0.0380102316465193,0.03108115271859575,0.06926783762768576,-0.085356681908059,-0.04777271992439546,0.06664658084401817,0.10114309215147686,-0.03361212193296849,0.0014676724815529357,-0.08365064677908696,0.06019535866991399,0.032583918110353306,0.041786679010402436,-0.11201494442378723,-0.22136813373094583,0.120607018855953,0.10770461345847547,-0.13358317546836482,-0.01889277115264015,0.07293865098341039,0.032711186759585634,-0.010549406804359502,-0.020107416709408445,0.07489286921541538,-0.17912567720453187,0.017562762705702235,-0.07775228834784086,0.028284882745329615,0.027256693199158178,0.05290220495835077,-0.07496659698099643,-0.07513293473283632,-0.03218720766569727,-0.039099621526031976,0.219292195067072,0.10831869978722422,0.09039932551965325,-0.03287808072053682,0.161859490024033,0.0758590436733842,0.2525434255655876,0.372885079206541,0.01495941132914578,-0.17371439581700462,0.007931951637129207,0.04824199844377425,-0.020606759843694044,-0.10500880915602191,0.05832193414458009,-0.05126391797414689,0.06032104743257752,-0.024316921118934028,-0.02947671766635499,-0.08443979731917758,0.01707785989508033,-0.15025059653621464,0.09867719365433188,-0.09127259865677514,-0.049639521521543516,-0.09648242834754509,-0.15536032250355156,-0.2549266263285072,0.0826599379651689,-0.06116566920712538,0.12746561596317077,0.09341302136016442,0.3301638618750245,0.33125670137680613,0.16143541036830317,0.22101791976921195,0.07305770782093414,-0.25892562036221817,-0.3317471445531192,-0.17355995672395721,-0.08596235107249134,-0.14967412835446753,-0.10874030150591635,0.05456268999915319,-0.05042477413135546,0.1302300652686421,0.039911926826321976,-0.11714437262491367,0.002034312435004243,-0.04414057300199334,0.06527230981550963,-0.023613308461176864,-0.1086522553387515,0.05792577516718732,-0.1334918533555573,-0.02329449486330176,-0.14081281973756218,-0.015177737349761123,0.03814899928003033,0.34823105572713065,0.2532300386240931,0.39225177681237644,0.15414332248661172,-0.09094381127915882,-0.0539967113214257,0.04285378458597086,-0.34073997191027616,-0.49793635998901503,-0.49913489056449356,-0.3704785685635171,-0.4034534367388902,-0.2717286626044942,0.027183969705347068,0.08911429615567723,0.0035668265321594944,0.19083796586942903,-0.17095787304953983,-0.02766825172536425,-0.042512835368794265,0.06702324130535707,0.00907500340424409,-0.18500344303560856,-0.3285695646391114,-0.32001928535238344,0.07298635711756786,-0.18285645092453856,0.012766791696031298,-0.280184699947496,0.031834090642799774,0.017484244146827504,0.28152594097548794,0.16864371558948044,0.05550530744233307,-0.20881951709399582,-0.4942900070751432,-0.4856158978131425,-0.35628470565604753,-0.4684271668490843,-0.3315000672226047,-0.1182905096617787,0.026756447852281928,-0.00456922310468665,0.0008540356763817867,-0.13233099524239908,-0.1497116552482372,-0.12006243557350034,0.10388604004321655,-0.14490761440298713,-0.07944823080948363,-0.05304602743824956,-0.5319534117769327,-0.4278071994328633,-0.3138369841585857,-0.7288915464754783,-0.5764116248238906,-0.3918769334022881,-0.23150423917699517,0.03157156519392206,0.28245127333653336,0.19395585698489987,0.3028520614472652,-0.19140562485800225,-0.18662792144959497,-0.2961804550031244,-0.43074591056249534,-0.48213754497760497,-0.4399128691024084,-0.4548264641088854,-0.15321474234592258,0.07609715269369736,-0.01966363213331385,0.07386401801659923,-0.07904704044509159,-0.17708620435151054,0.018698140367469706,0.04411126120883581,-0.10153327803944863,-0.0872076689515648,-0.42388059176312154,-0.5313236925917975,-0.6999802953420712,-1.049059378948082,-0.4372134477397235,-0.4013927312030205,-0.19235363427123167,-0.1561960813072163,0.10597338206689233,0.3126433693624289,0.18918447921098577,-0.05704168969438402,-0.01734784863196602,-0.2538348828514761,-0.3028523460305486,-0.3730619043342368,-0.6208764439573539,-0.47514312241934664,-0.1764447317652065,-0.043871504383571854,-0.0761068142452024,-0.2177628963492216,-0.2966308349766599,0.07644099103133242,0.16894796666234496,-0.1373386005367079,-0.35096629731124257,-0.32434281553206395,-0.7197726924803304,-0.6075061903382093,-0.8985070771718446,-0.8075052552370583,-0.26293639761797205,-0.1103916938968588,0.09491436970991587,0.38016888860432685,0.19187209616983214,-0.12419119395315642,-0.14496929218933172,-0.35105972802496066,0.074413953253277,0.11059233357548856,-0.031737020650328324,-0.06517735609931018,-0.6548654541558023,-0.46014818696344867,-0.013236694425819005,-0.006780926636188417,0.023021843517952518,-0.29107304954480756,0.21664091643407865,-0.09191816200340404,-0.02577730137040529,0.09985849517407251,-0.05543059256399284,-0.1965398880624659,-0.6794368814426339,-0.6933999191894644,-0.7363517194639074,-0.6445332975889543,-0.3987445090811238,-0.3330542928475108,0.2549359301978936,0.04614653381193423,-0.03997945131215325,0.059571754695866876,-0.006806136686893635,-0.11629023439874436,0.13639129750761478,0.20058447151204561,-0.08524999105450877,0.2572683195455456,-0.20359464823562365,-0.16364995470741223,-0.13833689441295965,0.030925894941750603,-0.17040679708398979,0.011110500108720174,-0.10252873539863529,0.055150179828519136,-0.018560593628966837,-0.08501974902893995,-0.2614350634245807,-0.2135020670208042,-0.590960312138426,-0.6256743817309338,-0.4041362869545993,-0.5292482793155208,-0.4607290370081652,-0.02206179311384319,0.022655604219477824,-0.09917869061172283,-0.18316805894031685,-0.2994863045424385,-0.11751535706837252,0.07555125404262655,0.2101889569984942,0.4749487358229432,0.1537454960559481,0.29955136673511956,0.0958390270558895,-0.04789091469851256,-0.10662085428477934,-0.026660787781051687,0.08687419788964446,-0.07921156077075091,-0.2031671912753574,0.18757432145919484,-0.08812860918074204,-0.15543420472570682,-0.22516322807807737,-0.563223486227398,-0.4727061954968145,-0.360831582474884,-0.2750756295459891,-0.7169022428469936,-0.44595017156677874,-0.6100933416962424,-0.653066674069841,-0.6176848273514729,-0.5944724858026588,-0.7024818652300495,-0.40759861102675116,0.03155325073700157,0.23386595715398578,0.29127199126866243,0.3553949239139352,0.24077982777553258,0.15558775047546827,-0.010118218175328009,0.019194116964203114,0.06407575090847523,0.050792447653493035,-0.017846438003937908,-0.06193671947391006,0.22625651229293284,-0.1610067674609858,-0.09183846419279751,-0.30297805928218213,-0.2982956588749185,-0.2311534857505711,0.15292047969666406,-0.11126273391841261,-0.7093948601228538,-0.551948546867531,-0.25288862152181213,-0.4702142393299423,-0.5311575483098406,-0.7702507834756653,-0.5171473845272412,-0.1364260788391904,-0.09243331853477747,0.1414699556091911,0.2774266459466758,0.4469832904835468,0.3298594483668149,0.2405721693590331,0.042354709402546,-0.08358620272581674,-0.16476904489612404,-0.07738866260008037,-0.013424955527472918,-0.06696715701870291,-0.015733758569016213,-0.21975012011226283,-0.01193974158678044,-0.23498973113976057,-0.008875035060033586,0.10944130423559133,-0.038194617277999554,-0.24682757183482024,-0.3835218640276621,-0.10515934166217232,-0.33721373711658414,-0.2818305030229187,-0.46012231308792195,-0.7618697496611961,-0.5259101372433825,0.13343074558163348,0.292329572362957,-0.004663741321330272,0.1373609986904837,0.23159568223885843,0.07428644298038797,0.20026501584516096,-0.11828387033187263,-0.055313513101701954,0.09866364821533263,0.026948767236804196,-0.14548911747262905,-0.10184375734278445,-0.24134789046807126,-0.10326026478467733,0.08837448199703024,0.14942358088632438,0.2588824494981764,-0.030903363227074317,-0.07525837188555765,0.060763416305124676,-0.18913040448537552,-0.26528997642464425,-0.1630533359898735,-0.5461236578091931,-0.5481242115046073,-0.7509340986751941,-0.33699225138710165,-0.032652596020263686,0.08597866852286706,0.02485148957794935,0.15735836419290536,-0.10396871724308623,0.2600942681584397,0.2504282378660011,0.06968954562193913,-0.07049940610482845,-0.1249755529190039,-0.12115745448095658,-0.00033638222427202297,0.1861148149053048,-0.032726527108422866,-0.06149739117758113,0.19103319760333998,0.4232962751230512,0.30269927329724766,0.2993841651848056,0.24070580526518565,-0.13431948363406887,0.0610563555001706,-0.3697118616988578,-0.5915829083578698,-0.6896263842592211,-0.8531672460390279,-0.624842993542221,-0.35903206358194356,-0.40443353959614303,0.11119702916970928,-0.06273562817599983,0.06746016660840413,-0.26189892703288514,0.07866216649803348,0.1554100882173076,0.14856925342372157,0.018450321088852428,0.03241113987733755,0.11127061321923223,0.08202820950103218,0.1109076131214874,-0.028354073921217176,0.030968705510889913,0.18239177223991349,0.19866038863280114,0.22486063711094867,0.32548553020580023,0.336508992651,0.2938658981729332,0.0815315097803314,-0.14255243579786248,-0.35256082340792466,-0.5758918205807406,-0.7090958264946994,-0.8181537673371433,-0.4066098940780439,-0.22479305789067963,-0.016513281257843366,-0.13122395321860195,0.052142122729275625,0.18984733046616495,-0.0680539332056841,-0.14659315958945357,0.018060521158136566,0.03419445736560714,0.08683277277329836,-0.07842222878180302,-0.034836645949287814,-0.14116484669450283,0.08229215546867984,0.019408119446005952,-0.02997790689524303,0.08489220202619678,0.07321107128273395,0.017030333585140667,0.014929567843396106,0.34641490037027994,0.10467602173551123,-0.3639287309510695,-0.3991838607347378,-0.6988426246006496,-0.838349567509065,-0.5761370116035293,-0.39448691330338304,-0.14789985268935488,-0.11320937564586996,0.11549378691705303,0.28999326309595336,-0.018795663599028085,-0.1891390178453657,0.15897037877604506,0.0928124123396894,-0.08831342272305975,0.06716372830081027,-0.15030145691778396,-0.06115751750063956,-0.08534772991285232,0.030904684653725478,-0.04227107027730736,-0.0018087175476237838,0.03704026007693503,-0.09519111533955588,-0.03964770609582833,-0.021034586696768512,-0.03838511426439482,-0.08868818388261619,-0.15786436687247343,-0.4191564845726198,-0.5082133323964566,-0.680909643475533,-0.5807667656185456,-0.2709867275326727,-0.30263247339396443,0.23027442576298765,0.2827025339886017,0.21213901870503213,0.009827964320111416,-0.23195446913039272,0.23890723099525818,-0.032376777812917444,-0.1122582951422202,0.004227074593659682,0.13555383249500702,-0.05168440164007194,-0.06775515426705767,-0.08459672699094911,-0.058664378910642766,0.12483849483138001,-0.021239132785594497,0.0041916470375444265,-0.15269662059278877,-0.3210332060003384,-0.4312648734562564,-0.1738387509252092,-0.3826619344881371,-0.06047456153760132,-0.5432723524670986,-0.49821435083667603,-0.7544112664775224,-0.7595051832182682,-0.44696683706315016,0.10202584146484517,0.37887764826825004,0.11439064105324569,-0.3255323284616928,-0.2538120392862206,0.0752222073118643,0.09566875803495259,-0.04865294862115905,0.002317486737267551,-0.06814439853332999,-0.01935186952349485,-0.034967789091013675,0.1029732844676809,-0.08229840289828254,-0.005628304006640622,0.04422824259632953,0.26371268560717065,0.11724147943002448,-0.019700925172602,-0.20116950939559522,-0.30619317910513083,-0.3383936803528241,-0.45234348781275946,-0.6850609477682912,-0.7207004087890935,-0.541401708477101,-0.5421295461295371,-0.44314449870647643,0.07833067693480707,-0.08586267700740398,-0.026828765449794408,-0.3079297888405536,-0.07281860958516724,-0.0014342820742681479,-0.13462089851787637,0.10389229833679521,0.06898796964167041,0.04814086600695253,-0.26232026851013823,0.0018543452090498383,-0.01713716422260847,0.009215181036628687,0.07780091270283744,0.10520047551988686,0.26640379699766936,0.4362455697242185,0.03883863103412464,0.027341662237770292,-0.2605147680193974,-0.07534686868806124,-0.15725150440350347,-0.37362756590815943,-0.2709266946185686,-0.41871199271821613,-0.09336533041356009,-0.3986954481137157,-0.22928135953874623,-0.2527636266313668,-0.31665213644912726,-0.367614794081496,-0.12078627399509351,-0.05623176983985412,-0.23353547046359435,-0.039055817981338316,-0.12688400022871957,0.10729208840182017,-0.07000038432383072,0.0640709216177427,0.09846182198075336,-0.11898348331451827,-0.01330578265328576,-0.1634329553937999,0.09349805598060976,0.20321648628925645,-0.0032091585749048314,0.20164150187853555,-0.05325694645302573,-0.30080877058033717,-0.4478412392873583,-0.40156171046212763,-0.4096975324354255,-0.3088665387453215,-0.36293175548063855,-0.6791549825662089,-0.27823250227828983,-0.312401522645481,-0.12815908794182718,0.09682212996690924,-0.07289729573840832,0.057640268739251946,0.10142114886905262,0.2184837604551141,-0.03345164841161222,-0.0023852506132555776,0.16085567669555728,-0.1228506289644942,0.04411528352730515,0.03816971655803793,0.1297527219542475,-0.06633511790571826,-0.1552617934830521,-0.18733656494871942,-0.22618687402389423,-0.01757247094441612,-0.20420692528872397,-0.15557511939523125,-0.5141420756186793,-0.40383093591717345,-0.24032301114459617,-0.3045743143002003,-0.2702769128172668,0.07221292180530668,-0.07631991816080948,-0.055955146428724775,-0.077780870071053,0.11530366453230198,-0.0927123527053759,0.08849726062995898,-0.10379703178243424,-0.10046470877107104,-0.0288282482262808,-0.06470396986290562,-0.08563452997295021,0.032888346640410245,-0.022159888017377595,-0.07275876461850153,0.17811510680723047,-0.027549186571785955,-0.012213591890743664,-0.1702425976049564,-0.10429875882011833,-0.07417510883371459,0.06671083491980881,-0.07185238008802772,-0.002208169615531811,-0.10664584903350688,-0.030687097587389266,0.05558869508152195,0.14059489151230642,0.05624847508296954,0.22334857932263819,0.07981054896059211,0.10683206078124446,0.027512843351875562,-0.026015283922696964,-0.1425042097722153,-0.1373108687839488,-0.01363741200251828,0.027957096573657313,0.024435230691600064,-0.18593362235209782,0.09080351450912927,0.1176032889968407,-0.16133851612842107,0.018186593444581258,-0.01962478395935004,0.06708738523825725,0.12400451494211269,0.022736702800525862,-0.18272568929786154,-0.11093762866387254,-0.029510508226080135,0.07332370660511066,0.21926369119620476,-0.08152808149075873,0.11869952824733865,0.01496259525014231,0.16917446357069496,0.03583521207008075,0.036784863182512874,0.08449581429507175,-0.12177029914821139,0.07831630521021452,-0.03693674386730287,-0.08441827242383464,-0.10569476030077993,0.0587903672550158,0.06824487782157104,-0.013077792172045929,-0.053264175263965784,0.1472807985795188,-0.11308268755532351,-0.03893095955691152,-0.06179002747413317,-0.002423668017869795,-0.13116680588633725,-0.16077136179422774,-0.02224738832906695,0.22736864507289595,0.04949099751554385,0.06952452813998254,-0.006895941473994561,-0.05680435419775901,0.0974375482927762,0.19132167734279337,0.024827524493394027,0.19103663915560243,-0.15196715408324954,-0.03344551462224117,-0.19511002735160604,0.024903618620398135,0.029480631333202497,0.017770848032896226,-0.07908982219994473,0.02639756595076249,-0.06513406970626083,0.07522771785987593,-0.12053048436204412,-0.05385847017919192,-0.05203591585180828,0.03534787787074753,0.06498583870548559,0.0281899733738856,0.1142696836040528,-0.040396415721516324,-0.1342467316200564,0.15246694618979167,-0.08771843222072846,0.141508624639053,-0.22764875818869812,0.10742780369129241,-0.03359981044572616,0.16076985125452015,-0.09186290578357768,-0.013040081770655111,-0.10729182685611151,0.030349655861364903,-0.05237640363501184,0.02965692265972962,0.11461924517322179,-0.004885183096694853,-0.11826515845955966,-0.11241304792792313,-0.18667248828704425,-0.037894716329546774,0.037198948519132344,-0.07577400242024425,0.20774082153239803,-0.0031308882394811962,-0.009036123686742921,-0.0416171886658777,-0.002512238809327776,-0.03293666001574819,-0.14252133390422156,-0.13105715732270284,-0.14025601861358283,-0.009196745961175928,0.08015618625088758,-0.03102971695581153,0.013864472340956738,0.021750136435754644,-0.1566243812130107,0.038703247232357546,-0.11044665019202704,0.03452768934234851,0.1656804750188039,-0.19418578545042742,-0.10598428821324325,0.021746369585074813,-0.03230545149918018,-0.09543659682973522,-0.029599701930260607,-0.17240801790454924,-0.13950923147587868,-0.06958666594131993,-0.13889867767886405,0.09301905666998177,0.059739752313297534,-0.15054878428401727,-0.07562158885592266,-0.1031544689826991,-0.05727923629238384,0.06438378078050092,-0.0523609725834452,0.11359573632997434,-0.05620945038686761,-0.2781879393771362,-0.23868351035955027,-0.1056643858736298,-0.181467046904263,-0.0498564619907802,-0.012809575361191981,-0.04803529854789727,0.11984507778799665,-0.06843429330377705,-0.01279799554728793,0.02505408763602177,-0.09531617308990058,0.048546615988918504,0.168610355759939,0.052840175552748184,-0.10835180576183163,-0.3433843123335361,0.02486910157281092,0.08070441226611516,-0.0652656096041163,0.03450424137899502,0.12209273337270005,0.18191083477370543,-0.14114826882525308,0.23604115373895088,0.2666264753684912,-0.019323489577429822,-0.12284615161339936,-0.19143441823885635,-0.02712216605693301,-0.32420336518702453,-0.33985680831456566,-0.3932029790912822,-0.3552824037204702,-0.09689175832619668,-0.11802965994005792,-0.12565350713884024,0.038769801175753904,0.04754535934192687,0.0494177673496734,0.02539761161506587,0.05193465982511304,-0.19801606640777664,-0.039592757531904096,-0.056907117379543015,-0.046863648521230615,-0.003934888134031083,-0.13486145071160013,-0.18184653711346077,-0.08801900803348395,0.08692715367708881,0.1609641170491472,-0.06828433012139852,-0.08884912750446611,-0.028896380599026033,-0.04751323493137482,-0.14640108350913975,0.3220892308510198,0.17302118820405188,0.11732566279265545,0.19196761896595732,0.039944974052953205,-0.2766571618325188,-0.2216357974139785,-0.12280020455434099,-0.10170275674204969,-0.01958132705985635,-0.17055605985422959,0.15267026447961257,-0.14218376341935884,0.06945754395278743,0.09435026950424642,-0.0958639215297906,-0.09173431636022399,-0.16038816672967654,0.17283619754631196,-0.13251596394041412,-0.003169543231171817,-0.08543325111987003,0.3694302324749456,0.10083221403715982,-0.116484867434559,-0.09036067355406815,-0.06297856307852781,0.09532052415983779,0.46487542048750863,0.6912799008047485,0.4298502794416963,0.20957552676720415,0.15352664265378912,0.14350078406365777,-0.1713957646980516,-0.19984022242981725,-0.3967369976487222,-0.12542490388771427,-0.12431513404424968,0.013120245052342345,-0.0054690485694726615,-0.08242842995137194,0.06724615731650366,0.08554276142396913,0.011629462629265789,0.07268788252762531,0.15966578142911259,-0.18149763189691467,-0.4346148914686938,-0.23265286556656525,0.19095909907414693,0.1472021432525719,0.15816747003305337,-0.34582511148432704,-0.36087793291436815,-0.6137572743513681,-0.07991154438163986,0.8154290872008307,0.6315219340716451,0.06141608635033679,-0.5312449189345779,-0.36289781516674835,-0.3235691832871038,-0.5923369692792222,-0.7441328951298187,-0.38255034021703166,-0.06958195689110566,-0.05011031561903166,0.05512903932116138,0.020839814005338245,-0.025614885659661787,0.12492972590434234,0.005183153540959916,0.42570191471498015,0.23768012193930588,0.10083453362316137,-0.32358712926378297,-0.06250584981546142,0.07187784994995675,-0.14724319743158915,-0.035606465680591545,-0.4742650526046607,-0.6265268234520113,-0.9485524532604135,0.19361074549055035,0.7128470745713128,0.6066581713588065,0.13230103859184836,-0.4164348656743599,-0.5746471360573024,-0.36529263773707066,-1.0608316051378817,-0.8048348488264366,-0.259949365894365,-0.10472043489737777,0.03553578019214672,-0.005516482156441478,0.007618677064446996,0.13572622316602487,-0.13874933779011517,0.14683461139152093,0.34250364329302085,0.4193211825646705,-0.07475027294470021,-0.39713946254894233,-0.18218958955526757,0.09316457479923054,-0.33853982361991347,-0.2574347673577479,-0.8004029037233669,-0.855872443787793,-0.21870476828039534,0.5735195067779123,1.1623852556496583,0.5280706925212324,-0.14728721675798873,-0.7594175168547027,-0.6555040389462456,-0.3466254485663533,-0.5561444517129291,-0.7455006899899815,-0.3597403063596636,0.08747292055648156,0.05260573570343752,-0.006152817097263335,-0.02006247068289539,0.015773867410027384,-0.03376874310054018,-0.029615405830239777,0.2244012413795158,0.17259815529609898,0.012847885212259765,-0.5176883850343207,-0.018831742466031788,0.18591358665688817,-0.08527731234417796,-0.8900609707196931,-1.1313233223785957,-1.4372916797619266,-0.310041652156306,1.086881824504622,1.0307120981352789,0.8099216427293658,0.11375462088859316,-0.9414040837214369,-0.891325690556504,-0.5168753639517667,-0.30658613492360476,-0.5877364593802424,-0.5079585964385506,-0.1724699600021341,-0.12591514496594583,0.01702468561398279,-0.007173165703548306,0.10458161343735703,-0.1076963621754088,0.006572977818233311,-0.12947078968312387,-0.007324267265472501,-0.2062648048841709,0.04393486963723328,0.04439211507861284,-0.07624656631117649,-0.8712301545523335,-1.1984861065885644,-1.7404788929383497,-1.578972047725661,-0.954241780544379,0.4836523822609258,1.6042402517878505,1.0861870515234255,0.2753039401186252,-0.689879941592261,-0.5710467081279894,-0.6328944027656235,-0.34146758623284945,-0.18578606897665353,-0.11832522696950741,-0.21270068178980575,0.015883293398069827,-0.03963444378416622,-0.06694129987353718,0.04723851429059103,-0.16932065463393978,-0.15476863033459712,-0.11218267182032518,-0.1364664093746986,-0.259809436517597,-0.4792170155261342,-0.3221587533993488,-1.0439443545891638,-1.169980507417824,-1.4807464558499006,-1.78542240625946,-1.6390122856813756,-1.5353540178412026,-0.2835046728470655,0.42453198270902864,0.8539826099340325,-0.032531839405161654,-0.378171533600994,-0.3126237940194631,-0.3308292251860481,-0.06152577361520817,-0.13624379135026915,-0.18427607210084274,-0.2076146343211793,-0.08198234425819385,0.0679219360661434,-0.10245078880337428,0.006145069906819514,0.06208177267261879,-0.41842258819145445,-0.6220234482654734,-0.6551801608337252,-0.8636043266592414,-0.7481086695906088,-1.0102380699994449,-1.2061850451732863,-1.4934179522693038,-1.686200278091495,-1.5882769294196548,-1.4512653789068959,-1.2933591856475335,-0.7858096843765762,-0.18818468372032177,-0.1872679921178098,-0.5523447517483104,-0.06717461159007854,-0.027274839401136435,-0.3108794529464522,-0.3627242315244285,-0.19095051284055714,-0.21844164470480862,-0.17688262746047761,-0.10638459880820768,-0.051879903727936216,-0.06732552034977228,0.10798859113486388,-0.22846716553072663,-0.36440744331459307,-0.46521261796673596,-0.9665927612499546,-0.9908427575407084,-1.1451649292174952,-1.1478551499156964,-1.219940597466758,-1.3242261991212325,-0.9884481970131779,-0.6979410881502419,-0.7007233279121151,-1.0049307997604586,-0.510229544240949,-0.2266794793393248,-0.29571805236391435,-0.6384668705392306,0.15604574224126866,0.0403557632374909,-0.05902441632042905,-0.2703683651381915,-0.09212107044153807,0.04616487881536888,0.02357950296491616,-0.12805113969906073,0.23451772806718596,-0.17999236338284313,-0.04998379788442002,-0.11068866705334189,-0.12989346492241438,-0.7397674666250467,-0.9326204828361292,-0.9402831576960529,-0.9892610745330105,-0.9777302184419535,-0.7617541878405889,-0.4908463814028619,-0.1738971741875139,-0.21319367496857666,-0.19165580923080636,-0.15277065409366256,-0.493617692370173,-0.3858231538881529,-0.6195658028736972,-0.5792879633188716,-0.06290894500250953,-0.15058683938392178,-0.06902482971731765,-0.19558892390239166,0.1502742961420575,-0.0407835227370638,-0.09586688010775962,-0.24897878586347974,-0.09524839591079647,-0.1739120664739941,0.011605434573269742,-0.08943816287904414,-0.3988224531519209,-0.5758895989920167,-0.768947488819936,-0.3338939988368497,-0.4730052649726092,-0.3446755381238753,-0.13062951740881185,-0.20930909412201387,-0.1546409608966282,-0.2893601435272233,-0.20322908033747736,-0.04919089645676265,-0.6555528322561966,-0.5654283093167314,-0.4645096209188771,-0.5514932926070802,-0.32457045784829297,0.1246473130744878,-0.35561768203549554,-0.09622733644820711,0.041920137208087495,-0.1281329492533694,0.10284289392463891,0.004936377998719659,-0.011057476921624329,-0.15690625714720446,0.007345266351814453,-0.10041994627747451,-0.39256928452901224,-0.3290254625695628,-0.19765993972461168,-0.24413318428420847,0.18117994943062718,-0.2216286547269013,0.2328250731965805,0.25047900962214775,-0.07368823853074805,-0.04992589322629885,-0.3468800486800685,-0.5052403295529699,-0.34705023489367703,-0.3160361953220687,-0.6162179257960501,-0.37756530634802815,-0.3321694752820588,-0.06758115578454732,-0.19360926869758166,-0.21272597435846588,0.018136326214338475,0.029447051499973738,-0.005283072496164293,0.02910925287900809,-0.09193344174743066,-0.0015206563778411872,0.12390354914676215,-0.2358444787796286,-0.31666730208696336,-0.6446312116857289,-0.3495510049917767,-0.14856827482289744,0.014819022696450228,-0.033343428631865284,0.7288930655407004,0.3710094804054833,0.04717280184297926,0.14501165615077594,-0.5558457441152204,-0.6047707261813143,-0.7492878974285431,-0.5339667935024729,-0.38685950332545527,-0.48380762700433405,-0.6462272332044424,-0.3672049273464841,-0.5483315116086543,-0.23720090514516706,0.12442069423030669,0.09840956390020528,-0.08784304784350848,0.07953332137783133,0.0817057806444861,0.1406881904136878,0.0548797952899608,-0.256444728062832,-0.41816647395843354,-0.5808426414442927,-0.36398744464541216,-0.27389288815637514,0.08933118091478398,0.1841459547383049,0.20272419529007912,0.3609760418541431,0.15544456503259946,-0.17290056717388685,-0.49500999938760787,-0.9532704787985956,-1.165722359427849,-0.5186347072249075,-0.548363886582142,-0.7125666666043684,-0.6407007941220388,-0.1828104778120042,-0.24124402592778238,-0.0213348808495421,0.16984116468745986,0.16434473089593526,0.12330264883817497,0.06864289689953736,-0.06917817296298555,-0.045810994470110875,-0.18889657197536308,-0.1519856337409169,-0.5479259090042561,-0.5055125428798708,-0.5333329251388255,-0.2674719587255196,0.04838692023020678,0.3011153963753964,0.7322609722248458,0.5680700863702224,0.6059036845651081,0.16896057081282218,-0.4817652248288854,-0.5676302171883985,-0.3922406853939483,-0.1515103014456974,-0.3120611849719108,-0.6398832050605088,-0.37963292604493537,0.3066717378786971,-0.05601081343148578,0.29077012001250757,0.022425201061820124,0.13415801890782747,-0.020133071287879205,-0.04445143199182121,-0.07402998282919702,0.03624677641390364,-0.14421901760719014,-0.23529173794418015,-0.2932915028907859,-0.39207493494908424,-0.5875454123374999,-0.4091069350460798,-0.1099924930692864,0.22569643087004065,0.689137166820134,1.0759953251592378,1.0100174231514627,0.025270243662868695,-0.5758948920203243,-0.1419061518456285,0.08162678077527004,-0.37472157095333825,-0.6396920948913112,-0.0037054462961918196,0.09139244359485593,0.32589156451150914,0.291162367035095,0.27640515237673163,0.2874363312142759,0.09507101910573158,0.12765544913145302,-0.1796260527840777,0.14773064597241753,0.08076020226381046,-0.04217802695966328,-0.12337912492102536,-0.22584665564761378,-0.38198070441637544,-0.31598335307945635,-0.3649512000098177,-0.025433253842179655,0.24654893092404237,0.6323665670614633,1.1060136982530073,0.831985737294424,-0.0019660136211089247,-0.581211154722102,-0.3080705400940889,-0.25880108302689203,-0.42091720223990503,-0.4009654036113084,-0.08470887307872581,-0.0777779318151612,0.2430510134437798,0.4507078500969976,0.22799119200657517,0.05164466217454928,-0.11783928423170496,0.0971863452593006,0.08793341724836702,-0.214492665103515,-0.10546439771287959,0.06239718390137766,-0.059048863205741035,-0.09993971423359119,0.013410296487699468,-0.25914636446551653,-0.21283319402208561,0.27935618022550124,0.5183735496457043,0.4152025707096218,0.44940502290538914,0.24094714141424248,-0.3167678506627411,-0.34462794444316736,-0.575698108292053,0.03164793029365276,0.07215613026580112,-0.029970702050967267,-0.07967324798889454,-0.08177879995168397,0.19053633325962982,0.3543551182216433,0.28058401737230787,0.08960193029313529,0.12310054094257858,-0.008554850383282908,0.01852871748604704,-0.11282391620902966,0.14969655894192124,0.06531138830829354,-0.27058213008571586,-0.26857295343965915,0.07156949757068481,0.3019449545743526,0.15291170132222595,-0.12156068415172136,0.4320997398131643,0.5539005329482091,0.4613612789756157,0.22387361103814818,0.13311690609968718,-0.3037241949465224,-0.36173410873475303,-0.0453346883715776,-0.05893278523132513,0.2053224273744471,0.14254956053520196,0.016593871087861013,0.0025296838549872867,0.20919113197152855,0.08960427616444172,0.17672742747692716,0.11874906887027178,-0.031275576015424765,0.008022248655569147,0.07679859401542148,0.011829418301365708,0.046916187299350084,-0.22231801973243495,-0.2649626953677828,-0.11920602479409392,0.007809623278127435,-0.009243510639628043,-0.2918732993437599,-0.3597597914234353,-0.09914409170464598,0.07892512479741243,0.36866477899118566,-0.05274862941036345,-0.3260703897358212,-0.3420098961633138,-0.2542560814555847,-0.18074785391585138,-0.02684475420640719,-0.3050884576340951,-0.28435008827300945,-0.13226783278277082,-0.11522076674704826,0.04244735552986424,0.019985998088861603,-0.00877852362245419,0.03684131252591573,-0.09891934926750236,-0.049347208141006974,-0.08254613015689961,-0.15886278655440977,-0.08795783989710175,0.2026900425041585,-0.026217418202224993,-0.012830641375586507,-0.03341551398120939,-0.17829514199124558,-0.03278267201393141,-0.282411341445479,-0.370289819147722,-0.3292097851243771,-0.3228734271228823,-0.4601216784697319,-0.2527993607106595,-0.07622274917559257,-0.3897442718514417,-0.1257056721905312,-0.21622069727926785,-0.10407356651626741,-0.30615593675062963,-0.13439515467886032,-0.018029482820874406,0.19879279474612394,0.01722311676342261,-0.03502241112046152,0.0718862559391661,0.04290586750324117,0.03764587863205619,-0.1407072239551928,0.2534062587450883,0.07113156774655825,0.029549521121493415,0.003033469709300154,0.01322235089233289,-0.0628274364403744,-0.07693156840042567,0.09387586058086694,0.07048891214932752,-0.02143618674079132,0.0025500578278687476,0.0893106030431823,-0.022678633565391675,0.004015979957862276,-0.2118542524008385,-0.049121268065331916,0.1836764261740374,0.0985036153509551,-0.11302758426225902,0.009217131895322757,-0.17637847578335153,-0.1136473120026082,-0.02258367101688521,-0.10145053505361225,0.07493894475796396,0.027589306911482155,0.006167679013635625,-0.08485493128930392,0.16364098474596617,0.07648458804406628,-0.09744323307968318,0.10111827600778817,-0.11419287879678307,0.11453165664274918,-0.15365610984779265,0.09206174988448393,0.07002720359162862,0.004932850045802272,0.005416881301584516,0.16639723703046524,0.016952685416838944,0.13850723753578928,-0.06367772270834177,-0.1448517497104511,0.1250008843902821,0.06925149799788453,0.017409255006802484,-0.019263198440493,-0.08368420180543028,0.07338668171905967,-0.02597308951175421,0.02529118470963652,0.117309350593529,-0.0013884063646500185,-0.1659406673601269,0.14754967292948257,-0.06212998271048646,0.09210944580956765,-0.26213743719409616,-0.1302017083777436,0.18475142954072526,-0.05095405241789895,-0.015298703362479571,-0.020187040596284532,-0.03337014533154677,-0.013083536468569634,-0.06695246756381547,-0.08827301947320793,-0.12477303529831658,-0.06699835605902191,-0.2054238848109685,-0.1378802750686218,-0.23217176830435954,-0.02755088924262014,-0.21057708670450076,-0.07256189709534328,-0.08441746621294238,0.0684279906173206,0.24366239143277155,0.02042714751865174,0.02261165559577266,0.008733461196476708,0.030305708433851948,0.1806183506606271,0.09726822514019112,-0.17421079951200116,0.010981863391971743,0.0813670947496843,0.22945665751784441,0.07696461508889876,0.06344908344886904,0.025639138461602803,0.006674422407438576,-0.08068544336599424,-0.023354914958283585,-0.18752284495679847,-0.11530209956656419,-0.11361082544085696,0.007031640798671365,-0.1607272344324456,0.076876651272964,-0.0845620967838394,0.0898508843764567,0.0524619145296474,0.02632900015118801,0.06119429025619911,-0.13221376358093975,-0.04118876980282361,-0.016161503060717286,0.07702921480121833,0.22989174950341476,-0.12614087113784886,-0.04453028068250939,-0.1069063792248777,-0.047148384057910595,-0.018316303134868123,0.04490567373994085,0.054379290626755075,-0.02104335684047391,0.17426258079947443,0.0613324439681915,-0.23669834854698224,-0.25230570809226455,0.08806183350262967,-0.01564683261704935,0.04763743664640234,-0.032902997322644394,0.001774198033013843,-0.02614993596225859,0.01354782671012732,-0.09197246268587414,-0.13067969711257987,-0.07095100785027265,0.06697153119062639,0.015972009693477663,-0.1360036264036766,-0.04986610623459353,-0.08405734617244703,0.12599063092246424,-0.060799338922500834,0.1256186798705543,-0.12335677825702779,0.10018933845273577,0.038638425926451524,-0.011219992920046665,0.029142654606316706,-0.11310414453448045,-0.11607725860344274,0.08541331709178676,0.08890168887070322,-0.1937816323372423,-0.05331619559198814,0.02803670490127012,0.06804456390468086,-0.15664820154164594,-0.13165841153460472,-0.08834115739727415,0.10499692311242108,-0.10352874126060042,0.047909725833551305,0.10511704132836476,0.06344791149833451,0.08094398004439211,-0.05016664921604822,0.056875674906873605,0.018270371112070347,0.016342767655228192,-0.05420530046969122,0.1204463772841253,-0.02779140992904526,0.10757341440849796,-0.03181762862574443,-0.043242887687322,-0.014532581759032942,0.18633414440318452,0.06435381341984696,0.05768791293759079,-0.1181140333663855,-0.3252721860554497,-0.16569852776209756,-0.15781762121749376,-0.09311645020957703,-0.10838429925608242,-0.1470449115607783,-0.11180715859102291,0.041562382030030216,-0.135897366969049,-0.05960206439635649,-0.2832156276196126,0.026192804587764,0.026256305179614983,0.09357307445638248,-0.016036454184372943,-0.1892118208001717,0.027302011796817453,-0.12206475744747314,-0.05649800255724594,0.11668368551652418,0.16443229805348666,0.20071782529828863,0.16021555728166176,-0.0015133775231604087,0.17010357287926528,-0.1258418193160244,0.007626466072603748,-0.05452104771831997,-0.07564746565079117,-0.19871581614941827,0.010210442599776473,0.16324646611972987,0.21794422030108146,0.01017102512807559,-0.33808582908652585,-0.32420690616768083,-0.29329634411914113,-0.17497113923402907,-0.021298246187923846,0.0016600123302688739,0.09965752790251864,0.0177621036006654,0.1269186365512403,0.02500724191545535,-0.056462848686032706,0.054359851358387695,-0.14072609095555894,-0.062625824218922,0.008340935950735118,0.07241704319493684,-0.1482356988308986,0.10911435867396503,-0.2911190341014623,-0.12269046932820185,-0.1562104027054919,-0.38760059254581164,0.053075152879800726,-0.2904441948454508,-0.284921443387121,-0.15667799546145644,-0.1949805031149205,0.07081485641606362,-0.395190789431317,-0.10444130754087805,-0.09881795388883802,0.10056509134315146,0.15385697024736741,0.08491675653827463,-0.13425967703005576,-0.05553050261035869,-0.05945001331944692,0.03340202621590607,-0.2075225920283243,-0.005479594382428541,0.08486352068333791,0.00016590023055979147,0.140750858250785,-0.17369524800590447,-0.08892264852260948,-0.18391878829805214,-0.1699129915363658,-0.395612543569424,-0.06948928051982521,-0.30052762280757533,-0.18135937017101103,-0.2391611593940412,-0.4487888051527288,-0.15519456660431424,-0.09819603450642607,-0.1184559418165561,-0.05495157254908759,-0.04325455968721901,-0.06601130013418222,-0.06508935191746351,-0.2442544836369895,-0.06917798724122151,0.01763232706012707,0.002978524308194156,-0.09046436490371469,0.12112785084426103,0.060392666682987484,-0.09625132959113475,-0.0792709741035745,-0.04725990958359129,-0.11237690684018774,-0.30217017037188015,-0.3669499209801015,-0.06047929270415298,-0.26399486450368437,-0.3110748263688615,-0.37265763721196105,-0.10691420061845616,-0.2097112820808149,-0.5749081456528072,-0.10743526461909035,-0.16209109135781472,-0.2288613123028164,-0.10108159606947616,-0.0025573733649519,-0.05091416285478766,0.12757831942746717,0.08564223518032554,0.0559733265871841,-0.13543345928807293,0.03594373831087966,-0.015567442810592063,-0.0002580664918594197,-0.07106000591884273,0.14958575291065745,-0.07332629155598304,-0.04671880281959034,-0.0095170709458593,-0.10829105413580001,-0.16897585719678215,-0.3097086656521825,-0.5167345250185515,-0.15742093751305433,-0.12555358994069463,0.007648703923256421,-0.41413920204557647,-0.4273164046870422,-0.5329144603225903,-0.347006217172062,-0.19045936570179708,-0.3114689838722883,-0.41091354423743687,0.07980208665683207,-0.02431246868746981,0.051668763383288976,-0.08444429299397596,-0.12729983265983966,0.0011226536955197348,-0.10564111435750732,-0.024800788065199232,-0.04780046523943986,-0.05863934466694133,0.16434313608586704,-0.19832475734750396,-0.07436160681248921,-0.023405468173192234,-0.02618127246568347,-0.15242180949088835,0.051662283998249695,-0.2715011296881968,0.036562734781194706,0.14919477487831923,0.10539209195896804,-0.190206857490852,-0.30283439367738957,-0.2955060772664854,-0.3393945274388729,-0.09441761410308915,-0.38567463261174345,-0.2132242841983615,0.019282252494828348,-0.21091129924722565,-0.09721925911730038,0.0011949630221536507,-0.03209677063067187,-0.18366614316837682,-0.08086379797351619,0.1649144580258666,-0.1087345632102694,-0.022256041556350015,0.2324977052295688,-0.02944436282097654,-0.12301250427729266,0.022869417391350105,-0.015109854872366732,-0.17214211768140347,-0.1442790023381429,-0.15045047854450036,-0.034162364055447404,0.0952426989614513,-0.07003348258899011,-0.245159841529677,-0.35834456878639487,-0.19492753235123553,-0.08499751206235989,-0.20786401743283547,-0.1136542371953946,-0.2841352185095822,-0.04516504670301728,0.11493057939541519,-0.11846444466800726,-0.12764644583806312,-0.2542252655735682,0.06960241902764541,0.02758420216011924,0.09435625695885655,-0.05283176877905683,-0.06593550987059257,0.002175884601258211,0.04238697519311954,0.07558115018942667,0.1485665848225283,0.045680853602272316,-0.14124500252271946,-0.1335129315762521,-0.1466606032710436,0.0937106941956001,0.2284603925219838,0.048739143881362565,-0.2563411445611227,-0.10153232012460957,-0.350907628867925,-0.3163770878226131,-0.12267786328076129,-0.16565258288662876,-0.1863575495244314,0.003070150025104764,0.17320906654892318,-0.12218288598214687,-0.18747028461550366,-0.11794044435636662,-0.22602005080358295,-0.054489450063601536,-0.055853725490479254,-0.07085676770077175,-0.1225944047373663,0.05741712685398117,-0.192496249756267,-0.0572325382024182,0.05850009590404377,-0.028816893143732,-0.14086160863402736,-0.10877969200776688,-0.05659133578414132,-0.16143270675457144,-0.15659888526261606,-0.09361418636834631,-0.19091627365106884,0.17725581302922916,-0.021310992207851473,-0.08308889392121031,0.17326050010566604,-0.13663303145012828,0.020801839465884094,0.08156360062572092,0.01080700815789474,-0.10309044210754913,0.03293586131451672,-0.34060743760515905,-0.32071328688764544,0.04997325923622642,0.04170758876668515,-0.07998134658687117,0.1529249993991507,0.08906182581741028,0.03503045971957103,-0.02965649788121072,0.09933353747922297,-0.11242304087473223,-0.29927537322439407,0.18973019495592652,-0.29478517898088064,-0.5154974235274713,-0.3466133296570131,-0.20654414791087713,-0.11086609158125278,0.0601005776099743,-0.19289908906815692,-0.11662162976518617,-0.12746307726612052,-0.23865050591054612,0.01610544554195116,-0.2312322244664225,-0.3091413756268581,-0.24476390110829283,-0.3880493631165058,-0.13677308636029664,-0.017389959558954435,0.1805407820431959,-0.1285049611319947,-0.05944439037856732,-0.16645699623676746,-0.0258687197249091,0.062135321227561956,-0.03679384590921455,0.23890551049382,-0.13563401466027744,-0.07347098789727925,0.0405384077595041,-0.1398395552677949,-0.11846832662701544,-0.29033510406411395,0.009343816861427557,-0.06691298588634842,-0.056289029957275305,-0.24994576916010677,-0.044169827417640056,-0.02496588231483632,-0.1597112854382883,-0.3456776309317914,-0.36421224307318073,-0.29312877225469364,-0.2849824753099488,-0.3655597348780055,-0.1752795632698367,-0.0421069605612738,-0.006462929198466761,0.1318630909542156,0.10420211094937329,-0.21147305125471402,-0.14942831464398837,0.04774583625900792,-0.08838472375824503,0.21774758901972777,-0.0313703739082256,0.0894969950580672,-0.27081261147994257,-0.22190401938376125,-0.04197789825487042,-0.1837413858222717,-0.04013019973421288,-0.024807150785614508,0.18228766246302425,-0.28470782103060643,-0.07007652359205847,0.021803698646483724,-0.2308161859238951,-0.27124564753061614,-0.3052291459868034,-0.6644843290669227,-0.2606605996692874,-0.08068375047307029,0.04610125678399381,0.10439925737358607,-0.021951589213501335,0.0238391595886408,-0.07874720444587133,0.05173983230883246,0.0032410193374926254,-0.0770986174369919,0.010274688508176954,-0.02206369396837018,0.02669511904183319,-0.09327914262111643,0.07308771737081539,0.11318519793999723,0.027799582915194923,-0.008457897174014427,-0.09757968725127367,0.24561663073998238,0.19504942832973812,-0.050027398346658425,0.08653454157832707,-0.03819107059428626,-0.1382953532929833,-0.2939410523221038,-0.3148669163412844,-0.26949977291838845,-0.12900790329380776,-0.12679988718302687,-0.1293539420182844,0.15249250454709323,0.09890160493319547,0.06240949174996426,-0.08202612828927995,-0.17044655182524132,-0.0917011912977681,0.08778077099013774,0.0026568349101273327,-0.07197969795068816,0.20592841844330018,0.06898314991533014,0.0574092099602715,-0.0925044287164841,0.0286681983778336,-0.04111746572683415,0.15031014388561556,-0.16752525646670002,-0.19921991861267546,-0.1283218432834095,-0.32515781817657724,-0.08006436726294014,-0.37582736923134397,-0.5041553688499436,-0.30720536238614815,-0.018954032831028197,-0.1359966347132698,0.1325127272944812,-0.08482798449280167,-0.05040301672348639,-0.033286237605453114,-0.01066198994735358,0.0787772825292506,-0.08251556868512437,0.11862747223702631,0.05250905128735849,0.03976649362987033,-0.12240930127788174,-0.005485608603159885,0.0936526214820441,0.03093035320093748,-0.03917348193458515,-0.02263920846336858,0.0004419139820009045,-0.24605223974266133,-0.5315691968915869,-0.34582788215836924,-0.607698985945586,-0.5597310627225119,-0.30884474973823556,-0.3058617677300993,-0.38202134825593015,-0.1960082087173773,-0.025820799856072333,-0.21299285445557445,0.038103974890662015,-0.005802260939337783,0.017019036387477735,-0.027172081487700558,-0.047906078235105704,-0.011369537325171241,-0.09435689592038116,-0.11116857376161071,0.03556094222280968,0.056166961522121556,-0.07886056730209703,-0.10085043554395683,-0.006498454893948075,-0.14926051318069866,0.0037699651996760675,0.14594309575970937,-0.1394802978619137,-0.39326270663283774,-0.5262545764132515,-0.5498768956495093,-0.6956737338669857,-0.5072456868915893,-0.4205021317892952,-0.08145158522114562,-0.09395134250874525,0.17700659144365044,0.05105850104275452,0.18082710784383366,0.00913388613005677,0.15829173743430933,0.10184770441204684,-0.15233715943747098,-0.03501378863621186,0.0640790260686718,-0.0069586821128393705,-0.12475464177521874,-0.04200204064840904,-0.07660275487784732,-0.14113610549770414,-0.17895791057925178,-0.34225488230798135,-0.22215300926079123,-0.0781018330077661,-0.09448291809997938,-0.12620050174914424,-0.13613203599897314,-0.34657083994111554,-0.2747664087507824,-0.6827763454424294,-0.41399272070253873,-0.11350583848589599,-0.08198691283121863,0.2191759242613221,0.05466224904012179,-0.06502529996782712,0.25607907138606584,0.0025138544302023185,-0.0713167682886055,0.08496245614320572,0.04102431076518324,0.0426946766700378,-0.008070626760723268,-0.024618423441820945,-0.06974824092181892,0.21511238208770445,-0.1761431472474237,-0.0494528060118142,-0.14892304097838993,-0.28307033907739304,-0.3400031457282951,-0.33621161556768403,-0.1153983626914176,-0.1064229120787818,-0.07426056803279284,-0.45487243539747774,-0.05637837222940818,-0.4143765815721132,-0.46638487450288746,-0.298996847122529,0.10330635479508184,0.14987123693018925,0.1460637595018075,0.09106700146448375,0.12169267652216183,0.1380764622582134,-0.022039858272129953,0.13044222480862652,-0.07333652333159503,-0.03076251503354943,-0.03675016965984291,-0.07332045222394692,-0.04750173378296699,0.00124294204445313,0.11355061036728502,0.11176783589643796,-0.12234095316192498,-0.276342338701866,-0.49692268203959333,-0.2320940988073409,-0.23861550630363226,-0.30927906939646616,-0.2308912531655133,-0.09839470648285167,-0.37055813259180637,-0.22453522279688778,-0.2484779478341312,-0.18914696581367674,-0.15334665174159268,-0.0026428548240609315,0.09688654603812462,0.07396978995425539,0.15942546776144148,0.05674104891531533,0.0809849552180577,-0.007686915029864642,0.16245216706676732,0.09586598438737635,-0.05330598389198818,-0.00807461039702833,-0.09380281854826972,0.04715415326165825,0.00811945516780018,-0.2110390308219891,-0.164605210651982,0.07560596315413241,-0.2341153709848651,-0.03377013395824035,-0.089526943249164,-0.12015561104217183,-0.04194775530140942,0.15800115972592657,-0.17384220909890152,-0.007278135427654318,-0.28712896765751955,-0.13111596227202987,-0.044422587969019454,0.11169858064739104,0.04270326599309897,0.17017071962230224,0.09708526113017353,-0.24537057462320028,0.15237213286222367,-0.10606752551511396,0.06821379197474545,-0.135650805198996,-0.026025551342633707,0.011469653614044461,-0.020368322861508886,-0.048247526773187006,0.1643563908003939,-0.12228942457164127,-0.1911494509504311,-0.04264693179461156,-0.13057824897068965,-0.12060792550873672,0.03877457025478382,-0.002704664191725397,-0.15067452996885536,-0.06422390238989037,-0.017889566622291006,-0.22383258865569935,-0.2849610171598543,-0.1931255996596318,0.11031052981950544,-0.026670197435650064,0.09749575769522427,0.15145980198458064,-0.005272020092823785,0.04116359057235685,-0.037705861801860224,0.251388032993808,0.07040528990900694,-0.018950822825427798,-0.13863369921551819,0.05444148118512232,0.16815596416463152,-0.039643618052977836,0.10997427232899509,0.004272055227493646,-0.08632955214082193,-0.10554794413847429,-0.021800539673504822,0.036678618497511105,-0.08325230146240926,0.10045244653038758,0.22551741706740064,-0.09761521060631002,-0.1875617465583277,0.05176235370118255,0.03278599288520192,-0.23050075851316948,0.00942615251428588,0.04235019193299153,-0.26986112894366054,-0.045531667231435737,-0.10384367976260649,-0.014283709399517439,0.05238748831655027,-0.005539238436602185,-0.035487514332754315,-0.10066970024057378,-0.14111945611465662,0.05101598946897211,-0.15390579792883655,0.2506539271638872,0.007052627181211472,0.0352860639855846,-0.19030237243113368,-0.12598586435144452,0.1184323808048949,0.06184018296747044,0.09255750209491811,-0.02204637116897457,-0.12270051381307794,-0.0030886005001807748,-0.056329423260717555,0.150878831561624,-0.02311058438187778,0.16886806741537352,0.1121769114849105,0.07548740137089859,-0.03472477394564734,0.07069071678907068,-0.04945392965141224,0.09850011202954925,0.10804632052584266,-0.01406313751911226,0.03776071080877272,-0.06142910095745445,-0.0034325428278474067,0.11829037444946075,-0.07026582366945883,0.10466457854015201,0.19011280483018633,0.11512962059684981,0.16110327882638398,-0.06663379295655245,0.14402535131223837,0.1073305517706439,-0.06670080046647861,-0.09901187215042148,-0.13594608235990785,-0.13885515244429047,-0.0749813206294977,0.18587987243208293,0.011010924985988614,0.060378590324327124,-0.14388033394956612,-0.03442590724476322,-0.059662121182792134,-0.026024785068611545,0.0007918385118948344,-0.08372211759640422,-0.005084907492324605,0.22166196745144162,-0.08725952158664682,0.05085077166772114,0.21097649017560982,0.04554505723961993,0.044322440675057424,0.07414030824392295,0.028256374876571243,0.12785079831147655,-0.022400320456788834,-0.13331638725688988,0.11991244862881925,0.047124863477429536,0.005210776230273105,-0.19884214921445867,-0.05846590105630998,-0.21928264471213388,-0.17601536609288684,-0.11372708212900633,0.15792253260620034,-0.060803369023131375,0.04072351186828264,-0.20933933693170828,0.09135241344039073,-0.1462231349559738,-0.25760130031664924,-0.024266703799142367,0.04813973289026339,0.10662442043381626,-0.003434531799967664,-0.08210786581723808,-0.10361726347140571,0.09949257370910985,-0.07961164146444935,0.21140017094122954,0.2291580427334953,-0.08363997798296005,0.042032662493481095,0.009219665601600268,0.10582916527833597,-0.025967582262510443,-0.11335116542260258,-0.1517073480840699,-0.346724717418274,-0.26025516762965684,-0.27504292761918464,-0.11647877180214222,-0.03311797840287215,-0.24507024222269072,-0.23542579148877207,0.08613048743892661,-0.0092284792008393,-0.05448411358883772,-0.10919503002238944,-0.026486601638364686,-0.02531544556145848,-0.21099428279132493,-0.048882319296592015,-0.04465262655630512,-0.15041173586442524,0.04642373144691785,0.104693009879465,0.0186178760147782,0.10834369024644222,-0.16556915311094925,-0.011996667442471338,-0.08609466254812806,-0.29281210798417273,-0.24328478215671046,-0.35065250692372096,-0.25617062348607084,-0.5502968592829814,-0.7309433239774235,-0.7688045770891271,-0.5137724654199342,-0.33949118237765413,-0.18778005987773733,-0.33422300817155104,-0.32508853487102635,-0.20474340833505353,-0.11980549043720957,-0.25622903541854053,-0.08178959762436065,-0.2324356742381594,0.07915138941633001,0.12024084961413883,-0.0096408185843896,-0.15417761852204404,0.08142731247129534,-0.12449906366877467,0.21724213950510338,-0.1815191568757244,0.1202302863389713,0.02585837090579215,0.04552766135931132,0.03177496421478701,0.006227725384916561,0.14800235537703266,-0.1580575999935034,-0.2932418281404485,-0.3590078549343608,-0.48009810778123624,-0.461214621133064,-0.43737777062978067,-0.4718395295542601,-0.351048206719161,-0.01288600020313814,0.07868305385873794,0.321250168992641,0.0531284652067712,-0.08826697715197794,-0.29200309746825637,-0.21867141866853723,-0.2071576870624109,0.038434510236637194,0.09718307054704253,0.05073534684542968,0.036643823725657575,-0.06233372544311617,0.08575010292937613,-0.065436901023553,-0.021163367661136332,0.007904089695335596,-0.09083578600549733,-0.11550053322663588,0.2470150768507374,-0.12682826586677906,-0.061862312917381104,-0.3044602866341941,-0.5155666556516547,-0.766761526378554,-0.7958775955854471,-0.40061527936479613,0.2625511869788162,0.35813475274028705,0.7329794447431401,0.5816113109285157,0.4400800764768235,0.6854846954203947,0.10692389680303513,-0.058523754170568446,-0.050628861001613304,0.01459747700717507,0.08694857404021389,0.05487576126315465,-0.04376818152320735,-0.12180406614567585,0.10972748545906118,-0.01945717039518711,0.06329223578208462,0.11668039679725953,0.1367902907113934,0.13466383326128958,-0.24386548731979962,-0.2530992375492094,0.1406562282617745,-0.20421567176116084,-0.6457220816932298,-1.726246927084729,-2.1223073209435417,-1.0799852024128351,-0.40725720171543695,0.10092149978904381,0.7362331831289461,1.0899129856671292,0.7588068280257524,0.5081191637936194,0.32902295866572173,0.2228916817249076,0.08844466957028542,0.1342987681514915,-0.11280515906896835,0.08807416286476721,-0.0019673614202870703,0.018262346413685748,-0.1757760941847541,0.06248089636712368,0.04745034010217179,-0.2865939594150453,-0.3583760386754478,-0.5375699216688454,-0.7678431643805774,-0.3787262270487126,0.10044910397225748,-0.10783293123898781,-0.22417499019569917,-1.581932620327629,-2.7444739456405247,-1.3779066899718382,0.24311240481916718,0.11349034850735265,0.12986997143257212,0.7022303266445485,0.3824062637665406,0.28220316358266856,0.27008143855447897,-0.08087200028045809,-0.06369698013783545,-0.10325379314700987,-0.13520499086076535,0.07348791181899367,-0.0429986324078785,0.07083947167314682,-0.049854283447131297,0.0007357170121298015,-0.17876544679474798,-0.613140634964031,-0.6680590876478645,-0.9171910965796003,-0.4354851956689721,-0.17788259029274822,0.3492544084132522,0.02161659265138776,-0.3166909758982962,-1.454466519375846,-2.477403610688165,-0.5914463550793237,0.49317024920090247,0.23885103756905543,-0.14740659477273263,-0.02553604487834008,-0.07213271025404432,-0.19845111940481783,0.029359321255623898,-0.5571055516686407,-0.21031451423106423,-0.20334137351378267,0.03888290131709752,0.19957242770058997,0.11583312323426664,-0.1670398270996452,0.09764681951375867,-0.23760460666523517,-0.40142659327473884,-0.9697740481379498,-0.5329591103386598,-0.3942861846010063,-0.41152790479624035,-0.691848069291615,0.156090546750028,0.16190733760664563,-0.6031651043616372,-2.195006339866536,-1.8878588024549308,0.04895738760616004,0.5330318558457388,0.023842085925898596,-0.30427036804932295,0.07945592744381585,-0.032504490874908754,-0.2295696373415265,-0.5585165823754189,-0.4688245293509127,-0.08130508594842628,0.027380242777568255,0.07362125628395474,-0.0742208912593697,-0.09565521421594565,0.09246921208484675,-0.053539399841982666,-0.3654991364890672,-0.6349529904369606,-0.9106612219518858,-0.5378032265535332,-0.505553575373474,-0.31964589644220986,-0.6970221034601095,0.24751228784184415,0.5472794425942527,-1.152536464603969,-1.8669072545435026,-1.0147902879514823,0.3822352974963331,0.8988601857301669,0.29772860799921524,0.34077198482333176,-0.06919687957589593,-0.1891502852088303,-0.5248587335639329,-0.5742303671324583,-0.6509372806646212,-0.23154474098524758,0.03511625505579162,-0.18228878106777455,0.003837851214557098,-0.06268727830915037,-0.05088231888576127,-0.019888166427740276,-0.34378847567384224,-0.690523822812421,-0.45214201189468206,-0.636973915876331,-0.7077830077868991,-0.9087217260590709,-0.664945390756834,-0.2224807776292862,0.22271967687358427,-0.7206567785504124,-0.9497951916504271,-0.31348407186786276,0.27234598702550644,0.37137210650369207,-0.10497104071653762,-0.31073387246597245,-0.5460664490180217,-0.5530029519594868,-0.31800619963256505,-0.6583159854607608,-0.7290670702516542,-0.2138151459489299,0.08467282189965383,0.12830974137750756,-0.08405862508025336,0.2102158074945054,-0.14876208092252038,-0.05054428446225005,-0.4742899142245194,-0.6666416708511423,-0.26066036314953966,-0.149808668593308,-0.45034458578737263,-0.4346234070607384,-0.2682692655740941,0.8146750274997706,0.6433821685786443,0.23495943573816652,-0.5478090088081844,-0.4135356047789322,0.42218261524409073,0.08845977754390218,-0.2164052326888573,-0.5329508976339142,-0.5733003727192642,-0.25979706091286026,-0.22717700597288995,-0.6903145926620119,-0.32022234794885934,-0.04566662626178585,0.001426033693381887,0.08387143509166545,0.015918710981063452,0.08571324446093828,0.07478988144828887,-0.16798961198097984,-0.24298033977556052,-0.2841435402811288,-0.013267576891442487,-0.03400193125118469,0.11750521996743818,0.048713461753157904,0.9675879282186182,1.2046381010228977,0.6650026618705129,0.23700995694045468,-0.08165640440998252,-0.024226003686208388,0.3219738726808231,0.0239866154850706,-0.48342934189185827,-0.31155609309012033,0.023300199343584755,0.25707765163641605,-0.006403716596573147,-0.2002101344293263,-0.24865825671769642,-0.056463616405111654,-0.08846186352303537,-0.00925729059873568,-0.01824276287381295,0.012690411750834235,-0.07793643175687684,0.051075137542752405,0.503907058937884,0.2942740412443563,0.22791301780895942,0.38409234617501364,0.3636421962975915,0.35588497367758354,0.8135762068018214,0.39472110152987716,0.4164920480506007,1.088564473518503,0.546014551944481,0.10606921144819206,-0.03133421673644685,0.12557528633688017,-0.018949750628853346,0.42465645662539925,0.6296254082836149,0.5749926403387828,0.2279877888092543,-0.3305343696046673,0.03219200937764148,0.009147238784666835,0.07948012706146021,0.0772411122820123,-0.0208400614279434,0.07438984055682657,0.042333649988040505,0.04086306851236922,0.4655804333029985,0.7301702726475824,0.8603850858796238,0.7996686843054394,0.8559718275959735,0.3442757923463452,-0.028843429843325625,-0.10857886517746149,-0.0538312430207535,1.0615803344311778,1.1318232291656616,0.6461222888492907,0.550936616513281,0.1641347745218854,0.44059026611665064,0.27707270836493647,0.47902212950427997,0.32794797552131255,0.19525529348297613,-0.053432155251200326,-0.03806753005922007,-0.044883473460167966,0.08729202659423727,0.023751364286565605,0.0070900552684012635,0.023432133542168113,0.2707168296385363,0.23843113783028458,0.43327734402173024,0.5525075774017788,1.1702972189389411,1.0004384398433617,0.2681437465138018,-0.2787184749276601,-0.2979080962044137,0.059468516887207896,0.594376666903493,0.7768810764440861,1.4839107533153184,1.3211646345066868,1.055538530772801,0.6662259011189438,0.47651566787825045,0.31402728417657777,0.47628287554470783,0.2128084311492596,0.11674912553501698,-0.026471775853133143,-0.046838552313772715,-0.21814960176826484,0.11773639271967236,0.12939873242332867,-0.028020367739910127,0.1332959568859443,0.020642101610724706,0.1774015940380759,0.4715927511683755,0.37242508859217877,0.5964485525455578,0.6083541841970024,-0.037410466840730155,-0.5325386602569115,-0.322385824607478,-0.0778211970373028,0.2934014689090189,0.7137702837519585,1.4864604101724421,0.6419165208010977,0.5620551060614694,-0.022020378721785704,-0.1154947240496093,-0.4083371507153982,-0.22215598359661679,-0.2629776587218725,-0.28546981913935693,0.12157374789788968,0.10141408208529426,-0.11358890006349259,0.05718786921223365,-0.13684982902369194,0.1299199166753289,-0.03812721664494521,0.033389405419029836,0.17311739176047136,0.2567707963811678,0.17611911313905013,0.03899580198554286,-0.09741393131883076,-0.009986974592658055,-0.38521964332739234,-0.5628404202863115,-0.36363714436280464,-0.17083154355912095,0.32036514681966083,0.20973953830509978,-0.3515982854492167,-0.8113590625445818,-0.6083559839387702,-0.8706190760615932,-0.950327675296641,-0.7923889797110365,-0.5599593996685907,-0.5225497056058901,-0.2380670574584436,0.022409298010116995,-0.15971936768568884,-0.009641723117691481,-0.03705230633955336,-0.07287474883578715,-0.0028016201508496512,0.04706242510535961,0.16455871933256525,0.4737091227917784,0.26488343200969267,0.13854137339711473,-0.24433216495554763,-0.2470702559898687,-0.3036092519773021,-0.7800998801022628,-0.7627950308762009,-1.168419743842552,-0.7200953755780923,-0.4488322693596909,-0.15366935558999414,-0.5393608439242166,-0.7156914262181441,-0.8309242425752148,-1.0560815506605583,-0.7337518887643699,-0.5019859277920484,-0.3880660781185232,-0.24892260664743385,0.1855390028938152,0.13503734977045664,0.09968086570783592,-0.009442680661164125,0.10134360112483098,0.1348413953121826,-0.00994629747574838,-0.10634543840798902,0.0052441853809116765,0.22291339155774398,-0.11656989926220354,0.07384646627150315,-0.030824903748472618,-0.4847448890446472,-0.7741204286345114,-0.889140016983406,-1.0002349549193488,-1.1371749173057808,-0.5462516294597448,-0.5388952269864158,-0.23939218998104583,-0.5274885872064882,-0.29679791148509366,-0.5577860593985764,-0.374722772036395,-0.36462721829256123,-0.5283123253389171,-0.24667611005469578,-0.2504422296956767,-0.08841322834190536,0.11012653551226885,-0.012967200794861288,0.028246540223052462,0.12022583140149481,0.052029812546992495,-0.11506417253488793,-0.09134865238673343,0.045317966767189154,0.04949993552311573,-0.13458048056323335,-0.005536082348178369,-0.49320776855252163,-0.5771319665397155,-0.896915567282112,-0.8728634448213353,-0.9149847326920061,-0.5113184469816389,-0.1994404987268306,-0.27858962423981914,-0.1648706312840769,0.06847097282904607,-0.22844735186993367,-0.3591681514864995,-0.13356788815814788,-0.011927692151044273,-0.2042697196784009,-0.16175738062754405,-0.0544865967862112,-0.07223506697579381,-0.13090363463881755,0.09923368494652476,-0.12021723337560566,0.1597998157359391,-0.04338066033242197,0.01955201432371753,0.21535025526960025,0.06992877318214218,-0.10582691081026335,-0.23076415196400082,-0.525674542168183,-0.4159134833194577,-0.5910714463860535,-0.5493562332423098,-0.5719796969895811,-0.669906864088993,-0.28603035694682183,0.1438657473489934,0.46633924246151226,0.28258948062971273,0.16767072708665282,0.09571843239689697,-0.0787966370429591,0.15190044257868443,-0.0823600240470231,0.07142375363719718,-0.03516197518362588,-0.08737261153256395,-0.13885251950878502,0.03112574321581137,0.027471922613284124,-0.033559941053753546,0.014921320169894964,0.05604874115742292,-0.19255319975277696,0.10233199827108509,-0.0507102446246028,-0.1277084044721389,-0.172056719061844,-0.22482593099723855,-0.5078399482388954,-0.24954270839379958,-0.256157964640677,-0.42428420625906615,-0.459037397505083,0.29852420385866607,0.30144892463606837,0.46695378165390483,0.36398011058384633,-0.07737838534947875,0.07190694317847908,0.12260884379739759,0.025562866214161702,-0.11300345854084426,0.0825040373501227,-0.010244884394568327,0.01404804621307689,0.042210407987458,0.03180852141133656,0.031576339674011585,0.13934861276398025,0.09134126248011196,-0.09263977111473684,-0.2340921159107819,-0.3985788083388784,-0.27089953692930663,-0.13165388001443729,-0.1747082198468038,0.13910533339319459,-0.04306949789983337,-0.22305675122754273,-0.6840649166985094,-0.9217233988374789,-0.27936266471280397,-0.16955122903894682,-0.14058125736738727,-0.3072241839544469,-0.2843441071942452,-0.12646333151189218,-0.15490605223905093,0.0038970217743244592,0.09891542098215567,-0.0936979526346123,0.13175102673014732,-0.2172503901792584,-0.05358613341397029,0.012354643258867688,-0.04050859382769529,0.0060278693512971345,0.014524055951105026,0.2502282183417377,-0.15991841263653153,-0.5635472798999662,-0.27138043612149826,-0.4375458793128285,-0.6474830479388273,-0.16096422116303444,-0.5899422222132948,-0.4586453110808227,-0.7154098615055207,-0.8653954999517216,-1.0427655810622953,-1.1823250770573064,-0.811314121972288,-0.7128010370502514,-0.42660896023830946,-0.2693666905689994,-0.29648456129353107,-0.13427468693871034,0.06469259877104996,-0.14988891407929478,0.1239160699345087,0.01593398498317648,0.1746063997132251,0.08622147879975137,0.10446741869248002,-0.05374372559514271,0.0022462025056092117,-0.21854648780444647,-0.19241155341105867,-0.16767777139955656,-0.015386029892694771,-0.22485731552090224,-0.0795810038156369,-0.5362918049364152,-0.5082525573910187,-0.5095367884891118,-0.5079982861286182,-0.45294480443101115,-0.4759947330135607,-0.6819022066028053,-0.5985432022768437,-0.5757631025293913,-0.2996148503130698,-0.44273545568430905,-0.12736968884174818,-0.00333013919336414,0.08011798049170045,-0.03928866421832892,-0.028693107256840485,0.08628149994560258,-0.08334431294259506,-0.0652879741174776,-0.0994025825959993,-0.034158534679010887,-0.16333528247863016,-0.06360252732559195,0.013953788628559302,-0.1526918742367909,-0.04714736506114954,0.049298674861060134,0.1043441546164411,0.0004477517421410982,-0.049141189238604964,0.1190092622856365,-0.06721238730558857,-0.0953063356039084,0.21080875469570087,0.10209268401405326,0.11739878416227731,-0.19535333679426264,-0.10646648416169657,-0.014657510755504815,0.0876403321710692,0.06791322516926707,-0.15813741017063548,0.029459107504422277,0.04979753908872892,-0.08580238054812192,0.13512852628535607,0.14542040611677312,-0.009965332327726426,-0.13059170378210552,0.23128032204588816,0.048609534437933845,-0.022379533555432592,-0.1912374302007658,0.15605939975061944,0.0016078497668323814,-0.017185315275595064,-0.14735567073049335,0.10698642673442386,-0.03309316759785406,0.15299480707863222,-0.13372281970019992,0.05002273245645835,0.06693214177782732,0.09607932531404108,0.16521412724628431,0.09263047832221862,0.10255477241843772,0.03395892057017174,0.0322107118981236,0.028951567188787466,-0.004826563207144842,0.007611972577384265,0.034309127782590425,0.10913385918491506,-0.006508307817128441,-0.1435444483046279,0.031925947804253736,0.06795501724598102,0.08973563960966215,-0.00956802571202051,0.002787304457668621,0.1187457387880129,-0.00839562039097337,0.052432518987016466,-0.12424630687739163,0.11089915972197197,0.09061341285921813,0.1883608669064235,-0.01364680619062717,0.10267063314941897,0.002110048499169497,0.0199614859300306,0.07836551985623373,0.16929383799483175,0.11731578513162201,0.13418054007606567,-0.29534575654753775,0.01147400517440816,-0.03651603272721265,0.03492474658191307,0.12866503397064966,0.04416012702773852,-0.015496155074674242,-0.2442484689186978,0.0816902964261632,0.13781827443589412,-0.10950556199725661,-0.13301156371047715,-0.15587183579700425,0.18005968990268212,-0.12263660454995043,-0.0432033924787379,-0.1054169133776878,-0.015336994763155426,-0.1389842198423466,-0.08809369167336913,-0.10050849810007491,-0.11299638467894166,0.0718086576759608,0.017402398786105788,0.1971192762544109,0.11016854592939258,0.04414350737844349,0.10289285660097922,0.0736854495282678,0.004853703734417934,-0.0829563331873071,0.012907676532886755,-0.12015706084809123,0.018808238134857932,-0.10688006830657219,0.07798088968534178,0.017487957741732455,0.013220831889546215,-0.020054984734730715,0.02434181426624348,-0.017010893111464417,-0.05281036613201685,-0.03869599575092882,-0.0011685891468090957,-0.11324352423446978,-0.13079638101041188,-0.2929034953821623,-0.12719651956948874,-0.1433996477065954,-0.31594721692257255,-0.20680407225427708,-0.09968428118109549,0.062488147949903615,0.1706634930825203,0.015559470692298199,-0.09899854138839592,0.03911272858265678,0.031728665102935906,-0.13629339063992138,0.13360378217164293,-0.022039840113959205,-0.1076782302085243,-0.06713659501654212,-0.012593947914341697,-0.03624756307741904,-0.06147772633634013,0.15991794134568413,-0.20327382282534112,-0.05351597970785963,0.12292180118510977,0.044300660260353765,-0.151858489595696,-0.06911794710075941,-0.1616211781248983,-0.5261560840568021,-0.4950370046006659,-0.28619905358519043,0.07436593400117461,-0.0066679534254015065,-0.035993383852386616,0.26898965926408547,0.09675903952589837,0.2822799160714964,0.08861381119174855,0.007497017958965756,-0.026295396436623594,-0.16702241589733557,0.2424530661834506,0.08461777357959019,0.04773813256115846,-0.06869608862173389,0.033816193719337646,-0.019419404875730555,0.0957023225541291,-0.11435032959931989,0.05979888761550837,0.040430376037643115,0.11598380485077509,-0.12119803917579973,-0.10057527967584075,-0.3592485589874209,-0.32975427390572565,-0.3698116634603933,-0.5524652075232213,-0.36300899354027033,0.039934082380493896,0.24583109056999797,0.5465400064036403,0.42718296846327247,0.45541428158768343,0.3160105222142277,0.14450343813729916,-0.0880558654217065,0.014192662373024951,-0.1600575728535184,-0.006908081363322943,0.15085584971897634,-0.19904183920944718,0.02787427374129454,0.10154747135770331,-0.10142732486472741,-0.03680073946111163,-0.14914411883308215,-0.16773379632099375,0.02003642724514395,-0.21089545248462285,-0.12942718977689485,-0.14575018518112648,-0.503708449760477,-0.5455826551688265,-0.5209877945991185,-0.70823196726764,-0.4599180649106049,-0.15573997451972765,0.0006631211294673305,0.14618845505606903,-0.03137834179563124,0.2666971273249099,0.1997486566766873,-0.10688485285664204,-0.034375857626555,0.12877366811417804,0.11220350625512729,0.06074727907893294,-0.12797048573337053,-0.015985119897365913,0.01812711432075131,-0.08588697475546114,-0.18996112797420997,-0.09196489635114759,-0.10547327186167121,0.11823252036447508,0.16761883730505492,0.12913805141848825,-0.0787445515362973,-0.2184191325051827,-0.37422586066701463,-0.46274760140237764,-0.4129149789950494,-0.7122610565438663,-0.3793918625796685,-0.42985239416854354,0.1951006626564123,-0.024411854241118754,0.0063909585220352375,0.10943341260860806,0.34574263373854514,-0.17149947112063563,0.014126388711189633,-0.11432557469730029,0.09936754193864314,0.10338527475860729,0.10678339697035151,-0.1835309836295716,0.04302469670819762,-0.06104844881859836,0.008971440058214049,0.07379107794752748,0.05583438776345287,0.054748051615590605,-0.16464060770702763,-0.12223634620676278,-0.17086699400793462,0.1331697042675298,-0.39685512962857206,-0.4877612755018928,-0.6307793146892144,-0.343397361653917,-0.0739797422788257,0.17411459845178784,0.08619214526217041,0.1680635841911223,0.044734661160725255,-0.05537952428489729,-0.07490315591556548,-0.09487777351235695,-0.15589937968392564,-0.11590515953195796,-0.11478090673813754,-0.04042090008449774,0.03415099666641876,-0.03918359152317544,-0.016853553950098615,0.034874508228325884,0.05383720345822489,-0.026385896210371764,-0.13704943338674352,-0.11088503778318726,-0.1775471019420653,-0.19077012488522535,-0.28616905376546936,-0.5245477186841817,-0.19476443955012493,-0.3182262848345347,-0.4515272285218812,-0.3711210893391177,0.04621035475357018,0.4946761388004397,0.046216688924791395,0.1521824028231045,-0.08242096728041323,-0.20749411047806962,-0.23550598431902303,-0.08931363447124684,0.061146365339135825,-0.22463479495571229,-0.1162616473745726,-0.03663798275119043,-0.10419590783681126,0.06316931796065353,0.04247515251768163,-0.10243178524649102,-0.05487110977590044,0.05087877512422444,-0.2856061563969676,0.03993928396938119,0.16273403209919,-0.10273923008928298,-0.18820459140322762,-0.20213892819214696,-0.4207670536789946,-0.4724707293085937,-0.3383496933888792,0.011265228924395767,0.2440155080414507,0.31540435523147686,0.15721006736194584,-0.0988457857123192,-0.13957527047076906,-0.13663992354327095,-0.06655795157494286,0.02167312345348773,0.012434856633170201,-0.15456812931155903,-0.1477112563958505,0.006477614299057815,-0.04682428159120185,-0.083081998982949,-0.012451199593306685,-0.04997655675869657,-0.06376088509393234,0.007629445020246352,0.048154681721723824,-0.0377984848037291,-0.19472731936810575,-0.2894702835583185,-0.2568202793076231,-0.36873379175522675,-0.3858714915740158,-0.37795125109831584,-0.4535096652019055,0.00503547884409686,0.12397057660904041,0.29208666568515224,0.10259093882177849,0.152263978119689,-0.04109809404403463,-0.08419946820594437,-0.19460636404349327,-0.0983747853299904,-0.17590694618974398,0.007648948838994912,-0.003435300179793075,-0.07161938088452854,0.08768929571532048,-0.16017192338699898,-0.14779582043814732,0.04793301625063978,-0.0980533428776897,0.10886728467275544,0.02664947161359207,0.009517216916640394,-0.20897633151750095,-0.1427804680324596,-0.004256204563541038,-0.22394634968927293,-0.4844149001822243,-0.46461802750256825,-0.3143100087884377,0.4232515168118712,0.19133350328721488,0.31739017434796263,0.2330713544718238,-0.0015421565751809567,-0.11958968501069134,-0.17454768731601014,-0.03528884972192387,0.00947983210998417,-0.02169953449042146,-0.05322508366781588,0.023292577982622024,0.040020842829081,0.16081597013162077,-0.024917027494972776,-0.07214873593803792,-0.05207555329433129,0.04921525595935392,0.03239689996798431,-0.38123109460567783,-0.17283713896346772,-0.16620979888748544,-0.25270742866343093,-0.17382860280327275,-0.3606236866853932,-0.3392499986518437,-0.274947847178965,-0.11709961030084211,0.2393891716941024,0.3223867318605157,0.06727731319402029,0.054599122690808924,-0.1131955401773388,-0.11369537458839762,-0.11909544306104955,-0.3299822013984033,-0.20794940697022243,0.060693293255602805,0.1280151528515535,-0.13130250440274444,-0.002791876813397795,0.0370482483257686,-0.023887816005925187,0.04438738430526094,-0.039693318744790144,-0.06431864159095144,-0.024537033280253414,-0.054896163555538315,0.03503770057325841,-0.06265708760645287,-0.10171951041920484,-0.35873095822323764,-0.21765550707861683,-0.1954406345217156,-0.10763602669080226,0.3693028713512423,0.32640698144595837,0.0997582650179145,-0.14116961846118986,-0.05012930020208019,-0.32346127649255835,-0.1795098391075714,-0.1826899123913805,0.1576558038176066,0.002389662005900764,-0.16620023781620458,-0.09433721251936035,0.07625074354615836,-0.05016030492874715,0.015402402765655607,-0.07769942910636393,0.0030401989324130027,0.14741181492119337,0.052967849478767204,0.011862720849438057,-0.029011115963584674,-0.1233756559944733,-0.11334730921325029,-0.1851584078738861,-0.15218420758008894,-0.14469276091673003,-0.178873933127097,0.08721309643644504,0.31588551334996506,-0.07311629459183865,-0.22330309139234134,-0.4743574742030399,-0.2283162984495988,-0.252637255444367,-0.372533685388618,-0.21632814660070887,0.09196713882267683,-0.09460475144222977,-0.13094248239053738,-0.03810348068759649,-0.0917603379238291,0.06853927168308527,-0.07402539535419139,0.08175018974583877,0.06730131187658006,0.04480206211806315,-0.09710932477131393,-0.016123697846391328,-0.09575896499900248,-0.08825915610531523,-0.24022590358409704,-0.1304915152429516,-0.05699168421804105,-0.021220319762336442,0.15010477969697758,0.17877538110001073,0.08300968965179296,0.007883069385448757,-0.08291222487924689,-0.10678378238674709,-0.24488189689912554,-0.1961637848635337,-0.23388370531324085,-0.06190700602842207,-0.050243503571523886,-0.023014798679805302,0.09960527836282532,-0.03452197515075889,0.02918646640833793,-0.04224162180597988,-0.028427667888234396,-0.0023177791564834554,-0.14854881652303858,-0.010569344295341617,-0.006132524120698287,-0.14418177101790491,-0.152483347174507,-0.12985116847337083,-0.14529097686185088,-0.11028895609452692,-0.010121832962225583,0.04286476812275344,0.10284950860196371,0.31664905290581274,0.22592952211452788,-0.03356181605158023,-0.15044362998726904,-0.25029622147021435,-0.0347870686418106,0.04867141697566534,-0.15466756680676816,0.03700293768766623,-0.0427092506400979,-0.24838253226057583,-0.01567333246055616,0.02086801386093147,-0.022969007644256058,-0.046969094023366624,0.047340193028410076,-0.009516398657452872,0.008591345211462952,-0.07977705222727202,-0.11863028827948414,-0.004948442204133575,-0.13424651233669907,-0.2766696731618961,-0.15124891744339183,-0.026196023776698732,0.07669813596110359,0.24421184867633217,0.2630458443145627,0.13447452235348678,0.1425239409400235,-0.1803308057078866,-0.3851634638177794,-0.02879874672876687,-0.034602679751913674,-0.11052835211361879,-0.06538798519001938,-0.004692724759344412,-0.0025423104697733625,-0.18969500223926633,0.10305382052215463,-0.18867631904312643,-0.12314278238880395,0.07349646122708901,-0.031353658566207844,0.10557950699837958,-0.09838050875923988,0.0405473185070936,-0.1339933387785334,0.039898676169543096,-0.09698978177455454,0.08167913572792955,-0.18693910414377168,-0.16749652381725602,0.02955744260192086,-0.14219355678638432,0.12224359661700945,-0.1508884353380687,-0.05524274667061861,-0.3201543385861862,-0.1415540141877175,-0.017394635458215405,-0.268963077028869,-0.19852958619876127,-0.3406618461485335,-0.10834106996684342,-0.34352080081098724,-0.0875886760770944,0.08414824022872011,-0.031202725212466538,-0.1883280737593751,0.10847622858380689,-0.02949280427051724,0.08787800809163022,0.009043885142833785,0.14143522795847088,0.050300811851441765,0.31221029113016585,-0.16934026783827305,0.08505182610116777,0.04812330174413296,0.23555366437854244,0.11560078797700099,0.01588369122313703,0.05396200647279885,0.22873708395646483,0.02401932930250539,-0.23626183093932515,-0.15945902253780445,-0.19429387832575665,-0.1408733734916203,-0.2837995141067163,-0.33395999777284724,-0.14782418603335004,0.0650204859915489,-0.15932324086697766,-0.050911265768078015,0.0798583860592646,0.022536368838402748,-0.26010117455722026,0.06626783106255359,0.02079744260933068,0.13514456872416755,0.06631069485515544,-0.02723885083166749,0.03734472285121755,0.07207352849768227,0.06453321743590947,-0.12359850980937898,0.113576576811338,0.009527018657292661,0.11408353548628808,0.10999964664672315,0.1901273208345117,-0.18540223123142682,-0.2548067966186599,-0.43108034971418996,-0.3414719644911538,-0.25879329902215203,-0.31613714308021645,-0.15530635927007228,-0.10718031223143529,-0.09710055102159146,-0.032553113204449306,-0.11430034384859726,0.13836916037839386,0.028177318224778234,0.12104645921567404,0.048233461871801574,0.08657061548883636,0.1360326972420155,-0.05258569100362202,-0.08597531443390755,0.0016661032276965486,0.26553654500204193,0.16198975335073645,0.03936057517732884,0.01357062754503331,0.12596148790049033,0.34435230552774143,0.08095988064068618,-0.007869227223165999,-0.19374488358380534,-0.17952698302968467,-0.25875426105592453,-0.2150315873639621,0.004341810303847189,-0.2051214471868294,-0.023022846082404073,-0.24817918226814203,-0.29161415243843675,0.010164529548617346,-0.08728395183701167,0.10979238439576178,-0.032723122750690635,0.1157011329213913,-0.016188858822034618,-0.07343735492839641,-0.04328563561448354,0.07772130452612906,0.07336691041084446,0.012878695293120098,-0.1909374500840943,0.07012795418486654,-0.16148261997663516,0.010553243570023792,0.10055563445855663,0.22985278019977812,0.17530982674719092,0.1025182394489143,-0.03457618719604358,-0.237762777889351,-0.15334357924740827,0.007758868879462055,-0.06366482558126602,-0.16941733793349795,-0.12350199880856211,0.043506708996475914,0.06913835141653518,0.147511339546208,-0.03980664337907336,0.08842059294122159,-0.04280188384228699,-0.17320805596511063,-0.17967563667250527,0.04941985849778021,-0.008196232889103976,0.13544660155835986,-0.16319276630785,-0.03900481668766489,-0.013329416379801217,-0.25725511760584097,-0.36064513191859804,-0.055088437756217544,-0.16843371017250217,-0.07004466660356322,-0.08165377894649943,-0.06982441846054642,-0.1858908748284833,-0.12474274559081638,-0.03651148835585823,-0.06655539959706347,-0.044011841428717974,-0.1634206135748401,-0.16029113620031427,-0.11038469757257144,-0.13545116668312926,-0.0636461119697113,-0.21695078261389802,-0.11212307292333472,0.2416527108871929,0.06544321580622806,-0.11712637859180852,0.03568375041825971,0.059559409806298445,0.0959913396777429,-0.12440141294214344,-0.17063971196146935,-0.009028096873151542,-0.17973586736995487,-0.33303449408639507,-0.05713708078315485,-0.15426950302448728,-0.23479085727982554,-0.158781598348095,-0.09361308251153448,-0.050441211698563554,-0.17821111770583628,-0.09055771509133971,0.12893493655493324,-0.08318599787715769,-0.06428681656002155,-0.20880942422961127,-0.19940995021240981,-0.138785434083264,0.03796812035686737,0.053433259716704276,-0.009283423970617445,0.04408968892322002,0.0036998755241423433,-0.0737570600929553,0.164449167427736,-0.011217739689229789,0.07285481673247897,-0.05114982430596788,-0.12042218097311223,-0.16647751718592846,0.08702019855584026,0.10451157496326306,0.038629391068268785,0.07931572729870436,0.0644675139025748,-0.019268262454963526,-0.14133439279624968,-0.045347285114258416,-0.06339843372432988,-0.03988778413174692,-0.04919853442254811,-0.19870236290125018,0.021079527068898717,0.09927093435036159,0.11728658085516497,0.048370420964478314,-0.014552300348788363,0.14367455774472004,-0.06598405726004396,0.022710936282293644,0.04086331960189026,-0.07316652968966968,0.014672706340992988,0.11825012423583091,0.16212418701131578,0.2699252110728526,-0.094947914444305,-0.12320399744939993,0.0394430093470287,0.04414911719222302,-0.10090887000459903,-0.017609204191721715,-0.004533088447296612,0.10423278149662697,0.04986306223441594,0.04315129409344584,-0.028595737436146743,0.007477987370784057,-0.009643662281892085,0.08517357854429747,0.029862600604125402,-0.16545655497180395,-0.09618962267749194,-0.05293184572622748,0.044648927322982,-0.29992285604476404,0.09441778157716862,0.019142833112283163,-0.11816998623235746,0.08803125292569071,-0.00873623989619541,0.09629460960135997,0.18321225024560775,-0.03477141915750464,-0.13868187062357965,0.03815686807842261,0.10006833972397378,-0.05962818954887246,0.00435264947636485,-0.11288970067878476,-0.15238426280101056,0.1556603361420503,-0.09564583367533833,-0.08416797993503633,0.020661514573636887,-0.1390921411697101,-0.28852416364877376,0.23862342430462433,-0.13407941562515666,-0.006250653436481104,0.026868990565848037,0.2756159845955857,-0.004799236562717981,-0.06919437575177578,-0.015568702206615085,-0.054062456261126296,0.08880831171660103,0.06421582632273967,-0.05836841558675657,-0.0520189497355039,-0.10174457500441239,0.11318104914138447,-0.0499655046824877,0.030841213449309554,0.09088701016297421,0.000852855999367667,0.09978587443249834,-0.018506331348083774,0.0638326480002426,-0.05987883480927972,0.0016377505551074985,-0.06685397818718296,0.037351568229607564,0.007804719815972214,0.2458802443927045,0.024555774979243685,-0.042338602893657935,0.06086018102451222,-0.018585992765440727,0.012941522974170113,0.0892409226834694,-0.27634536579155106,0.0196466687636115,0.009887540800129265,0.08896335452645027,0.03620666345003917,-0.21475559382077328,0.03336880384047408,-0.10144334600596197,0.07296758755005041,-0.01826175497467065,0.021787290338674256,-0.04589418007977091,-0.029487766625102493,-0.01616483665340616,0.009772370044327747,0.28452113376827765,0.3181971745930422,0.22656905132818392,0.3724411097062733,0.5220526884693693,0.5987358209043987,0.20249123528595483,0.1636164824753473,0.27355096621269254,0.02196505480590975,0.1065694970595489,0.06754982113808163,0.09585197884546813,-0.023027850292638333,-0.09084117228650909,0.039197509478674904,-0.21894168779942882,0.1673646437869268,0.0688526532382776,-0.026007130705769523,0.039672937769954356,-0.0033828983024367628,0.09789687753389419,0.027994596242450587,-0.0065751696576486695,0.19281284171460358,0.15054419761755983,0.16276510599170466,0.11550581455331381,0.40183723341338595,0.6179248117424414,1.0094679724625546,0.9524819523989497,0.7828753792766079,0.10561477463608081,-0.017028837114436975,-0.14388526567845858,-0.09561714520691121,-0.26898677919726816,-0.01376240090957932,0.05160814130440539,0.09987293859194643,0.014467504649989955,-0.012790046575825298,-0.19976243260507934,0.10287824951452448,-0.09099921887744225,0.004496011242963104,-0.07990594146221631,-0.08975683899267106,-0.14905463811665576,-0.0007444317135894735,0.05877189445729098,-0.12031726954435712,0.13834718165067186,0.21987167911066766,0.07273846609792889,0.17930615445577144,0.7395168657114961,0.33847110836447,0.7132387931367491,0.4429607379811009,0.2995875751914084,-0.07255471493114685,-0.546049099747637,-0.4616648473373698,-0.4209643427126156,-0.07975620733478692,-0.13380198114692776,-0.06111392603309196,-0.21320099457691566,-0.09395372301132986,0.12499300737673791,0.13039618858607352,-0.07467806784587672,-0.07061134276891565,0.03805716874326896,-0.09614840461619377,-0.006852359872226145,-0.14000180010529503,-0.2039125974775784,-0.01497791023897988,0.1466456500960123,0.11171665835147797,0.13893378322827715,0.11557598013805565,0.38694700504557056,-0.14083816610277802,-0.09821834907424287,-0.26952998633973946,-0.3089527246467018,-0.8223786208696596,-0.6846660575804443,-0.655062847149739,-0.5570345672667433,-0.560089818935505,-0.2203131904682382,-0.3788857677627838,-0.17500616268379307,-0.13362997682896954,0.15394870731866792,0.09734728983069654,-0.14878380043438635,0.017027584166807455,0.10228264430633978,0.11045027136793648,0.04616550507057803,-0.0685962303077904,-0.10405245974179107,-0.008588316022759992,-0.1415031112386854,0.048138418699387175,-0.40130536330888245,0.16637538306899843,0.07635578197393433,-0.07343274590488594,-0.38354217429279625,-0.9115827021396926,-1.208147875988187,-1.108335187665794,-1.0912859933598555,-0.9091055989930752,-0.9065530722125412,-0.6679585598509163,-0.7168450526643924,-0.4875255966518289,-0.26748790634096736,-0.17434526731299269,0.0651000739593099,-0.061113053330205884,-0.1249021333574511,0.16658915008472827,-0.1621242124818567,-0.25572970989203675,0.013747200450301384,0.061732948990826354,0.04563197492740981,0.2113393365998447,-0.41709739117055866,-0.23711106934355192,-0.14908986572962693,-0.3424206475890571,-0.6806360557309303,-0.764631181148589,-0.6252307310415098,-0.9996445901998483,-1.2823688098875203,-1.1997829165399039,-1.0985551329600212,-1.1834730125439101,-0.7086298483227969,-0.8481960651543793,-1.1737555356291358,-0.6081395790636807,-0.20096001889469137,-0.02797232722922563,-0.04111783924447867,-0.1814161647493915,-0.1487988020785401,0.0512025158983894,0.10327994024586251,0.019893021708765873,0.0658402456208766,0.0064995863667291955,-0.01174960814240328,0.22939969468036966,-0.0485234921687657,0.03999549770278477,-0.41749974916883337,-0.8268095763501125,-0.7037404264843619,-0.8711881359482821,-1.3714015938363895,-1.3171747078659717,-1.2404466506073017,-1.004018737167199,-0.9910942031495182,-0.7289386346999731,-0.6310917695418218,-0.7984999153725515,-0.6441142572471064,-0.5846334465621769,-0.1392933585730392,-0.10622823258687338,0.03175637601635737,0.009814906989097344,0.16060470878961638,-0.05799137691689023,-0.07650356669947425,0.14662609444152286,0.008506578512026762,-0.19028431551557093,0.06620136664630946,-0.19778467370575098,-0.036122830308630616,-0.17263000149685603,-0.4699090432559103,-0.4435715637508639,-0.19774983738406246,-1.0351517502645433,-1.1852018102214563,-0.8883642474474654,-0.7573514425305109,-0.565286510110685,-0.40077295401289786,-0.23294716047940633,0.030108139579586607,-0.04146796465908846,-0.29528117462546477,-0.18307815811396522,-0.42789683214521407,-0.24752424972112808,-0.18333488779085927,-0.03302496944107286,-0.07520493953765657,0.1321504932177944,-0.07079983373290803,0.16300241360408613,0.004694852090223941,-0.3722952498807206,-0.21663197957713176,-0.1586417617099452,0.011108192109805638,-0.18205942028751687,-0.22289302266586497,0.044326596399081195,-0.04104047134502197,-0.5505162105594166,-0.9165707675587805,-0.6742263764324635,-0.24800203684971303,0.30262956982169514,0.3460824572345085,0.018230942348254446,0.5286617681636488,0.1105250121280714,0.10782357671721879,-0.03417415776678294,-0.4981615657062156,-0.2111121267071889,0.06244922751488002,-0.1947974452396931,0.0283396280194744,-0.0005290760015188569,0.08479504567516263,0.1785358133682101,-0.04265266571249596,-0.19116765736155986,-0.26857138191221314,-0.20575508237179813,0.11740865905170679,0.05343495212604612,0.3942115369771668,0.5573493841057142,0.29169538315716875,0.07860317652370302,-0.09963492970128784,0.03582044591930495,0.6654999549323425,1.0296520943129972,1.045510356087436,0.7545712928246004,0.5212556651183149,0.22022607290044074,0.45210731540185617,0.3281829644057414,0.044473018511521835,0.05060579096640573,-0.017666329611414785,-0.10979501666586995,-0.08930099151248963,0.04264589160760011,0.2083688083893848,0.2639244935944889,0.042080522301199734,-0.07782824698457806,-0.38635893609761723,0.14837884228663184,-0.1137492805005674,0.6352601828665831,0.7588139581808486,0.27678155958724304,-0.22153675554029917,-0.541337240044229,0.08116601425144171,0.3411700319660959,0.4943459910782686,0.7016822835891152,0.8254878934015121,0.7770049570388207,0.7921497706694824,0.7989725485030524,0.47090240227323926,0.603340863516123,0.21879007840383818,0.05715779952302517,-0.08314606127653731,-0.06858987745345681,0.0076204675428419985,-0.03073009601504732,0.157210366567166,-0.0785693278045936,0.15803781535819003,0.23553035513708015,0.129311436640628,0.2375813733098973,-0.006542026514529414,0.16926611693420562,0.3676417565475014,-0.15013819360783606,-0.3044879908861788,-0.29844897606332643,-0.041395059682426696,0.4323809807782645,-0.025184720098532405,0.2123922314668875,0.2776451678559448,0.4700164381041422,0.8324459367335477,0.7738938766570909,0.49269217419848216,0.5220471045170155,0.2573946434725286,0.1615042791234616,-0.09955509406499838,-0.08157454038285371,-0.08179672902236004,0.051519389874029445,0.01958359810286912,0.03863496214376911,-0.14425459154456824,0.00015716574943345878,-0.0013241772783294896,-0.03948986569724945,-0.12054768630786898,0.12386349716195871,0.06358919919637547,-0.1280409097151087,-0.4666699059752883,-0.3586675742383937,-0.0010058314276701582,0.08987311307431399,0.013564645178874664,-0.3053750480486977,-0.2628444494896276,0.18295685481366225,0.3594953218578119,0.1222281164479702,0.7486371032013651,0.5395671918789908,0.41233932055566497,-0.02304789399912349,-0.1259714756577217,-0.12680538946536649,-0.0303555277593869,-0.11594236081082002,-7.425784653705529e-05,-0.10832658721550671,-0.2920712681360875,-0.40674656387505737,0.22247201882365886,-0.04792213103755271,-0.4357255780055296,-0.1226291508313329,0.06483643452443204,-0.03249870346890031,-0.45349757161178644,-0.4116148059732101,0.34625815504921525,0.1770709527652038,-0.7062162709242092,-0.4821657267830766,-0.4665881968333414,-0.020198987585489638,0.3114128823975956,0.16949739449605603,0.3655511232884839,0.15767711875675305,0.22077178729548252,0.1144253539001639,-0.10001540851701608,-0.15569233597995294,0.09352359886263639,0.060405348072207904,-0.08416471476919195,0.19242644381964666,-0.12920035948729167,-0.28701634981844154,0.09976745976989418,-0.014912008331326375,-0.3652529115672604,-0.30201826332801096,-0.37335914909106954,-0.5213578981668705,-0.3612388819251696,-0.29752873466925034,-0.02656673307730913,-0.2670674532352132,-0.6993689502445338,-0.5785195483330533,-0.4456909725955373,0.27322958722220714,0.14741702033392307,-0.09880185710884468,0.13084630876571252,0.047565699575310476,0.3587582337794598,0.219060073203314,-0.12483180707031225,-0.2036494111401335,0.011724108467588396,-0.2903631804676567,0.02388630585049385,-0.04371222248296504,-0.02419001899202573,-0.35724589096888204,-0.3201722420719677,-0.2824920934329178,-0.7009990917438972,-0.23507577577563257,-0.22912252215183296,-0.4309704174814723,-0.4213025854160324,-0.13395320539044842,0.21824150240471793,0.12108006283232346,-0.2913195658964297,-0.3465149211731027,-0.08266309165978891,-0.3755073833097247,-0.32062095166331905,-0.4202729930267463,0.021082180662324534,0.248978256160583,0.33347003761139166,0.16428738508628246,-0.25046867289138114,-0.08921170011039226,0.05251195924735239,0.050096596933528165,0.02934752880322645,-0.03327469335929104,-0.1598668607416379,-0.25050192275430955,-0.6138280181089195,-0.34078130820044583,-0.05099379609630336,-0.4359610676436069,-0.4570264094508531,-0.362705942043682,-0.11164131972128286,0.46443342459474685,0.47315865766261694,-0.2218488043659609,-0.24645194987938537,0.19383691927872418,0.008295247163529619,0.01594854365814302,-0.1485897948871398,-0.1010752856056163,0.27590100236427545,0.332630717167292,0.028501001693300665,0.20785409239230337,-0.03992369867528102,-0.026464225377373543,-0.05823179929659923,0.003861946152153193,0.21136162613449766,0.1278815907780622,-0.11039726225511624,-0.3287153208346287,-0.5600957933251356,-0.6504630223360903,-0.644827637824613,-0.49888255785153407,-0.5545812361446512,-0.3332681391842459,0.11954363270551281,0.5117718421923819,0.5207892836108489,0.041991953071053814,-0.06388198304681265,0.47222769125406955,0.09077753440666515,0.04720646395224596,-0.25128647654618175,-0.3680546895609894,-0.04065647497345361,0.0830901298377476,0.07277530677639768,-0.06311749572278746,-0.13259461452886068,-0.12916898522517276,0.028945844075384385,0.1485329864357793,-0.14620197025416426,-0.18907154173800209,-0.08474650970781468,-0.2732375249625476,-0.6008406477722124,-0.5727537442450933,-0.6487790272105541,-0.5103855845162306,-0.38210289464889186,-0.2034106244985175,0.1695766715337167,0.738481426795138,0.8544157046153379,0.3794773163065413,0.31504938140089694,0.2589236443008801,0.021475003252423634,-0.18928704770984509,-0.21435319930785365,-0.40021524959655025,-0.11501820556964923,0.12510565014260858,0.06390257296468625,-0.06668943723458706,-0.08426848563263825,0.10973519832911348,0.11794022749414987,0.02996743692284462,-0.023717585396895332,0.014775329553072064,-0.18368712522796551,-0.11877755533896589,-0.2843687593201278,-0.5372847613734656,-0.29013185957140436,-0.23144054624306326,-0.030797502613651714,-0.2074763636409617,-0.0043204711477902,0.2621168359996417,0.3722512980685291,0.24571717795063977,-0.2112638561439707,-0.21569693123133893,-0.04510769430579235,-0.13515043042010214,-0.2309603729335816,-0.36708211295537846,-0.2686055799148749,-0.08559733145017145,0.13184103554737112,-0.016463944650924094,-0.07720149456505403,0.17867674032490324,0.10940251738563267,0.027423943849359506,0.012031800728741398,-0.09363812891013723,-0.1544663710773193,-0.09770247974096691,0.03281032898772226,-0.4205468828697482,-0.48203668093020474,-0.1646675343464778,-0.2818404369496552,-0.6641434396633707,-0.8377943705772998,-0.8881503459955162,-0.36312467200602816,-0.09814818024954788,-0.39022726529234286,-0.3317640784861427,-0.31815464420622014,-0.2973251312270602,-0.26935796973514264,-0.3661405331138378,-0.20219621205076738,-0.23533217584440605,-0.19565501393191628,0.09396760400941857,-0.039589284670904834,0.047644347188449204,-0.06157677428210901,-0.24157923156802877,-0.007427911964748408,-0.01391803802266158,-0.2231856095003231,0.07127956026566738,0.1422548279940483,0.22899988924702122,0.10653273272760148,-0.10140527970089058,-0.1328937537997837,-0.5018594360696282,-0.3070785438505898,-0.47931466160059244,-0.5139706210514409,-0.445167210510403,-0.6004103508597246,-0.328135231806486,-0.4180277574883709,-0.44648940314255436,-0.47168481038479604,-0.2905280054362988,-0.5378857476653081,-0.12331349267774318,-0.1409024704709506,-0.08047366222269729,-0.011795599752092632,0.07002758077192667,-0.05210824844503864,-0.12832861430596013,0.0447677345775286,0.21237669905183856,0.010652764685012948,0.12405292374192138,0.1531443082944661,0.27084211575117784,0.2405123692051127,0.019826322939783703,0.12998803300602157,0.11389064588728895,0.016551864394203974,-0.0400632717409767,-0.14887787511907677,0.04320057251224322,-0.026247739112653688,-0.06523409570161129,-0.2041355923576684,-0.05607486592546633,-0.13293548483730444,-0.10517697464156914,-0.1529321351342066,-5.482586501262243e-05,-0.22745958426662496,-0.0046231642145527,0.028197205604914836,-0.010772427980272947,0.023394929201152964,-0.0028248003779739865,0.11631310252132646,-0.09090122227590372,0.0020575723695664037,0.2256351071903984,0.1427923418697562,0.16986735302939837,0.1374343389989988,0.07663263838342337,0.14172159572085483,0.189892102539589,0.2620043821776785,0.2632120361240543,0.3173420911466872,0.25034993717743664,0.39613827608562363,0.26928806998692434,0.13764028621774294,0.1336181308516552,0.05989516483374881,-0.031534457266948174,-0.06213837440782516,-0.06234818395801096,0.025514618017470132,0.09029653838891982,0.01667838741180324,0.05609580757703925,-0.11464042498241445,0.033062969913735335,0.10835254351821827,0.08234610291361963,-0.1230446617892718,-0.00969118403242838,0.20489390388052903,0.12161512359721487,0.21732380692790204,0.026760046606248176,0.08375050017815702,0.1846138923500196,0.12133276484925162,0.04213513606478149,0.3124480681046488,0.33792825841058216,0.16831247930128093,0.04384691026831775,0.05678544151578169,0.1941787784855989,-0.09090426374979302,0.028849504580537703,-0.02792357855294569,0.16071930444185414,0.10373931363843893,-0.10880628148523747,0.16698782873400417,-0.14094616842964372,0.03416756206225703,0.030292830482861216,0.11124230557306122,-0.06376284945273217,-0.03294542895085651,0.0832827081778773,0.04740004079741521,-0.08663557528918066,0.2044521249552303,0.2256957139844419,0.11772616344615341,-0.05539075760724715,-0.056471657273625624,-0.17519540429102878,-0.04950417062411372,0.16313711705390593,0.05713875909010692,0.010039664884780223,0.18990451782999743,-0.07560050182007165,0.08105349374333799,0.05209880380211257,0.03899567088725228,-0.1731018940292632,0.0020579604977629556,-0.06487010831967131,-0.10286463427617654,-0.16901004410638074,0.08330674426334689,-0.0017667848929004129,0.11882900017334853,-0.10238831739909834,0.10929810912863908,-0.01000422005993356,-0.2136968989547169,0.01932222335604923,-0.05580230337223068,0.06840076458676897,-0.00449326762083484,0.02933920059509084,0.14750524173043678,-0.11636978793462063,-0.1332317962249721,0.013795662359752913,0.11224304069209382,-0.06457415984717314,-0.173445116593455,-0.17053699093812405,0.009218186290411328,-0.09904622209767983,-0.1365036929760951,-0.026917377221388136,0.053646087238020466,0.006527326409541766,0.07096750781147626,-0.11800371588245301,-0.11458455358640618,-0.020606104257672557,0.17496789842015623,-0.07850480826414025,0.03579166060562667,0.00696422514138834,-0.1561332019434063,-0.10639790046654109,0.2095189518402238,0.16855295431285788,-0.05429234748375211,-0.03972408622477191,-0.22401965410198868,0.10808287893699747,0.034743827900730426,-0.007923215535054783,-0.21917610003335586,0.1573274009683347,0.07969674206290508,-0.12329724819805259,0.194183032037577,0.17886255585790925,0.06348043520997797,-0.06041216909167999,-0.040461904894572194,0.21720942787623274,-0.09383538400115568,-0.032437683992174754,-0.07925825378348439,-0.14115711463716193,0.054105107065495726,-0.05307908837347832,-0.044392146267198875,-0.04340076684894155,-0.12077832233075521,0.015449897464206677,-0.05703971891680614,0.2443392161116776,-0.07860228158006018,0.17922415095735814,0.1262104737982291,0.14266766040998077,0.05668276077342672,0.1925494912514846,0.2297701001125892,0.2760671305365078,0.229300804272375,0.13496242030361885,0.20186849370533783,0.170813050872635,0.1191452052219005,0.09804714767405297,0.10973262479619787,-0.14404119412408417,0.15576589078899503,-0.23754016425709498,0.03297161905433147,0.13090590334674182,-0.032055609078028,-0.08741703792120872,-0.012194686473906225,-0.08293725971556298,0.09448206247673611,0.0005940138220884775,0.23591691915799157,0.22089936744440283,0.14674238502146625,0.17307579939939668,-0.04591890743830306,-0.04788498976168884,0.013391170283948367,0.21377635582798185,0.32270818614288793,0.384838825080851,0.3216185637784015,0.22088657092204775,0.1350612698479021,0.03723435861376054,-0.04745273957375535,-0.13148000302048352,0.0586945037219741,-0.019752629423261617,-0.048242326527880526,-0.08632852688219297,-0.06128434317907399,-0.005314152969580595,-0.13177612414389306,0.08167494753869796,-0.06126634929361126,-0.03946742471317244,-0.06527232033327336,-0.025689054267384482,0.03441884014896099,0.04880105391393615,0.04693189755534691,-0.13089239024586416,-0.08637959948106731,-0.015445297822454228,-0.21124782789463734,-0.10184904000272378,-0.003554686537429596,0.4270970878061109,0.17954314105992694,0.3393142218587509,0.15499552449248716,-0.3168644969807032,-0.34650546834803003,-0.13172746420362452,-0.1842576251384808,-0.03979811251185916,-0.08119784676975858,-0.1132406297668192,-0.08138819475511364,-0.024680204127143897,0.086892887359162,0.15772585997658845,-0.02753099696526069,0.14546439050202167,-0.16725844840045326,-0.15288117829732228,-0.0942700962798554,-0.07354947487576852,-0.011010209214803434,-0.021192129551272976,0.02985119656155496,-0.023789988411760776,-0.21667349595012664,-0.06933865213864818,0.15228433963610186,0.22826590821649606,-0.05163266343366112,0.15703214303230398,0.11454866166701401,-0.004700244735401381,-0.4377145933663956,-0.4581584228999363,-0.11396194676442768,-0.18843605036535216,0.11935544374454962,-0.02756804960698211,-0.20514156918162288,-0.11142002898209531,0.014837783310730135,0.07509139911928119,-0.006797533972639382,0.006168003041379081,-0.22468588747072693,-0.2458759235696916,-0.22130208215483427,-0.22308525235416177,-0.21251344113977289,0.06737890366747062,-0.24697382837914753,-0.24641248453758943,-0.07566744780152378,-0.20426972988404613,-0.35981093537094105,-0.3487634057416155,0.049175318734178707,-0.02779983021639203,-0.15454711945442579,