-0.022673516821087696,-0.11149908664999106,0.1554158337518352,-0.10308658157111235,-0.06468316302183262,0.0704686933644944,-0.0833499582333498,-0.10043620502263986,0.06138924551295288,-0.19563980573259052,0.07044110487098904,-0.0762260992808508,0.07059379844335217,-0.017295925836350992,0.018261928046807433,-0.019370014977657793,-0.10136351413031404,0.0327494924519105,0.0828681860338286,-0.012056310930571383,0.026206310957190747,-0.03271685640786375,-0.07131378410527182,0.12405618916371733,-0.010565863478971035,0.04808414978309618,-0.09125727876212635,-0.03972439311457992,0.09464801249112886,-0.10394149816567926,0.11327504868520283,-0.007063951317950864,-0.0652219184220156,-0.03417069856762699,-0.13981523044785368,-0.08020474766065204,0.160730176974855,0.30314168738096947,0.018286351245748258,0.05708282182523706,0.08774849954910578,-0.012594862116656473,-0.20753643735142552,-0.022102271481870335,-0.07468007573281023,0.05715247685510399,0.07934117308360362,-0.03551839775512345,0.007866128014761622,0.1289771207841402,0.10012674511374864,-0.09303021381654247,-0.07511045937826838,-0.0032195953552126223,-0.02325933205653522,-0.04388838931325133,0.04604914946567766,-0.1449214074667187,0.0035134114727574557,0.05369237862601034,-0.06352022218522498,0.1417090093215978,0.02156047014507123,0.06056365183444375,0.06557597546638422,-0.03486026209477149,-0.1390737509623351,-0.143594454733127,0.1124816145131865,0.07709681426947014,0.007024948183152424,-0.1340901557562063,-0.13451628717765798,-0.11247275215526674,-0.09184339250283674,-0.056180734328801794,-0.031578309721786886,0.07349334026096085,-0.06084042321112092,-0.06607870159862618,-0.08192234863882848,0.10075134551395307,-0.16216731766731413,0.0007624991144248402,0.08925858465269701,0.008005301677564877,0.06699684582742536,-0.0005933931638188275,0.08894359515759977,-0.07951140349237301,-0.02373998004871565,0.09008706047391728,0.1509691757831948,0.0628747126864319,0.009800933240867638,-0.24123158385276489,0.061096470239068966,0.0023624864640703386,-0.028539320721388036,-0.10509024371089806,0.07984586361439464,0.12042021356250024,0.10174513472957591,0.08616104020664929,-0.10774530992930632,-0.13453560324977726,-0.1798105212492841,-0.16794054331679764,0.028961556694550406,0.1874986010166542,-0.060114806076002156,0.1150819958158511,-0.0632266522291839,-0.07114221166433893,0.08836014032033547,0.13352736303488372,-0.04233965935152578,0.07929207430761366,-0.0925276602901237,-0.04007065963181139,0.02917550695184777,0.05153901466875272,0.03606063247815884,-0.121031333121645,-0.3208211080112355,-0.023322860710450016,-0.030356168401624462,-0.08687578274085696,-0.00029347607991412955,0.005627097556466407,0.07441677798056454,0.0002341689577330211,-0.13876440901927634,0.031475675826772555,0.06846803547066393,-0.012385854738105412,-0.04282174196228296,-0.005823896207008413,0.10761410727064998,-0.10106316411523725,-0.036470474837409186,-0.04684919263097695,-0.018414008028441536,-0.037972246528009956,-0.010696647965169276,-0.07804302427308187,-0.04964911421989948,0.10091801167097533,0.038417734022757805,0.038410585250336804,0.027760999838231944,-0.21462445506339062,-0.1271329106490671,-0.18692271176792524,0.03929047482616276,-0.03248113935849553,0.05784971598282482,-0.003044235284260973,-0.04547574714546971,-0.03309441536224941,0.12378228131714035,0.055771406765730745,-0.0023159742905373214,-0.17655386159086048,0.08676421446489532,-0.06368192680592001,-0.02674751098960611,0.12385338105100714,0.006380660626129655,-0.09701182449878575,-0.005754027157820672,0.04121497895766318,-0.15836440197456594,-0.02084418146144159,0.03255382773780474,0.13643803761403794,-0.06378715544269155,-0.1065619479464737,-0.06537632371278006,-0.03438143167369558,0.009257876155568093,0.020200192461839656,-0.13264389860316167,0.18568710116362336,-0.08054916472216694,-0.044522656256135724,-0.06810336068937241,-0.0673418100362752,-0.015192978607028328,0.04421997055004577,0.0806505705028314,-0.26391435730597457,-0.07136710386629914,-0.09836353129384548,-0.01630381905336799,0.03387320133390522,-0.051163971651237615,0.11960032424165536,-0.16707522188181173,-0.0829237103091055,0.09330143042468031,-0.16602551581173608,0.117493965435334,0.02364246325538812,-0.09940931676669428,-0.22035412099706458,-0.38347019896802603,0.07790612048779344,-0.022540488601840995,0.05990861936203091,-0.03103490000603495,-0.09218617568475118,0.07870676245291913,-0.0036395086216564274,-0.02619455380551126,0.06024438353212376,-0.008868895349884618,0.07183323105667093,0.05731374016100512,-0.1185475027891074,0.005785353864443529,-0.04318038453550951,0.09735085560101671,-0.05197129616999562,0.12046745769538346,0.0721327387293814,-0.08911810640593516,-0.09210538640534251,-0.02979700048056465,-0.09441320090005158,-0.005183948357232415,0.01660350766780874,-0.027110112067033433,0.025439054902370993,-0.14484668569185608,0.10080563877888708,-0.1315406758682812,0.03098551600822357,-0.2584279620037943,-0.03677594115225454,0.04468507452450514,-0.09402964317053175,0.03787941099400053,0.04332670985591833,0.05317620208846392,-0.1894473118022445,0.09815938771291759,0.05502897441571091,0.0008393935589005219,0.09828828189004228,0.0025799032473986165,-0.16990959766355956,0.05854639068504377,-0.02215133792084001,-0.03148060376358679,-0.13044957316163713,-0.1688105271971168,-0.008802033152200368,-0.11970454249122577,-0.09228294780966337,0.1356269136298588,-0.24023966942453207,0.032880305858269024,-0.23317580732766266,-0.14076586201608715,0.04720735880991663,0.036215423413797944,0.0017043974121547388,-0.05563527569966743,0.09162271675989068,-0.016258754092830188,-0.04757605606214322,0.017717816174276643,-0.022735125238793417,-0.012782302243139839,-0.020010669706529444,-0.06550195525180498,-0.028609119407774376,-0.09752113076193995,-0.10732790649269734,-0.060532379488742585,-0.1703244844704832,-0.011903935926127415,-0.08176184983664432,0.04458813004108802,-0.054381845001478434,0.10452996175759037,0.04714740090234996,-0.1407961754216535,0.05511195645336883,-0.004772310430952482,-0.07142204971458561,0.06420060994829806,0.018185731410506077,-0.1240136326908164,-0.037646241480120586,-0.006707946311184987,0.021911944437234016,0.032193772312271406,0.06559733677006327,0.01551533930767759,0.05983294969331209,0.1651799593392766,-0.07694457615872598,0.15425046986452062,-0.03855151329583558,-0.005965897917590979,0.15911538941183756,-0.028106094710535042,0.056597411517810135,0.02925166118121373,0.05913449266350677,0.03982294521328765,-0.023317821868057455,-0.007147962329672554,-0.09874559493888059,-0.06877174136032878,-0.10861814812179947,-0.10731485575030723,0.026743964224184805,-0.0751755216556482,-0.061627044886434425,0.07956909432955885,0.031656310428003744,0.06533781304949936,-0.01733488936129071,-0.11570902119036151,-0.0431468051294295,-0.23053529168386733,0.010338710236450261,0.015097657714184077,-0.20276668796157546,-0.1909967051255526,-0.0274650905265868,0.06170547276483632,0.04650008632264483,0.009711811350600851,0.004137285310397436,-0.029548290456943706,0.0008114120197139078,-0.11219909537662794,-0.1645988687598732,-0.07399995264464872,0.14040003484548969,-0.13762314030371195,0.039903526995146245,0.0704936611167231,0.03291218812112356,-0.08163603774277706,-0.21274365038498333,0.13625799098891167,-0.09766204268745188,-0.20690835499384405,-0.0533076355623451,-0.008993546878869295,-0.0961314663127344,-0.09389994900311127,0.06312388258233931,0.1083390909365909,0.028618971148798193,-0.057542380629644424,0.06640085075646632,0.1480193397487022,-0.11719537469476239,0.07726512903548499,0.06948610980375097,0.0028734912366221114,-0.036139587437697705,-0.07644184573256774,-0.20274364218070484,0.08658994232345554,-0.19550820648013467,-0.11621424509070337,-0.14756499618098967,-0.1519793047147483,-0.16163162174133638,0.038255623668932016,-0.024692171142455237,0.005008029376043937,0.1269802700974939,-0.056832603590812186,0.04118585825076006,0.1503492103215453,0.08947501216251715,0.16454650310359278,-0.22077346754280913,0.10189047863235044,-0.17131815479284962,-0.012718551165028272,-0.08238729835601238,0.09228029265843309,0.1368551926774871,0.1311449190822002,-0.09264498607339808,-0.15920255478769524,-0.048047351287618785,-0.05942863194272619,-0.19025914208103106,-0.12509504319970405,-0.07070194743592542,-0.08427057219350753,0.05799672002329081,0.0859258511246041,-0.06308566033217734,0.061287047566238366,-0.05876733969489014,-0.00826454935093242,0.180865069839642,-0.0587932821264588,-0.23987681527924706,0.0392464056845927,-0.06157400285274798,-0.11242489499264485,0.091158629419795,-0.08715668331712535,0.06574867252528642,0.06315757402090562,-0.05852905608560449,-0.035596484406274755,0.02133681422343519,-0.03350895075734051,-0.02742688382806015,0.0777592497108801,-0.05250138246203138,0.13391976351175097,-0.03877646859450197,-0.07513730592375643,-0.06894719441421356,0.0009217671497679448,-0.05821209192353944,-0.008470089716600697,-0.0007662753410866823,-0.22057524087397856,-0.09292380356057846,-0.11590598505595281,0.026029778723957994,0.05553961288416291,-0.11657341591840144,-0.03615175291207372,-0.06662536655882012,0.09128378798065641,0.010459319229795561,-0.24086992506893268,-0.08944254030205334,0.07090117547092405,-0.17694749781495378,0.06384165589864822,-0.15846197568441547,0.06598893997025265,0.08691898389098764,-0.12185366853230109,-0.05921797501614102,0.13247485754367663,-0.1659813210270336,0.039362645078234525,0.01921782913571265,0.0009923433081805448,-0.07482009996847126,0.12288846021221538,-0.16131519459836996,0.2324237450534148,0.12246020008750523,0.0018744802917398577,0.1706178687564975,-0.040772035925454884,-0.009355377122914961,-0.19039898402601158,-0.14155254091869215,-0.07250627386193734,0.053811881305697404,0.024550211667758517,-0.22738012659450096,0.1233036258773199,0.04553375335133523,0.08165562714555355,-0.007906571597924211,0.04789902876817747,-0.1864003059996526,-0.03609054740194097,0.11508417476118706,-0.10198158328568659,0.044066213507270566,0.043624547658509184,-0.014633644734657334,-0.027881405576070512,-0.15450743241248746,-0.1284228716670232,0.1479204507246789,-0.01569643846007854,-0.20228981354009554,0.025628389163235607,-0.05915095336803549,-0.02132545935499094,-0.04470256126711921,-0.12253440683498085,-0.043277889259595616,-0.08915578070916658,-0.09604058849707812,0.1441570371798085,0.0068860021052294445,0.023708205094882903,0.06381378713595932,0.1141134899842873,-0.020384539882840513,-0.051330911464467506,0.020785673713961977,0.04296496463239654,-0.18837762668091668,-0.08581205198970143,-0.0621522260237247,-0.0032477656116898157,0.03781064058124483,-0.0006353915630950144,0.16876719774107718,-0.061601061584846586,-0.031456659307324344,0.013359039517564437,-0.0721650339291902,0.14124036784708052,-0.030508584748094873,0.1179777820387515,-0.12098515140606415,-0.12461457075930506,0.08879048521650314,-0.01858582755560036,-0.032453944715453695,-0.09771168038160978,-0.06383570811440244,0.08860200047944544,-0.024858275334279988,-0.07284668413504866,0.04618135018015862,0.03858407832275306,-0.18676499610386346,-0.060586845143955494,0.08185247632455243,-0.0850575627895402,0.04103295309232691,-0.03624789741819644,-0.06547866176978068,-0.0021454088925174737,0.1870744717431588,-0.0728529022177959,0.02765164237019683,-0.04983633139325762,-0.05654131398026654,-0.24421700084048303,0.12845015792565137,0.0067405131250463995,-0.0685289924287366,0.07240458381804432,0.3092964781064389,0.06588263194925115,-0.07533419330162894,-0.06638630462217844,-0.03854319695812884,0.06976075703215706,0.199805500596301,-0.014668313440666901,0.038625749775190746,-0.06285340925978539,0.16642087565963715,0.09058206938582437,-0.009113766348424495,0.014629535974296339,-0.012376812552535442,-0.1174080158410092,-0.022800977737780285,0.0021970447095648205,-0.057326117029256066,0.1555958972329126,0.016132909872202977,-0.030417965930085344,-0.12400216882198453,-0.052894339099407627,-0.14791584966432902,0.022771771128026058,-0.07416666006411213,-0.03948016618700577,0.04030687961295954,0.015494299302343292,-0.1526898472509275,0.16548170670797646,-0.039827500446768443,-0.16483959335637435,0.006219089977827953,0.006562296855520152,-0.18317215371953005,-0.011455612684096719,-0.04410755723498608,-0.04906019940677344,-0.07807642922988832,-0.05350639750666008,0.06782637050001827,-0.06854522721527793,0.1017251873284736,-0.061854462458238814,0.04707654064830968,-0.07146166946892772,0.029375064260706088,0.011496547591880162,-0.011092130539664473,-0.13887235604624987,-0.0906520406561674,-0.0269312755021367,0.06883608480214465,0.01807774214626879,-0.04868157468877112,0.044210226164545126,-0.04484678075819625,-0.157735263738223,-0.06105074742081482,-0.03241651054806553,0.03504075291282827,0.030693534065294438,0.12687349524509778,0.020140596843932563,0.11778371521369053,0.005172455930191607,-0.04509530726101728,-0.11433558926123,0.13947194350121386,0.012739136596644381,0.14769718393641768,-0.24807652333976352,0.03418169202796756,0.06833394472248956,-0.2663998020689945,-0.02506129178482175,-0.11738884816509794,-0.1324584104783199,0.230665278449767,0.11628161265373702,-0.023920659757339056,-0.020476157028016525,0.011916353808734233,0.08016028754603534,-0.010146057500321121,0.053877494881919424,-0.06525339307296019,0.02260686430102364,0.04495378387980532,0.14324131071801643,0.03900910648936104,0.11304759540447752,-0.09815199116718022,0.08325503640994762,-0.08076181627316364,-0.018285825212621728,-0.04108688032916345,0.018369268533468736,-0.02090753192971223,0.08816975555303733,0.0917330500966313,0.10342660418309248,0.02451336996111198,-0.11418416664975045,-0.15812522090587552,-0.036298035642679215,0.01341577298962511,-0.05727881353139226,0.06027869240144155,-0.010379775970918633,-0.05162460597530056,-0.0909129298852416,-0.12187572005302108,-0.03744379416906566,-0.03696812371879709,0.0010368458501336254,-0.10665479235520013,0.022354484168154387,-0.2701188231870595,-0.08462828411260125,-0.06781682863982684,-0.26883073497605386,-0.052966609600164465,0.044259091750625514,0.01928015530946345,-0.17319352867904697,0.00028487132617199714,-0.13672615477336517,-0.07253023857332569,-0.08318704121254292,0.02930417474222329,-0.04092386637952255,0.003251625099150489,-0.034535485358729114,-0.19020658750166347,-0.10130192540818449,0.18946558741315953,0.05294586778234817,-0.029243279173919508,0.0411572188838459,0.05245372612157057,0.08563692696424821,0.07648863700686848,-0.07361978999284102,-0.050699829361304384,-0.07006255375540744,0.02168146852787859,-0.008478532153550551,-0.06703933696316436,0.12024848829817944,-0.009367591305388785,-0.011247887190306964,-0.08113424016619236,0.16083826679445146,0.21180204550020817,-0.05677440691327763,0.023239601226160797,-0.0721314866940023,-0.0005993004169291335,0.06142427141537715,-0.03140964919229782,0.0600987141599136,-0.22496385955103304,0.05546374398202937,0.1587369803449404,-0.0044081821236738395,0.07018860185955257,0.13319644433334968,0.06057694890120175,-0.06572523273617656,0.10371669814960192,-0.04985703257783166,-0.09649989312188474,-0.17101575993534987,0.06442545913894858,0.02187970858603444,-0.017307128793135822,0.011179435498370579,0.12281625898222107,0.13638238909117484,0.001468144049494355,-0.08260623230519615,-0.11758829869331379,-0.14420382239479812,0.1318228811015968,0.08031279250412708,-0.049974906677999746,0.0510324981390267,-0.02946655664609676,0.0894357659990919,0.12923471908996964,0.1341037428024445,0.043428481202320186,0.03980172751564201,0.038286838940839917,0.17358410961539278,-0.08188819039578697,0.16393362612988494,0.025841712275838494,-0.02095779176095794,0.17049562800980678,0.12998090244717259,-0.04012456803369242,0.032657646197902374,0.2122424980967351,0.00122084214314275,0.08309241994598843,-0.004485661172044824,0.0402242542302376,-0.13627436496095194,-0.24787841814451403,0.058293002978732335,-0.010458737752932018,-0.04961874409896928,-0.08597065067783782,-0.034702954559272775,0.061948752737478505,0.06823908241907167,-0.03888775996590187,-0.04649078365451221,0.14446069688527824,-0.24202018996762642,0.14571941374013264,-0.19770389996728358,-0.0038760842109356033,0.06608964391761717,0.041085042572065196,-0.13825544197515569,-0.13621543951908183,0.006786415853172114,-0.050759212720742006,-0.02294349159685079,-0.12787241527310345,0.23622749250669217,0.11431723704315198,0.013055196772533218,-0.08314333758993689,0.043936970672583474,-0.1348513923216035,-0.03471840857161481,-0.023036488031570282,-0.12395527531913346,-0.0688117381604226,-0.03540891190963435,0.15905000344451115,-0.02313948801397266,-0.048363251886044525,-0.05215089384163069,0.08919665890063544,-0.12363230064759054,-0.0590871197492352,-0.12101571175460472,0.11263534843033177,-0.20348598912782215,0.11232670494628627,-0.028561477866183214,-0.09976555262778229,0.09769812034869035,0.03446515537331395,-0.04575409232850927,-0.05196856028691848,0.03951075478506133,0.24354966912235,0.06532266628869941,0.07789716163759046,0.06685458396001044,-0.12977010699366817,-0.07626622019423351,0.004303096366884195,0.07444955244414013,-0.15321090273840854,-0.0983772668336284,0.05653442565944275,0.038591243300325095,-0.007355337162722606,-0.14891785616858577,0.13109677587462024,0.06376704799503911,0.03222996230808896,-0.06895996423234568,0.07121775859135805,0.14327869875249913,0.03926284577734349,0.16202592086712927,-0.0027301134317050473,0.12145670124482176,-0.12552777590334852,0.01847896675264609,-0.08149070984787649,0.04056962283006687,0.027351496398900686,0.08498443967215626,-0.05443627548685575,0.012043971456319521,0.05800702932406843,-0.0540856512385646,-0.2736198049354378,-0.2919297709417852,-0.037898949276378095,0.00032381119015293487,0.15005723007980626,0.04127368869235377,-0.09947253908604319,-0.17504424121003398,0.2355067067193776,-0.16992895184558482,-0.020075560248930483,0.08365081420468144,-0.22042054702859665,-0.005822966768802088,0.08629765876506375,-0.15405480250845777,-0.03475224178668836,-0.01309026409128125,0.05005421368284425,0.19831682559858063,-0.054750426807584254,-0.1313734162331663,-0.1315473076997214,0.0028087265922666802,-0.14279359583970408,0.06454444890866927,-0.0262999373953977,0.0034379379175539797,-0.25330717594220586,-0.040857285738771204,-0.05336741228331408,-0.03593419778027489,-0.05984328775907112,-0.081886835005446,0.13222974422242162,0.04635639536297099,0.263055922599011,0.0833673008016579,-0.06762591625014376,0.007541566523065652,0.031542653072128134,0.1036700908783252,0.10185744431691952,0.1435916096992865,0.003954870224254447,-0.03874772721931618,0.11759675689000187,0.03328100035502838,0.08840121892311768,-0.08270863006963607,-0.20668057154092687,-0.005331888281092269,-0.05889749194163026,-0.23220681299115414,-0.06377035682958891,-0.00827657796908023,-0.11026318567251614,-0.04839746512730057,0.020809920126194214,0.1402592018283522,-0.08207421105695924,0.031666688146610854,-0.018850250015378572,0.2234968664542227,0.016770026218925642,-0.07788014705396389,-0.038669992567214824,-0.08745337509910985,0.14800450301949378,0.15395213971667768,0.036168214455041287,0.0007498833278148084,0.14936731512778248,0.1203352527485121,0.08127633558643683,0.11792514210243864,-0.12148412537326227,0.17343269283119925,0.04878884142872313,-0.05228655871878437,-0.11077578064810752,0.12163966204560167,0.13209570744108676,-0.013067502258459802,0.0827348633815138,-0.20876796968857383,0.021514799337648917,-0.08196961048960207,-0.011982201191751723,0.10004121396250111,0.0631046335485242,-0.04243076458725177,0.03632241890668543,-0.10609547786644512,0.020949659995459426,-0.09028982872603185,0.006841041993106827,-0.10316771685098179,-0.25748926976401143,0.027542447900084362,0.2600687409038013,-0.0152610637991627,0.1407716061422838,0.20563237433201023,0.1041685761035219,-0.01075692639283992,-0.21008247080405676,-0.11525661762246178,-0.12403326891657303,0.08238691647933664,-0.014625093672472854,0.03536424562087273,-0.04229885766716931,-0.10897913363114616,0.06481516478148895,0.0030956729996160577,0.1139298396684913,0.1668291238067804,-0.05432396631076238,-0.04086235317978085,-0.2515847951727822,-0.10234843348919176,-0.015857998196299457,-0.04688173161670537,0.11028366568590449,0.08795426021967354,-0.17208077075429634,-0.06441102145846629,-0.0529693580721569,-0.07805898206364904,-0.012364307487883835,-0.06476348810207062,0.0017399105941439895,0.030460851024791874,-0.0889826502656997,0.09191672865867109,0.25580711211569496,0.05712454051085345,-0.017275807470697648,0.11830367096854873,-0.061050803260026876,0.06485956431341745,-0.008855800564269305,0.1251394307854081,0.007441212773204254,-0.07041014559818966,-0.049754115717699644,-0.002184877219155884,0.017265958002141042,-0.05419153308633571,-0.12027864447350509,-0.08701496011214843,0.16975860504093349,-0.06272991093845405,-0.11916281945575095,-0.1555890547356602,-0.13375664191549688,0.11759415642359715,0.018063987426192373,0.0650911678728617,0.017654425420529987,-0.11338374894439116,-0.22514883223223042,-0.16507639139291294,0.0821996857669651,0.09221625087803083,0.20235107553405235,-0.04262368201005033,0.0608063585909244,-0.07982042421256476,0.11340014993711213,-0.07979877463309637,0.15396166426617955,0.09533165091707048,-0.04974057007409075,-0.09732285918843582,-0.08690338364001653,-0.12311276164592148,-0.021730407346071692,0.011257346776270381,-0.049740646206284135,0.034285422983241075,-0.04076828870002343,0.0006455779760249488,0.0024279177263609713,-0.14656775193099178,0.06749862016332818,0.04356892340110467,-0.030555515032061862,0.14217193294240182,-0.14175751280491977,-0.0008354242405367812,0.00209933360596071,0.04761249146935669,-0.281710285441534,0.08854687546243616,-0.16216719584667172,-0.14870173253382896,-0.17317694616527105,-0.017636243293063906,0.05164635371463562,-0.15306803257235407,0.19150564740613857,-0.16029236685219858,-0.14608007882217333,0.04847024052786764,-0.004837196420901395,0.12715706775625896,-0.06507586384445922,0.0014947642027127762,-0.11759271140305663,-0.058921745336161874,0.043127791808430245,0.041594597198326325,0.08029408794642061,0.06315243473694893,0.16612142315280615,-0.17161809694355848,-0.07849410973588597,0.0025892654950500126,0.1606558557625568,0.039830799483675974,-0.002833259425318877,0.05306760789573522,0.08936394562045179,0.06863461891450542,0.11514921689174729,0.07623229654203038,-0.03049498127832147,-0.0020102063242880787,0.00046666525293280096,0.08955119518779288,-0.24371433580594937,0.23936072426648408,0.19692379850181335,0.16659329132518177,0.05315135661344197,-0.08988776219257642,-0.13629316458286062,-0.0009067584502188448,-0.1263835232941897,0.038584729765651575,0.01733268320022744,-0.007892898599198889,-0.01217725172837134,-0.1533969126032832,-0.08803700516680878,-0.04263169077753302,0.037456377069116635,0.10280777902688008,-0.19610191708156008,0.07375468349000619,-0.032223665268823386,0.0861299173650106,0.018278771697326338,0.0729275559484787,-0.1271534461338412,-0.030962149223772547,-0.10519166957963175,-0.0052722899044487645,-0.1400536893098894,-0.09750246243010294,-0.09933428621960638,-0.08338963277989517,-0.086050660021019,-0.08570814803199504,0.057899547568627065,-0.14245133920329056,-0.06497728163208517,0.12010061320869574,0.10512424451919881,-0.09209956644128009,0.07284502628321322,0.015437934082522635,0.18202880478298805,0.12318307073471343,0.10299850876231993,-0.1233928754235407,-0.19794941976949137,-0.045665630864200814,-0.017092348883049367,0.14820489562342581,0.05473558273529938,0.07618454722873308,0.0628451436640137,-0.17395580913167166,-0.03706733757279169,-0.05424269697036574,0.07934945517685398,0.1429521492985974,0.0418719656328479,0.14484042023268304,0.05661881574234544,0.06096646891500863,-0.04318817343922049,-0.05824192037930946,0.02064697997098757,-0.08656361512306958,0.250773222084647,0.03533696348735825,0.1953759215429034,-0.17992010021209348,-0.044459301331697,0.10835908317896362,-0.15384591890719324,-0.17824335391489415,-0.04629519657061801,-0.08275798690884403,-0.24400839045731634,-0.09406590071661934,0.014388245260699595,0.045423868006572526,0.0486516797256468,0.012081528851282249,-0.22913145979080482,-0.07736339592620853,0.046354152768526204,-0.11191020322110158,0.21573210720827726,-0.08385079117557223,-0.07458303641460705,0.11923741066314208,0.11498207320852798,-0.09679998668497901,0.04334100547624583,-0.10943232756203666,0.1266078921734256,-0.06663741413835363,-0.06464450132315702,0.04439500503385729,-0.004844404581542606,0.058646398856895696,-0.10558827877637122,0.05254423790409197,-0.0331734235618439,0.12416865269853719,0.17645261165511655,0.1667516582642184,-0.0560091805122182,-0.12859066914526168,-0.04928650167884609,-0.04976326523767683,-0.002208740329347193,-0.08194842015699381,-0.0007313493782678363,0.051240331751821765,-0.01752978311518604,-0.021163062720934767,-0.16800463090139217,0.011495087668928034,0.026514674077213453,-0.011626956996388379,0.14998537396002248,-0.13706532312318204,-0.07422141072517303,-0.013873741848757967,-0.059081137177779124,-0.09118905138074777,0.07953568206998854,-0.1314785330809725,-0.028121930466869206,0.0065319151486659555,0.06251794224226648,-0.2148127082859768,-0.018193427674927626,0.07355574145490447,-0.02746428556661968,-0.00956785753211683,0.14526635922255746,0.0114536555042208,0.062429418550518936,0.12845879924038625,-0.05078500980570325,0.15947516169025985,-0.08665030401863195,-0.019910600034563696,0.01860775452958933,-0.09196951908567254,-0.053098878894163,0.0009283775462229718,0.022393743892947706,-0.042327693668571205,-0.03391349784816503,-0.08479188001840884,-0.016870704317962622,-0.07816965119235011,-0.0867662663707212,-0.029700576509890785,0.008678471484451642,0.02123389616942212,-0.029743459875471955,0.04319126575012108,0.1275962312322497,-0.07637812324021044,0.1678272354612635,0.0044139816608635436,0.007971521407316433,-0.00026437598656329467,0.04797546594087706,-0.015995410484696635,0.15818146963078888,0.010737530932284228,0.28943783909811494,0.006366898650257562,-0.06525958841655616,0.28493348934240975,0.2818334779360088,0.06968563405941673,-0.000519971576253894,-0.09803536002544429,-0.011317007573082138,-0.16285112433075077,0.09533619378296604,-0.07977458866034283,0.10169172137824888,-0.13210489131614955,0.09919220080187113,-0.21011365343943034,-0.020269890048485114,0.023623385285906497,0.1410235601831188,0.13524024112253,-0.16166441982191465,-0.14426025411644453,-0.08259432858702116,0.05773520937293803,0.017643686817543604,-0.009557101830289653,-0.13203410207358865,0.10852022117676931,0.10498101433076236,-0.19110569364060717,-0.09480898903034532,0.040064508822602575,0.021202245937144478,-0.03730199066993741,0.011092755950244792,0.02835196544248101,-0.04569979882039334,-0.02679332542209989,0.04657481760399855,0.06938610363527144,-0.06816880316894743,-0.038414613743842425,0.02275327482206737,0.03149622211646206,0.0541683728972512,-0.03022318772304513,-0.02732520627652639,-0.02371745965205992,0.026774800861275337,0.12213236052896331,0.13587921201764885,0.05524174543452345,-0.03143526104860767,-0.07682771165278778,0.0497822434118698,0.04895831274198074,-0.0477860101754743,0.12467923243447931,0.008732700551761136,0.12751474554375136,-0.1749212193401056,-0.05263955992445496,0.07530466196489596,-0.03682838178660601,-0.041516546237782996,-0.10227272299388325,-0.013180114187198685,0.011954628197861812,0.04185662161210592,0.035195861172363986,-0.0760986142368242,0.0799991754618014,-0.12710467110126786,0.02670451196136592,-0.0006363634063219983,-0.17758478584969556,-0.005887057127973851,-0.10136587435347222,-0.06650684791920525,0.15157078648873767,0.012288540747358112,-0.09483362890115962,0.1477234837529447,-0.15646891434593038,0.14138184110511134,0.07727101038140864,0.08844533297313294,-0.20578038264507398,-0.28942597155219657,-0.07952948138305792,-0.009563543002843832,0.16488961963100102,0.020008096558115022,0.06676657041548222,0.028994481487395835,0.014336947496169239,-0.05113156568670287,-0.07194302102213854,-0.14250738034422833,-0.09951109257528751,0.17495289759633548,-0.13792938391544637,-0.02665842593374712,-0.05422598135550768,-0.07171201425313374,0.035646534466106924,-0.20382766790104878,-0.11523412711935967,0.09131446308109148,0.19158841085022194,0.15457226134113872,-0.09616333809657247,-0.1430596845768072,0.04220059486707916,-0.04930984764518163,-0.2390520525659361,0.013671011289983066,-0.10736723897716019,0.10132340008320044,-0.12425382281557001,-0.016375766173856547,0.06357503512260551,-0.015774540706482026,-0.020733663946302307,0.16408072073327334,-0.03105739922143053,0.034385433147491484,0.009644689950640892,0.008638185998511384,-0.016708410168138173,0.05694347988112841,0.14092209319859061,0.059201242300786217,0.05380675702760627,-0.029059190232244785,0.038688515016083815,-0.04869527013776662,0.10614537418116242,-0.11907080465556519,-0.014480095405617729,0.11148713609233145,-0.06790957521998016,0.04600841923739594,0.15253013958572614,0.14460691478068177,0.21293211256869055,0.1449998598423114,-0.1425262833554531,0.0066752824590438275,-0.08451993164991564,-0.02409265166282174,0.06327978078076979,0.0034560430693970183,-0.08456266909890918,0.09785913889792802,-0.24965923454093572,0.03815843492646367,-0.03073026281798991,0.0631257079829176,-0.11409868112560617,0.035235717765415876,0.28168132673483093,-0.006487327434523255,-0.08416368320246,0.029294141868791257,-0.07831674165881035,0.12584927107161825,-0.006879330971157791,-0.03482936688927596,-0.20512907208411416,-0.021825181299120252,-0.11321337773800862,0.04293060458389766,-0.18439971912339934,-0.16601087250851074,0.016988734400407744,-0.12035377449771174,0.053502419183923615,-0.011110622547683394,-0.1574791996149169,0.11058498553285956,0.1129693492923674,0.01025674662667196,0.13691898833811425,0.011706070425622751,0.019255976273720183,0.15930254501166177,-0.06013528508457042,0.14993718832690558,0.09242646278901893,-0.1245390839823198,0.09830064500762388,0.10051106423925663,0.02779787692310206,0.036588317601953406,0.11906507741196119,0.12239087830536224,-0.02901662402976227,0.11321667016083999,-0.09244011761510654,0.08169944564499154,-0.05814710098032825,0.21264499611683035,-0.024674111597444273,-0.05109781577934604,-0.03088934908992045,-0.11856582510521242,-0.13371359844757913,0.11237112555794043,0.04318502837643358,0.01095822367976871,0.007820037959585522,0.19038522282263262,0.1413442427233395,-0.0024755726999462057,-0.08139709973147123,0.01779584656957463,0.021353265286773858,0.14275998964845815,-0.09397321488879115,-0.12507067779394226,-0.15986481719252923,-0.031487903531336264,-0.07142332949203503,-0.054901379254817854,0.02410388388651314,-0.0998741868825653,-0.06396489555460062,0.023022810066918913,-0.07821342002774116,0.04452629056288793,0.05068984553001613,-0.0702532586635284,-0.08190775162986741,-0.047901662512060815,-0.12052459957130159,-0.228928192180296,0.00843212376775799,0.08966579060663873,-0.03513023478357618,-0.1368996187959313,0.11972109932517828,0.14041641667397542,0.0023130508107955,0.02340119384935769,0.04557460868151839,-0.11444389942689982,0.05296463488857566,-0.12602855074073743,0.09866839268287189,-0.00658235351414744,-0.16185076874501958,0.006858802668132015,0.016943684807263184,0.020364967505269775,0.18350182271278964,-0.17109761337852522,-0.05522452426561842,-0.0529699356661081,-0.12600916827462005,-0.11223900206333581,0.09840697045755062,-0.031246427176562633,-0.05813610997499011,-0.020445477654581455,-0.21801749230500136,0.11777921080664028,0.05399472493332332,0.033103554670604635,-0.13983574540203073,0.0025501643535072215,-0.04593304929425199,0.04734246067745585,0.0011977347621862536,0.19414318197403377,0.10374730464690247,0.017284288254070326,-0.15125257174624424,-0.05357589302627997,-0.02513838552521038,-0.07659530749717669,-0.08792228683739717,-0.029287367700479072,-0.11780959432971311,-0.03907619866077803,-0.0112883068675739,0.06335745273845812,-0.04381367349293426,0.019618223202343573,0.05804280577564333,-0.11883641419323478,-0.17931296915113618,-0.019315332641333713,-0.2042486989459966,-0.06782147015960747,-0.0908274372605057,0.155089477560209,0.15229569278463445,-0.01664431912049563,-0.05799553694957885,-0.1848910870860867,-0.1607305613666348,0.14772162588702514,0.12810889296635725,-0.007113352154662666,0.027213065882659128,-0.00559935540434013,0.08899214569938103,-0.1362118759902201,-0.01586737128730592,-0.09436810691476558,-0.06245327146943911,0.022584243051946715,0.027193254871404803,-0.0829067241413419,-0.21989171813404007,0.04426768838003033,-0.0040252471074752865,-0.007354501478236167,-0.08715685555051278,0.058044682726725104,0.02108185943248583,-0.0695520779214298,0.03019473252425526,-0.08085036258984568,-0.014381119136180611,0.08473518753070192,-0.09844908643786358,0.08303926657377807,-0.0666078827803075,0.060772623356979055,-0.10278984429069599,0.06567342070633965,0.005388793326842943,0.19183149467393676,-0.04624363408365815,0.07809599647418959,0.02913798157765327,0.010384414788761006,0.11928677154238983,0.008228278134792663,0.06222881571645747,-0.19090172142143824,-0.011591890219036881,0.03020529087322145,-0.007278204935767784,-0.13222180581335263,0.009815407869570797,-0.1543101080784188,0.17301771017027434,0.3789754453924915,0.009765628731202947,0.009768204170734499,0.008652090985923398,-0.10013251029220138,-0.09600212757800862,0.06873036964714008,0.002037676381967241,-0.06843076178887027,0.07491452199930176,-0.02070631259949638,0.2036718378302306,-0.10994660682915874,-0.06358881234761782,-0.13118990987641116,0.09719114542736916,0.16977884539855823,-0.0746057783415013,-0.14956930698987927,-0.05515788942657374,-0.2914539467811727,0.04743804219250819,0.014854781125366319,0.10202387290190006,0.12156396678637522,0.0988192983946647,-0.06634995801954895,0.009421135481075078,0.1361475530260758,-0.15991511187535756,-0.13835771747917466,0.10275331180714967,0.2185786834507937,0.0013416961231766987,-0.050384653245604406,0.04302521817257628,0.13214730418207118,-0.035316605434431436,0.07369484795198922,0.15188423334568704,0.14839094513718606,0.2701895915781882,-0.08154836802049945,-0.2252013772594844,0.016709859431636165,-0.013067876542224244,-0.04478361995453899,-0.024207132086559963,-0.082307526535477,0.011164604618927626,0.04330422389233033,0.03606478400761442,0.05306943057089434,0.19922894158075558,-0.020012320505214117,-0.005010991898190519,0.12981456167089175,-0.0566786743114383,0.08653232348343926,-0.03092176925107448,0.04659434135271646,0.06674808013527138,0.06993927369557097,-0.031154220963747873,-0.1649583963507294,-0.08005680876485725,-0.004419448609679347,0.016471329649320583,-0.01721523227424605,-0.023333806373373858,0.10976430887981282,-0.1489528397572292,-0.07078875735469507,0.1276348211178817,0.12102082983100867,-0.1294741572245879,-0.1320014456438892,0.05970877491693875,-0.12954414110649556,-0.047873429930516645,0.20467795664344868,-0.02396976654899298,-0.1043820069704345,-0.17485906341049046,0.18251870859556524,-0.14196259216929175,0.30542662774021384,-0.024605526637981497,-0.048273524430965054,-0.060390017659952576,-0.14063998105176265,0.03643498001261148,0.06526731500466232,-0.07309809173087037,0.08345401557456103,-0.18578891094337946,0.15632416147006445,0.12194849848318252,0.053818284900214605,-0.20297860342098595,0.06596677811193744,0.012224455479012443,0.09962982278896183,0.045270706033218096,0.001433029246928557,-0.049665805215130705,-0.0075366523183490125,0.10953178922001006,-0.03964578671241068,0.01634076561349112,0.03279963373942673,-0.12975611041056548,0.12423165857402635,-0.1755967040162275,-0.11431686460875458,0.0851858305679939,0.05331552415136494,0.029522135338251855,-0.0384356459449626,0.03491078203778308,0.2252606265771894,0.005405720157760807,0.016287227568279307,-0.15450620531612128,-0.14175921175907577,0.01638205277209368,0.014654294090436119,0.15143059758521937,-0.16387087609509313,-0.0548523212243593,-0.007508386991683616,0.03963750044703213,-0.0633342413225978,-0.06474488511161153,-0.013995872389857042,-0.12636912147727955,-0.033763468048659026,-0.24194935842875614,-0.034625208169027914,0.04654059592311864,0.10680462923517173,0.045313623396621615,-0.026472471168535475,0.13926936009353688,-0.3209249828888511,-0.21636396113553613,0.004176998512025547,0.048039568773056915,-0.06826821963271919,-0.1316307949391501,-0.11070977312589811,0.19664808152919924,-0.008652490381296169,0.007777299133290647,-0.039573944152279855,-0.11983284446587664,0.03756159249562902,0.044108332152875566,-0.11569142048395437,0.03564380459392774,0.008069761942689133,0.04745801271620148,0.03999280724297457,-0.22765672912954565,-0.0791289578080249,0.11460664850211193,-0.11203526978206685,0.041340825230940195,-0.0737034153498604,0.13848137533534569,-0.08293592724331032,0.032088506584625816,-0.06899249739174786,0.009680675318214054,-0.007815168261825262,-0.037451287773209795,0.1603321870159151,0.07871847303569939,-0.005266138979975105,-0.11514257645751862,-0.05033464563328448,0.144390276284456,-0.01943544250456498,-0.09925752207118302,0.06635335488590244,0.004167658858926313,-0.014490207683308784,0.08341897230271354,0.07822128791116417,0.19563565217484613,-0.000851096865933486,-0.06126308235123971,0.2280974708558075,-0.13294540406105243,-0.009276424939702788,0.05984655560818342,-0.025041145553188635,0.07075045600660528,0.10259811762715063,0.07569684827222584,-0.05709823618494216,0.1613563259753566,-0.028802039013866496,-0.19151168790439693,0.04194102277287507,-0.12883982744441572,0.13044217415314383,-0.03401879090981027,-0.11390312961971759,-0.008174211338812715,0.16775762348550627,-0.2152560507630745,-0.04637138335256518,-0.030224590850312583,0.039859454352699074,-0.12414855687309866,-0.08191689679471649,0.016930122539664142,-0.01665935326685506,0.06234885909997382,0.12596173325893203,-0.0688982511164107,-0.10241345499115358,-0.11689686177237103,-0.11867600032271915,0.12959726003657215,0.03756936739423044,-0.026616811414230196,0.09264444388650676,-0.12373205810325764,0.09656095944519508,0.02984832242249675,-0.16121900727702856,0.18039443947763759,0.009969520918127452,-0.02140933402638563,0.144296095057077,-0.1018342723565699,0.06582686196217066,0.05833378239794791,0.04889560486699476,-0.12876841918947468,0.06618175791371317,0.1388246243698045,5.814741232626609e-06,-0.005092081280366291,-0.1416602101182036,0.025736897340112152,0.07750885870443892,0.06440563570723791,0.02511464015517583,-0.05893476959769107,0.08051264333475364,0.1346237546472096,0.12123486044532182,-0.01754301759739198,0.06266365090615628,0.0024709772966658478,-0.006263521722972462,-0.0708055966315121,-0.049213328092551835,-0.15018692928226432,-0.022220356044485697,-0.08848521187915201,-0.18580120385072466,0.09850543247720316,0.023327720004981328,-0.1465756491534385,-0.01082030935388323,-0.2274458997716027,-0.09725613474756155,0.08140380997489995,-0.08649952074985444,0.01320469261357104,-0.11222112075118065,-0.052127267973610884,0.003484056526405527,0.05952567525483582,-0.23369545082212081,-0.04686984038203541,-0.03864784695685497,-0.13154711054403145,0.026807676891803637,0.10820883573136958,0.010795264275240569,-0.10534972093640245,-0.11369223364476784,-0.08323076306575063,0.1991169080017234,0.013592176758141037,0.012627782174048328,-0.1115550767153942,-0.13323378956935605,0.11995474499010449,0.177458880920757,-0.03959955594633264,0.013828024862895177,-0.22202699292924888,-0.20752505056704765,-0.09515322087095249,-0.09249145496506692,-0.022343750683918088,0.029582314364433693,-0.15186839564430143,-0.11031170748698402,0.11223479681924102,0.05674448884937922,-0.05170639056339211,-0.21712656423381857,0.013525178826811566,-0.04591259027507765,0.011578287600348043,0.03203681058857874,-0.025913804355141564,-0.10667623258364127,-0.07789000835982952,-0.10461577444469515,0.04060802861477624,-0.04609197031528335,-0.09495511664782688,-0.2680373536716448,-0.08072860816809242,-0.0660148500190275,-0.07251515372633917,0.05160940024400955,0.15664878848413255,0.0023725976321758617,0.047817462331797046,-0.04259168641371768,-0.06598219230912264,-0.1382238805530587,0.19541031065005637,0.03343584133521891,-0.10690233454078765,-0.12601336598286278,0.1901923313038466,0.1703265780374386,0.11307269202549668,-0.1466109436419633,-0.11109955132084069,-0.14551684317757244,-0.12343973047656308,0.02566801443266644,-0.10190020353707892,0.18847362370946136,0.02263261524391186,0.0876521684039949,0.004480197162148138,-0.13940328216230208,0.09790894503261774,-0.022719639033652317,-0.10597066409610773,0.04257869098495173,-0.043450147204954444,0.15592279588262198,-0.02148138869691118,-0.08536304395802764,-0.008880871662011527,0.08430338649563421,-0.10396065676502807,0.052021130193173,0.2469584228159605,0.17985141614118097,-0.04313153313694861,-0.07338452681513216,-0.02027384978057045,-0.04145350928417101,0.14009381833979792,-0.04288438574278386,0.1234314115771547,-0.08650454478665036,0.07429856267667016,-0.04623660832612223,-0.08157414160807072,0.07503684342278147,0.028063655118904178,0.03996037168517509,-0.1517624440672243,-0.04999570375153852,-0.10479179556998337,-0.028098258933636794,-0.16960900243215732,0.07576758198620102,-0.09339099688052238,-0.10516910795097717,0.026724184093493288,0.007939224378637583,-0.17400316267935712,-0.18570907604571088,-0.2133506970192129,-0.01303904695642931,0.03488137083989947,0.11314906360347096,-0.0324226285701337,0.16301100805173085,0.07465071840348123,-0.037063019131696066,0.011054040251523891,0.04528177284622595,0.09222531953453783,0.12933330886706096,0.03432450599962772,0.06892715744899346,0.22521194695436803,0.04089441375090585,0.0518900131420603,-0.17485232323863445,-0.24365722061549724,0.14782896211220867,-0.04234353095461689,-0.11704360961376561,0.1342891003317986,0.003495386068817576,-0.12645213617893233,0.09348230009692989,0.14772060343859514,0.09807119153451803,0.15333942283530813,0.04215389614228686,0.12653681701708347,-0.019559108298684704,0.08453120331410123,-0.10306288519006364,-0.19141100908649247,0.038875623955558145,-0.04331882383377256,-0.11278089110926291,0.11655867976178225,0.02958345903300467,0.11463024011443698,-0.010896777287783923,0.10376543093380325,0.08169914519223319,0.1764569255336724,0.13962217939199623,0.09336158552370148,-0.07300351539384582,-0.17937679689200997,0.055269372557666015,-0.163198661215421,-0.05149257247195596,-0.27214357520252097,-0.19194653769927406,-0.01345393077946058,0.08269496320484797,-0.033381476161911845,-0.08782950609822862,0.15879777143530044,0.07110522506875842,0.31093652896302093,-0.16157761595557674,-0.049541972251416676,-0.0893481899949089,-0.12176928633001095,0.12186222827008407,-0.03160957810674715,0.06369636935915103,0.11349258507236944,0.24740106766626957,0.0190275602807843,-0.07986989238494549,-0.18977509135100354,0.03782643719040802,0.04275472147402332,-0.1756775707193371,-0.031080548656321275,-0.2636925906826418,0.18040445772136052,0.1225986030747049,-0.009236109395230322,-0.023980403485780878,0.043964550636068904,-0.006475892301594309,0.027382019431675245,-0.16179877622840189,-0.012557286445801766,-0.18927153718134657,0.07216071002242024,-0.07303465689326928,0.0879800539420146,-0.009285724251672615,0.11197458513750777,0.07773586738076523,0.05072195365671823,0.012903868192912983,-0.025245274918809103,-0.0452178346213739,0.0927891084995444,0.09477352215797855,-0.03935379319292507,-0.008045287871181715,-0.015834670436874983,0.034562399240601414,0.1905208637735028,-0.007743646031997714,0.10691623916529966,0.06280774127699397,0.06498789866369299,0.12642263708642226,-0.06836832754720992,-0.031040786891902147,-0.07286023706071132,0.01561025663221403,-0.03513658079479557,0.2271319462281579,0.018025808144664153,-0.0428711107814913,-0.12441832897668448,-0.21463148599121126,0.10597780190532988,-0.12026776384023072,0.003533752229426646,0.1390117288244409,0.09770513883511199,0.09765493734702489,-0.08595697872632686,-0.1425285031531819,0.014563254935745997,0.003616538348552175,0.09193545823658131,0.01296847502815994,0.02528423039494014,-0.1698189849969426,-0.050217264036463156,0.006386770287758085,-0.16433786054282193,0.004217141846770924,0.17595931957460592,-0.03563965804892708,-0.18573090036229178,0.0897905454934276,-0.04021680876512366,0.02404496351335008,-0.06798939249410771,0.012262913565053189,0.05553455470236246,0.009563146056633696,-0.006100389324261692,0.034191302025570545,-0.08355182570144327,-0.06213378744135333,0.0945439232273279,0.15850546181469527,-0.019184888911284982,-0.1489395660363254,0.07272231157880342,0.08152794994710039,-0.14178686273679875,0.06849112142990273,-0.009368982539328281,-0.08300578112501628,-0.07556109945791917,-0.08965161929285922,0.023550974258960848,-0.04085075881192769,0.1392790810351373,-0.1204544976393032,0.09057219723825284,0.005315308045311744,0.09103274582850436,-0.12591707577534858,0.019437640617754486,0.017701204649635198,0.2189244819932456,-0.14665568346661784,0.08854468222731478,0.03217436701432682,0.04002856551574774,-0.032407066119840434,0.02199144321293088,0.07035093797367879,0.0698916280636472,-0.05695674555040801,0.09259832237469504,-0.20989319765866987,0.10963177295451339,0.03904563280634231,-0.1148803821588487,-0.08528629929392444,-0.07045296633443239,0.015365789681381817,0.19731230746499634,0.04650248060449792,0.22878563583571868,0.14192460097340437,0.03726513484265343,0.012142677514089517,0.1290369823212687,-0.06059520295474065,-0.06032736154688482,-0.015230207847604925,0.010273600762853666,0.051506003766036916,0.004586362995442109,0.0860746602244557,0.13921764024864197,0.03743478993079113,-0.025478647900628492,-0.10078192381344467,-0.05560060599569442,0.048340564421932804,-0.16092131242711033,0.12125523024692032,-0.055955986812614246,-0.05548272851258857,-0.15053084387205934,0.08540382550458533,-0.053217768601476166,0.20808676192519263,0.07237319263960351,-0.040172366874113206,-0.1324611400066286,-0.008467586776134222,0.13763741103952026,-0.009577284097269417,-0.08634351339500228,-0.11875304491339049,0.11933557596878926,0.046682339205342316,0.024318064688504136,0.02200652410044834,-0.027813926301753285,0.07044396526012763,-0.11491744631597199,-0.10649728967790505,0.04602507686351778,-0.009802354160914295,0.10047291925023805,0.1256400335901128,0.036804127254509704,-0.039489944568097846,-0.060264682453777425,-0.03672828124527846,-0.07704752635833587,0.012356771323710408,0.16054137448544475,-0.11351113353108068,0.03284660504116553,-0.036521400694065474,0.073758784073842,-0.2688314965565739,-0.0790626744373392,-0.019289275497848223,-0.1424781603604894,-0.04941444875523875,0.1486402448232677,-0.09343383296859537,-0.028088277183865983,-0.08353094380780653,-0.0046391252310342005,-0.10897712789731528,-0.21406872172488048,0.15901161748603576,0.12514570675890915,0.11859649716964189,0.08591403079578239,0.13235734187780998,-0.10251388854801412,-0.1454222949394297,-0.08342797080534543,-0.1681626300861322,0.11167987877177647,-0.030334014118015677,-0.18277737982137404,-0.08120773631304243,0.020077805433658415,0.12247794352732994,0.1120338608561835,0.09761373590699264,0.13621562394730888,-0.003763111319820306,-0.04716178340203477,0.11543676851767849,0.0706428275991593,-0.07112414160214392,-0.07547761419138878,-0.1065604545051069,-0.08971234081388323,0.0135629905568877,-0.14194258033233756,0.006896190283668355,-0.1415224431566086,0.1012885494988315,0.06293134547423744,-0.04665202606725572,0.09192669081459938,0.05955761351437528,0.0007343441664357372,-0.09286632838348163,0.028822045774894577,-0.2933693235515993,-0.20874394083839642,0.03148954627087709,-0.29456773435725464,-0.1461131325983427,-0.0446494663118752,0.008305181983170016,-0.1019223872241569,-0.05005649354491083,0.0063195068173273125,0.13448601826995482,-0.07943402529962454,-0.11334763387814915,-0.11055866533662513,0.15582680440156133,-0.021355709832689668,-0.09772025251078778,-0.2652114442165253,-0.001334048933843296,0.12912087242978787,-0.2225740120478084,0.07326213584906788,0.01872828765035433,0.09793762475443753,-0.019264874455198373,0.046932247764367094,-0.230765066496277,-0.0426683577042481,0.01936835195304009,-0.08926255033942715,-0.04555289933655699,-0.13476938113695267,0.053256781941753574,0.0037891604686701532,0.012653855798347359,0.032288541406650086,-0.18604382537652958,-0.11424782694310054,-0.09591777043303841,-0.01914547584098572,0.04297082386633244,0.14128584529739996,-0.09790800918993307,-0.053889066346985905,0.04341944897737305,-0.1151498841906,-0.05693849364241277,0.14921343683655913,-0.24272895985139537,0.12233939217525573,-0.17323687672248225,0.0032759095215316903,-0.000975720831043934,-0.002281569210888373,-0.1352503071220732,0.0917653486880075,0.014481258224965187,-0.0169092481108593,-0.009696744563174483,-0.03272105406321551,-0.21264285166032815,-0.1289959545066344,0.24004511762028918,-0.02468516865520925,0.370380937854806,-0.08444531612458725,-0.04319231105442848,-0.021449619181313356,0.0792673185599296,-0.14070735978097265,-0.017843083245583785,0.12542876513577297,0.004937301297489019,-0.10954500247595358,-0.030652219965011374,0.09306024308734666,-0.08323508650898331,-0.16602032969964167,-0.06208268502187086,-0.07102740409414646,-0.11877883374252733,0.04465480012626876,0.04431594117102188,0.01567044885883827,0.06158851956041367,-0.181591841917523,0.07915147565052161,0.10003152631482938,-0.029056153235601727,-0.24259715619998887,0.015272814855885743,-0.09348502394235658,-0.053448753227946386,0.04841301194843129,0.032152097604382,-0.003624445374713478,-0.0745308369665529,0.17417060702670556,0.023818084352598683,-0.2448101154499273,-0.07311825145400529,-0.022157426261479384,-0.12163648247522174,-0.10805640166620303,0.11858384911029451,0.054129663619130054,-0.06315902468730053,0.06346200760923408,0.15317099502883497,-0.2697748406445636,0.02348897795241251,-0.11958675533883503,0.020389928617693145,-0.035039131235570085,0.0013542596129762885,-0.03907947437490409,0.19250556475632294,0.12486053732185955,-0.08792807837333698,-0.03787378308875332,-0.11345627958838453,-0.05885877753167139,-0.060876098629682705,-0.04089366041083374,-0.08446655873837204,-0.02945385235790898,0.22773011356025316,0.07078930413505784,0.07106012377971506,0.06522897452457424,0.18094952081103513,0.011744172880878864,-0.07174012445256854,0.20184692473172414,0.09936341763549057,-0.19507635657251798,-0.014685802093692843,-0.28348495629167014,0.10822843547014542,0.1311198363557859,0.07632320855897948,-0.05549523856634702,-0.07652335625899138,0.033747310208503474,0.0003032695445015106,0.03398427507351649,0.07910525994580796,0.060422760686334676,-0.11732524722285173,-0.11630400739043438,-0.16603951179085272,-0.09134640611069918,0.1681376144567006,-0.04017100671943326,0.07542358395928571,0.16798013097773717,-0.19485091178494632,-0.045132552239289705,-0.10516802538076654,-0.00036882834435083596,-0.1401518832201421,-0.08182554607521439,0.20381275546100147,-0.16708804381800962,0.11500424390302096,0.10576345439447993,-0.23140226951500134,-0.04319759023436053,-0.13806235083193905,0.08215782018220018,-0.010960152457927285,-0.005167783103557426,0.09039435932959615,-0.1716090508905383,0.0874930487250841,-0.12194237030236608,0.040868476590798765,-0.08754534427320299,0.0453848122327966,-0.02827309221966206,-0.013486076350740964,-0.03430049455856412,0.023428290787484908,-0.21857327916974356,-0.06867955022811273,0.15692018687110912,-0.06763097969209203,0.00878969705428437,-0.02050108663437287,-0.023832198058108336,-0.0033155488030892554,-0.0564665344277406,-0.009009388923105049,-0.01722174724369734,0.20172328368342787,0.047710666369630235,-0.14831999058020473,0.10750674413780549,0.015646985445888672,-0.18548423956684232,-0.024765936452216093,0.08883575636738243,0.02228910976328189,0.09607301294133627,0.045796598152800676,0.01811390594491706,0.02408011616445463,0.13151348891198306,0.13523578474908507,-0.04967488682553966,0.04462078951151371,-0.10014736449762313,-0.025524722916501198,-0.056200476031574874,-0.19107496113004696,-0.01794208334293583,-0.0935318672234963,-0.1102063076244241,0.10165033113476542,-0.021002288068226495,-0.13681030630881424,0.0709822106704946,-0.08785867555119586,-0.0036977141429156957,0.16220097396271976,-0.0959495584779722,0.04588461082080343,0.0510516406333582,0.028145029805515545,0.03655650169428946,0.13229405513918932,-0.12289728689529937,-0.021169541311580865,0.017042112115296344,-0.025571247642673964,-0.019856458608827336,-0.11622879998119233,-0.061272288455746955,-0.0504594140710368,-0.0054719342643773285,0.10164979034733218,0.08075413108346052,-0.1668273467933258,-0.06265341173599313,-0.17314222381372735,-0.03267815980692651,-0.24947586423494125,-0.10129258207182822,-0.09499831406288808,-0.1551474328334209,0.16788947339850657,-0.009203566375454894,0.05363467244014784,-0.10857019373302125,0.12944289288761446,0.045582191809359435,0.13652351411839123,0.0386469161152727,-0.08893999786168162,-0.2388590337471217,-0.05522287597440687,-0.13073892944656176,-0.0763332360643498,-0.0914336424478197,-0.14871323545346635,-0.11998263792710204,-0.161803080113796,0.1749213271483721,0.012826190386829282,-0.022370250136566964,-0.07732224163994136,-0.025008312092778616,-0.09629994289531026,0.16990707492517704,0.16100305051402442,-0.031153569443917388,0.07846762184241612,-0.21083335195104144,0.017350164766980664,0.07733995258140808,-0.10235879853178519,-0.09091863732378001,0.022024741991137256,-0.09370156451268194,0.10191529708699187,0.05957257746025016,-0.12449862967717062,-0.12515975931748505,-0.10032575536235387,-0.017345606728580487,-0.1225588027321646,-0.1374504570547308,-0.05012594268208169,0.14549853706817462,0.08311441739113729,0.1930695893395104,0.09576806944524992,-0.11547582367059735,-0.05716700835809457,-0.11450855047501464,0.008889072394050845,0.048777456289022546,-0.11206923784327649,0.06320947642229396,-0.12419337133292015,0.04595360621138712,-0.09493320774057616,-0.05312311495716227,-0.016668153951165506,0.06967948919719372,-0.05716857635791798,-0.1529635842715506,-0.10471948627500481,0.18018076676473632,0.1613049002056993,-0.13308033918507692,0.009359707488085366,0.06286534233249398,0.18810072612751552,0.22010740226509629,-0.01232689096193721,0.01993044216575196,-0.13002170567188515,0.1549003497233623,-0.060752512449575476,0.12231202735393502,-0.04297194093022233,0.04074234868340728,0.04514762996892603,-0.12677983408661067,0.21239152811900716,-0.11808276505279015,-0.1576160623363328,0.07780574124510418,-0.09481394102108463,-0.004363541401547521,0.011337595802620844,0.024236659236446058,0.12965924206115123,0.01096879546057616,-0.018022549177595003,0.10771719775094366,-0.08738710687789313,-0.017903277529391057,-0.05074822618981004,-0.0008559144456972046,-0.06505598145473311,0.06764566002864449,0.026450616887136066,-0.20240387869449286,-0.046331188598739165,0.14351529478757363,0.006930459453060003,0.07890414700955449,-0.13451734838951912,-0.13313066674777918,-0.29680992326613864,-0.034242430888395285,-0.021554822199163867,0.010211306205870834,0.022508697274255467,-0.009055778457227832,0.09045331511660187,0.005118820278438186,-0.08482236272712941,0.06573989606139488,-0.15766347395632704,0.048984002708014986,0.022050459909475528,0.02401467369520489,-0.00923963483770901,0.08289016778243995,-0.18697051131091227,-0.12727576759476572,-0.056394707563720524,-0.14473973864057085,0.12728470254272742,-0.25154936324812105,0.02617400990471049,-0.16076942281951848,-0.022876444603747076,-0.114143374840892,0.04793733252160882,-0.14289465539794466,-0.07250988817598514,-0.09436028788030072,-0.16289600416072167,-0.08266531056650604,0.17217165627297804,-0.05635121284973346,0.027324141279323505,-0.04015552429511982,0.011065216626771531,0.057377616419346446,-0.09922309741804247,-0.10700167050732663,0.044298562997911954,0.09809180770105984,-0.09953978607344924,0.16762466295033254,-0.15327988750581642,-0.0004696734123004189,-0.17057902693434618,0.10592216547155107,0.21021839988518504,0.004564034882050663,-0.014957167127326414,0.0777643293262562,0.024842952679944054,0.027666304399222956,-0.03140533284616954,0.015193805845858936,-0.018248589424491726,0.046671159411444486,0.0858871933810223,0.04499075709501827,0.09384692564039326,0.014026382945593087,-0.011552684576994035,-0.02673864774939208,-0.027039421627419312,0.023416059509688274,-0.04514899198745304,-0.0592679349868236,-0.006338260057702615,0.01962878449233343,0.005413126293052909,0.1427832206831561,0.04863883564436475,-0.24151755991708965,0.15223741720993464,-0.18618368060561188,0.018497798727960195,-0.015797954383844088,0.02244838925066132,0.06768124412403727,-0.007598311979062829,-0.07010716582644069,-0.03148744436062428,0.26270771509919455,-0.013991600322286754,0.04841391154244234,-0.1610615559116607,-0.11883664453048001,0.08816647333664755,-0.0541766893185848,-0.02484952896219021,0.001957149717841962,-0.045727893753235806,0.04420459488186712,0.051779691850390955,0.06492238701576263,0.07781842256226718,0.006168455776878043,-0.15578688916488692,-0.14005986836982626,-0.009136154756971474,0.07875564300275525,-0.18709850544445522,-0.08841564331025753,0.1961539530275465,-0.13009345298007988,0.13218714278331883,-0.24945116887238863,0.09702313951245876,0.12448018423875751,0.007741889899139769,-0.10304727424725159,-0.1493630989762696,-0.01788369816219204,0.20013874982175323,0.01670179714553422,-0.1334730033894129,0.011286376818472917,-0.16767924648847587,0.040309010612792524,-0.12461494485535396,-0.13158389535391704,-0.0813606064255933,0.0979114294868243,-0.012852340331502572,0.13834461838181225,0.05571661846491987,0.07496405890586882,0.013265211514770628,0.01909118019071193,0.09478589173915755,0.031907202212611896,-0.167091374123427,-0.09390008522918987,-0.008724694221972137,0.14934744323655214,-0.13177960533458744,0.04806845724904019,0.08280831064962005,-0.1229099691365363,0.05094543777517361,-0.042877313140140684,0.025720733956327055,0.004679905607150071,-0.0870882514886898,-0.09059247721084442,0.10398680673812796,0.03947369474591062,-0.09683820806899796,0.11654328123670532,0.08542292750581805,-0.054491786194264764,0.025872784544231205,-0.0940076343835144,0.18799803864151904,0.1105601335512032,-0.09595952306166676,-0.1788198004520889,-0.05939857933902284,0.018687930388842845,-0.2503121205411768,0.05969406308840541,-0.050085905260084544,0.0848764396358295,-0.02573981100608424,0.20587894151608713,-0.060028520635442915,-0.03930289436802897,-0.0479259573940559,0.10732894276120224,-0.15384411374209614,0.002935864347186764,-0.04278932570712546,-0.13204653031708366,-0.05556030789624387,-0.1340963110030012,-0.047832229932344976,0.12607236298878574,-0.04031934016095963,0.08999726379261437,-0.06179733213117331,0.007120243233170112,0.19775233643655418,-0.06697944441021444,0.0729927689341428,0.05967710796726227,0.02767116560044134,0.008140687688027538,-0.15550283600425047,-0.01461938800946216,0.05796731136260186,0.06786571953412017,-0.04148137525041291,0.06454365671150404,-0.05898926926903025,-0.1848168274106316,-0.09132123002248804,-0.07601570814908311,0.09492761361853337,-0.004096752199846147,0.06378213524842374,0.015787294907924583,0.045937957517336855,-0.14860123150875915,0.15779941631728256,0.10702257536775439,-0.01275609539248713,-0.009234415954652485,-0.11230950722320988,0.05070042905386077,0.1234608303677339,0.08340468544984987,-0.04261164017730967,0.03808540071232358,-0.050147984774666525,-0.055029316517029095,0.058674825777286284,-0.026442132515360456,-0.08330554930759368,-0.015730947084497165,-0.07565018650110811,-0.17995945731223237,-0.08456080237517326,0.06423532277102151,0.10401258140195059,-0.13228113195892996,0.016519722226839218,-0.024598183601121447,0.01580187273178973,0.05077839704017225,-0.013811623542307309,0.3079028870752823,0.1650992808886049,-0.008971326524549978,0.14820889400497927,-0.011011300297533791,-0.12960474705979314,-0.08156149010433963,-0.017676726545722582,-0.015214470502786069,0.11563304281992366,0.04917413245753078,-0.04322207656559718,-0.06389911704130115,0.2734144113493493,-0.2679450563974332,-0.09403929622133347,-0.10777473990117196,-0.2123667524756523,-0.04585672151645285,-0.013819573028814171,-0.15956682439938596,-0.07340038052308703,-0.24139359429418844,-0.15303120303112422,-0.1136569494597302,-0.19456755782730248,0.03094042369105886,-0.09025170850272349,0.05601601950123294,0.10985988743203373,-0.20321975167582548,0.05296450510168032,0.024707032218760486,-0.07809072631655417,-0.04878319647066469,0.045043079747938884,0.06252054916380838,-0.02529636356121067,0.08189711810213114,-0.08268322620461156,0.16286744008357593,-0.11717832563041893,0.12308196893988874,-0.0027666642159787013,-0.11156918415339513,-0.044638637804790805,-0.044070210527582955,0.010302736703080906,-0.0008523197185961415,-0.021819623655242974,0.00023163534569805582,-0.052478051866482696,0.07948950960090811,-0.08260070311456086,-0.08985045701656943,0.025003690534629107,-0.007556252125166799,0.12047320299185026,-0.2221826446644466,0.026210055853932306,-0.12670199611410443,0.11067444611822583,-0.0755277691206679,-0.07408883364909233,0.0562949730876277,0.05847327560733549,0.015402613720060123,0.07986702854359977,0.13760506133814782,-0.01413390789440021,0.016853254704228538,0.011964590193745205,0.06944291963773228,0.02146926001352563,0.06738428792468729,0.11849176368192657,-0.07059039316125403,0.05320575143864739,-0.061905733853387254,-0.062114324441100925,-0.006679234186296066,-0.10932086410129918,0.07234346242768121,-0.07246036033274131,-0.07115158205153983,0.07196702282222732,-0.09908853601140594,-0.021513198967800132,0.10718453110856464,-0.2668176894600305,-0.1517819124901618,0.35265507650590544,0.03248787556109739,0.10569173970859928,0.17071266741166977,0.025401475329915414,0.029970826582312024,-0.09262373909119115,-0.10091623296699707,-0.05285317315480678,0.008768483439497933,-0.03994673638580779,-0.0808778171860063,0.04147895320913941,-0.06597469818052168,-0.07849847442367135,0.10548389674331757,0.10185318966234794,-0.012304582681240657,0.20509968005845702,0.06329683844605848,0.03409959196471124,0.056237379028579844,0.04225609456053491,-0.0994938522175914,-0.03254904304538179,-0.012376248165953547,0.022060637678587548,-0.11081889332128811,-0.036491726644207405,-0.014373034779095949,0.014720752958051213,0.042700653512709456,-0.015881749816455248,-0.1048910221843583,-0.07462066997330134,-0.10706698914976813,0.0777071141548506,0.02178400506377319,0.1116089253810221,-0.10142413934173339,-0.0009733550403337768,0.046491630642440274,0.018913302929754745,-0.07851263391111576,-0.08978072903647308,-0.023789427378094533,-0.2258956769246654,-0.036219359276543295,-0.08460139330426943,0.08819773898808574,0.13450114817687817,-0.16490037283782596,0.01244353620785623,0.0035836409601115986,-0.08844887935708202,-0.03773345764492519,0.09662062495011738,0.07875266339330377,0.014125353014123883,0.012047461239577102,-0.14251393836590606,0.1491194722917929,-0.18421821645553074,0.07805925387224205,0.057274949405152605,-0.08104250723080458,-0.10709742852367334,-0.11061147625407346,-0.3265720139465045,-0.08716641895524739,0.05870544613126857,0.13969340571067,-0.0773735241194925,-0.06748465287788176,-0.2745479802621167,0.02053510338496231,-0.024861378441576994,0.027155353283532895,-0.05165697260312641,-0.03540898955316388,-0.13430267307188692,-0.07423704287949093,-0.09754568754979834,-0.012682538251108072,-0.08802672171393969,0.09090598531090531,-0.04714246361024743,0.0036536294179000347,0.0278115301239151,0.054928522893842986,0.08829120035156285,-0.031053542073002354,-0.011292124527518791,-0.08567548109664057,0.1708784782120498,-0.25426426105039585,-0.06525342540010473,-0.06042999532375482,-0.11670225104851858,-0.060167848429048654,-0.05123156815012746,-0.03774834451061833,-0.05935924738961496,-0.03579530223937737,0.11079219516095291,-0.015554576386360318,0.033094580450377324,0.06317567883241303,-0.18965361219195268,0.05664452114131881,0.028637665898508767,-0.07968443874689383,-0.011416681685112427,-0.016110969171608185,0.00817034937344995,0.017631775247083963,-0.014055605021704616,-0.002155280639030333,-0.014072636961506407,0.003973066161144843,0.09380442720576504,0.03270858584060892,0.02791936662736602,0.07114872439112112,0.10040585589170442,-0.08522605139547024,-0.07418888494983032,-0.21466768383030937,-0.021728961259018235,-0.08242798403458813,-0.1393121659910629,-0.023285897750715413,-0.0055104224670645035,0.004478352529419329,-0.033988059229570274,0.0980196502247634,0.0757069101729046,0.05879934566117647,0.18014060735250825,-0.02882494752445298,0.06723886428428015,0.05597192982754297,0.03318981023909739,-0.011361512788044455,0.014169763088873095,0.14851601548917348,0.10602781896158954,0.055950267668607265,0.04565374864242325,-0.06373549217781817,0.03935527202552787,0.18745669397138667,0.1533528097449979,-0.02009224457553893,0.05176156279571873,0.091650921561489,-0.1644505821725383,0.028366199275922738,0.04803038387684357,0.1803115431390852,0.2293909503026441,0.07252235200693746,-0.033575997345218496,-0.013314444476501227,-0.045819382501470614,-0.0444726107182677,-0.06290084345419894,-0.09865466827096254,-0.0712688016714859,-0.07874790982807132,0.1371610581757226,0.19901310104479028,-0.0795898947831416,-0.1315164921703193,-0.05533912293069179,-0.06532942531499004,-0.06762282141832758,-0.019201424891609028,0.036830954639218476,0.0244592721980372,0.07041996480304473,0.009002006668617689,0.03597785762302023,-0.11607706401399906,-0.20996905954042827,0.0738018443217499,0.03838491107434333,0.06921830658393524,-0.07810429473567741,0.023654206947580393,0.08920057444345131,-0.09630680551933603,0.01394591088204891,-0.152999630090726,-0.07883569172849815,0.09561162476608887,-0.04506281965473118,0.06238408971844059,-0.09854519826977062,-0.029365329366926044,-0.05518807162811952,0.04871112463765394,-0.1954113735714313,0.036429465746189486,-0.03517322235219985,-0.10805599394876106,0.16559729530263156,-0.03185224353055462,0.0950140660315956,-0.032113216944300936,0.09942849823798457,0.026410029952768185,0.04025275225510559,-0.16148031522966994,0.04062458779701954,0.031140582772683324,0.1354195908092099,0.05411552699015535,-0.1008113095749923,-0.14308091246262516,-0.003990121337790392,0.1388249458026455,-0.07424016133796325,-0.08004493260863509,-0.10765073790356014,0.05263802457146755,-0.031650649054380336,0.032770266138726585,0.12742636758332804,-0.12772178351624713,-0.0075061247256645374,-0.005822793246655151,0.021745574620158803,-0.06661797630249452,-0.18908818368456895,0.05441665948210808,0.11492123674623092,-0.1145276064891231,-0.09067714106399372,0.07256964553910508,-0.018091577533999086,-0.039895877416857406,0.17451985731510553,0.013809815783620396,-0.050556467372864296,0.03582520696120079,-0.01359782703394041,-0.054368698342856334,0.08069166637456206,-0.03405438912830704,-0.264195671354766,0.0963765870734406,-0.1509224472452387,0.09597287133910477,-0.01525452951251945,0.16873809638322937,0.14578643023117008,0.02613397885301884,0.05356763837937278,0.08479065226220144,0.060464093318470837,-0.046895121676813874,-0.04859834636507958,0.05217492475334322,0.01552028063757612,0.012349942558449964,-0.02258227487742332,-0.12203858406277454,-0.10218790255104909,-0.20155225067403365,-0.05710115598318136,-0.12040343941065068,0.0976677993187974,0.03229180894464733,0.04731710660190303,0.0709463291744744,-0.25157883496373085,0.03255054368306172,-0.014009940026971387,-0.11339458483977333,-0.021334446546433433,-0.08352927991242527,0.028306768547287628,-0.14136253853404274,0.021629731694508207,0.09883970173244229,-0.05742766963042066,-0.05773667101955636,0.020305770848796006,0.10828126053454638,-0.05589588134036101,0.034403410601432344,-0.021279490210647914,0.04775567315470201,-0.11962415047811316,0.023926130485416246,-0.06812376785767452,0.11090627980213978,-0.1188830080283543,-0.08047094502441457,0.050412419224053255,-0.010038299818119644,0.04063803627084684,-0.02993715148906775,0.05546830934189976,-0.02616863410919568,0.032419774487072554,-0.07295177053836731,-0.05378169255962736,-0.12015213247139693,0.02034247593103293,0.17537487592373854,-0.012495869923301352,-0.14308211545113447,-0.005939201896791538,0.08428173736874578,0.047395069297260874,-0.06687565483687576,0.03240130715824769,-0.10615015178560647,0.0035075139122585836,0.02045699121485761,-0.2196965214663252,0.12439205752535623,-0.01731539604789601,0.02964507838318482,-0.02699185059900633,0.031011576276409384,-0.08617625892820034,0.21128895647052556,-0.09819981480291018,0.08190510257454534,-0.12127383026499014,-0.027195097959033406,-0.055078681499798436,-0.15025268442433237,0.06259650619410594,-0.07392820435803223,-0.10680497961468238,0.10700123987258053,0.005034930321136265,-0.061520427120485804,0.22596532026109925,-0.1014622300725094,-0.16820722284568768,0.07067028324339325,0.010526805294348834,0.08746929188557477,-0.014035661490948927,-0.09381830454083535,0.1632874364795286,0.07613880317516815,-0.17138777540383301,-0.035872015610634675,-0.13481159690713773,-0.031146602601173332,0.027758482642362876,-0.005672644825147595,0.19936652379106395,0.11761326670024172,-0.024566429362329053,0.15751310191571916,0.03158375259878893,0.12322570059894503,0.030771389077099934,0.16163466782349825,0.02174275554188903,-0.005434257643819153,-0.09050514155086282,0.03715195354633963,-0.07080480174741517,-0.0036993017189505565,-0.04898683118144459,0.017812567452162503,0.04302776039989437,0.022232174237762393,-0.12869097038778263,-0.0171245372964589,0.05755334126422397,0.07784579552750476,0.0016434495217879871,0.1664872496563061,0.12825116111876333,-0.15178750773821295,-0.21577946378543694,-0.03092082918953537,-0.08170337442999806,0.019571156957762424,-0.07667742707116038,0.08465137992192116,0.18094455066847054,0.03564837789407478,0.022894295804608167,-0.08278311519450009,0.25099642705124625,0.018683142157600276,-0.14474512740140394,-0.11140768486818124,-0.17324981681170198,0.051466826928980275,0.076701466465272,0.09253786170877965,0.03462425162769522,-0.08572043134902448,0.047423898357748025,-0.03234751984445929,-0.007524691180181759,0.08971337352351132,-0.015732877349636593,-0.004060129881918451,-0.036306932392527476,0.0012865626842010727,0.10856111615523759,0.037703155726656834,-0.022924960858986227,-0.06742419567005525,0.2771495490153144,-0.07378097253791983,0.14882749445170648,0.062177261006113135,-0.10967824569841428,-0.004133838007520329,0.3405940149854135,0.14052423684693668,-0.13808746164993016,-0.04534516868652507,-0.0030493321205795096,-0.011498668307875987,0.004683607112654767,0.1676327275050738,0.09621046297291605,0.05862027014657888,0.03019696985245432,-0.0230623461288794,-0.044282663826649325,0.20345584457135435,-0.05594263580600944,0.1741362633618018,0.21227861514755106,-0.10879893851590713,-0.03640524736178533,0.07500285515574198,0.016750722471898127,-0.023895288726934492,0.14515079745683068,-0.1086348532287585,-0.0433425933181859,0.25668486391187245,0.1649434995595209,0.03199215566770625,0.051932210435063866,0.13476508380347194,-0.06961238213805464,0.11104377371903858,0.09280107352244686,0.06492359911093816,-0.04877345639246784,-0.05662685178559082,-0.1348693204087129,-0.0482434024926432,-0.2293355242797622,-0.11325742507752826,-0.05701255194375483,0.15566888680679897,0.24857054270018197,0.15041366463161446,0.047573354833428276,0.017218752422129596,0.2409006788932782,0.006619932310451786,0.03045859463217481,0.05982199062194356,0.17388538549824814,-0.04916829636434338,-0.08458388841218051,0.016449321372128192,0.03926455043131564,-0.038214845422103,0.13041302718176392,0.041629070141984775,0.0058571149756995915,0.16853684774913258,-0.12093498860695584,0.039556425000449126,-0.0812452019984308,0.042683030464532444,-0.06172154553254677,0.015302225014839963,0.041332595664882905,0.11701679963593851,0.10557048169490102,0.03565233490081075,-0.05888673747025354,-0.08845242154226245,0.2029686960221526,0.03497532411013516,0.1487197040654657,-0.11317967852592804,0.012687965818500884,0.045926660341803136,0.14973650065003022,-0.21682107844971663,-0.0268075301125167,-0.09696282113458853,0.05580010669738541,0.006685098646047438,-0.05883048827384393,0.12254796924262824,0.20688102028570937,0.006385645396983198,-0.04995996094804952,-0.009810146030367515,-0.04445146246668086,0.1340204375702468,0.06570810299549439,-0.02995303792683239,0.0032518822870311343,-0.1386977245939291,0.007001229916496431,-0.04978982400975052,0.045704907942018216,-0.15011334791407127,-0.08472033896605773,-0.1808739234089899,-0.025608749742836147,-0.11471754266125166,0.015312151787130442,0.19592980738818278,-0.09486850402911011,-0.0026880488176201527,-0.09225005249839596,-0.027550300847739365,-0.1264404542053645,-0.19218353436030639,-0.03474753555625011,-0.2288121363534213,-0.05773330714599155,-0.016789299709961892,0.019615027286379642,0.2828343279251531,0.01903924032063184,0.12266884224515129,-0.05430373541575268,0.08112866302085175,0.3336216417771649,-0.11897198752442881,-0.08559133131246939,0.21323464239537265,-0.24990224085260657,0.09355926528929952,-0.065324679467073,-0.20969990525992244,0.008061975902703687,0.06193300964583596,0.012337989999760926,-0.15750626242048013,-0.06837880692248362,-0.0800580944116289,-0.019620078124624903,0.1215960598397673,-0.08987535789277273,-0.098630600623463,0.04544879889665267,-0.15131658188199443,-0.06783923249199635,-0.0002711243820507091,0.0060917654208168534,0.006316341091247951,0.08379355787521843,-0.010586756961937411,0.0643802285461684,-0.035945151796688495,0.2561758863226186,-0.24419608799414666,0.04754538990652837,-0.022064767375073197,-0.1312935226351868,0.012660780371129048,-0.04133101192201906,-0.07504463822969895,-0.0698717177930505,0.02914830214006473,-0.0010129663012670657,-0.05971468111526277,-0.002407541506396865,0.019848189544067266,0.12397062954173362,-0.14878958895335004,0.0564907635027597,-0.16996510179676388,0.18962773611498188,0.040800819721176856,-0.08140755363606085,0.05069597804593455,-0.012707019644820003,0.1769866198708552,0.08693475498391484,-0.0347441511967293,-0.001858456614122484,0.02635654943865167,-0.04770895435954568,0.00528788786421788,0.015227280011409845,-0.07566088680038593,-0.08500705582209457,0.1094541803024512,0.10221151982152356,-0.0019208282795164517,-0.05414269038236902,-0.12774378987339133,0.039352071697288035,0.003948277368762656,-0.005043040487358693,0.06925530287407615,-0.057454491643457166,-0.009867887572843261,0.10354172216340955,0.0454168186274913,-0.08120500893189601,0.07147862399642117,-0.03568753803230213,-0.04757486519023051,0.1694635995062017,0.10626970053129745,0.17625117461868703,0.2581066725622923,0.056661829733807935,0.27940352267421736,-0.03657592481489371,-0.06720735905274462,-0.05517700982811367,-0.21671697319897656,-0.13073979894741625,0.004220210251367402,0.06758805697333463,-0.028375501014065507,0.07682612011434771,-0.11058161624416103,0.06165894110752327,-0.007488720330523171,-0.03302798288623469,-0.04806853247566851,0.06214725578987277,-0.07480973837135665,-0.037648277994068495,-0.09259169958812101,0.04216367468135748,-0.02672031022860635,0.01915045364492626,-0.1183101561857591,-0.05832335286390915,0.0039311150376828636,-0.03145729171233141,-0.02820910219815406,0.11944023882029173,-0.18500796768685135,0.028248402787102493,-0.1621145688205164,0.050768104556910866,0.047414860780665605,-0.10586061678393187,-0.09741560376669843,-0.07868230772915284,0.015859030574377174,-0.09244710795955087,0.08765732316797199,0.06435521784437241,0.166698525837238,0.11790810983976224,0.19767798539786066,-0.12984600791604056,0.0802630760376338,-0.08963246641055726,-0.07990719243757897,0.09724667910003175,-0.09260850108159811,-0.1198925993099469,-0.010670329074231183,0.05173147805710263,-0.10953476314035682,-0.14144546071271635,0.009164490836501973,0.07407764245836224,0.14751973765817664,-0.12118683530108876,-0.037945525928633386,0.14907646126094165,0.04297468324915221,-0.11634304906195345,-0.008899396675336365,0.015178338376831994,0.09993732188320324,-0.07483240445688684,0.015148150185643566,0.0810141675682755,0.08612343292305634,-0.004136250973247988,0.007073244819724768,0.04729213176364046,-0.1768471141852474,0.07876287205199793,0.12527005993501736,-0.18557809718760426,-0.01708133939295389,0.09003403924318219,0.23714073293094512,0.05783470001833982,-0.08565937064966901,0.01254461049916666,-0.029542093734358038,-0.04257206096521763,-0.08682600156877228,0.07539391214210446,-0.07214328126659939,0.2060939607471604,-0.058509303858111344,0.05080318382854457,-0.058003428047127964,0.0015710839478453812,-0.04532791667844974,0.06560461374725049,-0.08058274469195406,-0.0809148588127465,-0.00705584724395126,0.228732474048659,0.09558176667263721,-0.014134048283879127,0.03872904489058771,-0.004828820521656026,-0.17195105344344905,0.14903057480933618,-0.07162285999377255,0.291650258784178,0.07104428319999248,-0.08683094123533536,-0.05912917200720046,0.01404084981677532,0.10022973969537223,0.027577345311315525,0.08114898160128886,-0.20183531445141425,-0.059202340735232575,0.07565763498789296,-0.04201439911491635,-0.11705220254992049,0.09069699815470084,0.09799326365684526,-0.04217155571927189,0.052964967912048376,0.004708525890343782,0.10030837829368999,-0.05778949999524073,-0.01500575759734121,0.11849354335690827,0.18282624409895593,-0.05461482268897214,0.0745328939745297,-0.08138049451710992,0.012784723653696711,-0.11827239699385357,0.0954918029787456,0.005920432867542669,0.04934304389572205,0.14972073239032338,0.20897592465876857,0.021351706912877577,0.0004387085486664774,0.0045116152648322335,-0.13136803617587095,-0.09715083769448311,-0.06343196749911673,0.09154535596793172,-0.0904940458912565,-0.06050635810928933,0.03586129918488749,0.01633383624604052,0.13784888135514475,0.19861932434891277,-0.12412530258519039,-0.013346765019688199,0.08132867373882939,0.00995157522235856,0.054797504901902404,0.019739787877150236,0.04405405906752325,0.13770800099533617,-0.057608225438154644,-0.07186361628702763,0.13973412037244412,0.024024315769990815,0.14684684530520517,-0.044380838948381525,0.13799943568776038,-0.16566086617884757,-0.1204821481895844,0.10618866969466212,-0.12056962844302072,-0.03551972163037019,-0.1725621617025749,-0.06507125241890455,0.07356687664228206,-0.11410955677295019,-0.038548690747673406,0.012492330376006998,0.12906502107502554,0.06429282796437613,0.1843912179995781,-0.133864171486138,-0.1450421470189575,0.15924690198709296,0.061125984936122923,0.07193726821956178,-0.03352858916669803,-0.17119225188849424,-0.0017558479637144837,0.1877183983073946,-0.0847473812068649,-0.023434691041188123,0.06670473913250138,-0.006268842980990781,-0.039606561249082815,-0.06685328835302,0.06943765534062747,0.03447711086449076,-0.148987211574846,0.03408101286098466,-0.10017212194020847,0.12182144948339604,0.06685098300109166,0.1977210582531302,-0.21085283405730604,0.17990507962537414,0.12148590737447526,-0.023883395235802737,-0.018093541766598185,-0.07317241709254198,-0.07344901183991372,0.030904615865491175,-0.06215228380336901,0.13038234478060368,0.016450752843037354,-0.09285210404833563,-0.02545049969749051,0.14020189341682887,-0.025337223052152164,-0.05451398006423681,0.010360046361928435,-0.18471838346301148,-0.018156708702216546,-0.04774284906279857,0.08956875598386406,0.01832069604776231,-0.18054599162015925,0.11809735605738263,-0.15073565853034995,-0.10651307031218518,0.056678663755312046,-0.17021681930232951,0.016588353052913174,-0.10575969207593766,-0.001520836437314819,-0.10029929758723898,-0.1474298691485541,-0.10302443313597662,-0.2095577512253696,-0.15991751003307844,-0.03546687068518571,0.08390146578237966,0.14435031283222008,0.02785739182289979,0.014696081399836969,0.019872234286310415,-0.01013608838554104,0.25385202284940683,0.027254637689136097,-0.0007069768964967328,-0.14831727815045048,0.03740224174210191,-0.016101175025802227,0.05098621872278076,0.0032213635291106217,-0.03367238681588874,0.10610529717497269,0.13872558585333614,0.018040145955531443,0.09518753818014562,0.17091733477006898,0.03346426938946312,-0.027769364350870258,-0.11487574265992924,0.03409127655216915,-0.05800739997986224,0.029805693323450705,-0.01846870766110878,-0.008318400695076706,-0.01162109205162382,0.05521944717203745,-0.026378855671213123,0.12172725336651129,-0.03146139697520036,0.052927281075221114,-0.12621079991787174,-0.04773581338426646,-0.03802602516869957,0.06482734827555484,-0.20061680802637472,0.05058263231255062,-0.11990516063738442,-0.12264227318319183,-0.08784042494656077,-0.2559085938787638,-0.0007644385477592939,0.08296708467304115,0.1637884426537739,-0.17762613316171327,-0.14400034210951926,-0.001349758618953451,0.006439575001472315,-0.07733757314471451,0.000844568819251581,0.21809294443220903,-0.16442905529994215,-0.11683281543303585,-0.014554289037198308,-0.058989239415721574,-0.06636672807471858,-0.20660805093684376,0.07760582775142923,-0.09021417506421937,-0.0736941752997139,0.04309299961531112,-0.01896875046105224,0.04028871639513888,-0.031226802088934844,-0.14175802290137915,-0.04555782775450258,-0.1314816751718734,0.14030611081469618,-0.08475769837473503,-0.05633596667589104,0.005909287482785493,-0.05309400623301132,0.10508134427618526,-0.1385241841144327,-0.005063161221023239,0.03340933050061634,0.004083594667185747,0.11328384716035904,-0.14480396251482727,-0.06339437574671965,-0.0611345393481225,-0.2161910327449399,-0.15488115620071802,-0.14924450431840958,0.03710076921502333,0.09275344965617154,0.10527376053108353,-0.021901642405790702,-0.036694147587282726,-0.04625130390766139,0.028622692322978108,0.018857207319586382,0.11693223198467827,-0.21610027338447152,-0.04099951917903287,0.05518247086033502,0.14467243463906826,-0.05133039627944237,-0.01706287988215534,-0.005295554956421474,-0.08722254381839083,0.018030814775141547,-0.010316816251030378,-0.09372029453205695,0.006854136676857323,-0.10856415588775291,0.03560373621250781,-0.005125614087458671,0.10871672251609313,0.03281979512483748,0.11313341624221501,0.142592882339535,0.21458210058209307,0.07936409633998429,0.04443255618308931,0.06390219588933815,-0.039166952280106,-0.1749270835861225,0.002815101376247482,-0.04169689431182461,-0.12601095869220894,0.13664196490092073,0.005443358034484678,0.04710383007005696,0.11298987972304156,0.07808656860564177,0.05524559071189237,0.0011425329324785472,0.021858683884342495,0.00929877133421845,-0.2195159653553714,-0.07745220567086748,-0.05461852257741572,0.10576264239900861,0.19253476104910072,0.02942626333030722,-0.056683752419817574,-0.10462589879847749,-0.14789343880024616,-0.1638262948457079,-0.03167509417287959,0.07733542546971559,-0.10186342280048473,0.016994128124434665,-0.022272526145892892,0.11007744711955998,-0.016140589394145657,-0.05744848070378685,0.23605922528574802,0.017844784190218965,0.042384281303637486,-0.0742578976793195,0.1018083734408898,0.004083870363124783,-0.10740587052561815,-0.11108139072041456,0.08800043037516184,-0.1351461878050055,-0.11156172850877072,-0.06846736133290264,0.054101476543693204,-0.23230244127746624,-0.07670581897414665,0.23875466983551802,0.04841536784314698,0.10837711228312975,0.020948193262119077,0.027279393381278858,0.08664037880090412,-0.01135743246394156,0.14515999822965414,-0.035574673978475524,-0.034558585288846214,-0.09990666527060044,0.03124748859027838,-0.05217547572032191,0.004454209430448393,0.06392723982414629,0.12214068317189952,0.05031484205609678,0.05247298322097318,-0.1006644175223652,-0.07021602158755788,-0.019037698785624384,-0.09697271110542689,0.12478641003756269,0.11503265130821302,-0.08587984871052075,0.12109534473998637,0.07455296085118333,-0.030665304892275865,0.021422155356963582,-0.09290947244535087,-0.0319688209264078,0.01934639572740614,-0.083969863539299,-0.18980631583108998,0.03745110113779077,-0.009879565979836025,0.026030399349347293,-0.10463579110547497,-0.025689757743858975,-0.018807318149104905,0.04267064205825479,0.02214761390137401,-0.11727553372711647,0.05124040768534449,0.054062974244097686,-0.10492328348118768,0.08151725018165966,0.13916450413797624,-0.05653935962846365,0.09924123779412446,0.0811562866330931,0.015109045520326814,0.20091035183055578,0.21917297168087202,0.008916901033502476,-0.093280192967743,-0.039203339566077425,-0.05728141363764318,-0.09403432748881935,0.08180396325603621,0.08106039326181844,-0.0569486635508766,0.025297862929832077,-0.12531831127704632,-0.09831339983884166,-0.09583558193399945,-0.09379936045831047,0.027908539794610283,-0.04198744630401515,-0.1331303326127108,0.15099336209071404,0.07246605712370059,0.17665028481244432,-0.01163317929852371,0.015202394039752421,0.042545612292402814,-0.20647665322977218,0.1637467387444596,-0.033826553476715565,-0.09795503132684233,0.024586443306520028,0.047924710086126025,-0.10877762586925852,-0.04252196399548429,0.0624540958494488,0.020060694403164193,-0.04446621234293772,-0.05602436082750615,0.04055808660966404,-0.08621040838305384,0.17654306516015533,0.08203092417559335,-0.05435739074639902,-0.12990497290127612,-0.17733153806296387,0.005511324470078748,-0.035368464041762054,-0.013650483303807767,0.06639313769612883,-0.017933987637297116,0.011436002388531529,-0.04045792892403686,-0.11173466105098301,0.08102958141170484,0.13934430205680606,-0.23272196673535173,-0.026260021057215716,-0.0016859257335147277,-0.07226372946607697,-0.13749109628867995,-0.14695956413489097,0.03963525921837975,0.19128012832659588,0.10911013275307654,-0.01627283669107208,0.06942209980243627,0.011663289736025628,-0.11734140482911669,-0.008423666657592886,0.009223338851332325,-0.08174642643805304,0.13101465692346423,-0.025492298852065682,0.2221867960078003,-0.13621918774807193,-0.06752843780473788,0.00232229553179205,0.11253589490500863,0.06469995223576416,0.06746368055202172,-0.24310269621902528,-0.1131669509182353,0.06400610688213812,-0.060608608942684536,0.24988916112779436,-0.16060173271173928,0.11949449123759895,0.06813800900055077,-0.011765557541608435,-0.05104186399647112,0.08917793389558858,0.0081161987324608,0.04432983933211271,-0.12677769240661663,0.037989158115321664,0.01907459668148154,-0.1526765892395445,0.0561432949892878,-0.05609496547980845,-0.05700639209753979,-0.003616643528189049,-0.05347139615085693,-0.11513565390625423,-0.032231733997612436,-0.03072414625954977,0.0917377122400428,-0.014891310156606087,-0.00890196470575911,0.1030667637352948,-0.012973542473467447,0.012510269331198254,0.041459725209906435,0.09199274261008672,-0.11822378015819139,-0.09857892909807162,-0.09240995403650386,0.07876444641122904,0.021549448209656562,-0.13050071274738256,0.07128752007382291,0.17253555540053922,0.02588525861947629,-0.06299690501150162,0.04385992260104837,0.006087886382204451,-0.017891342954506485,0.017771636292018094,-0.0045781547509196035,-0.14935598666585365,-0.11075453593816896,0.019576893227339364,0.0014168808967425482,-0.053939129807329206,0.1274807213955458,-0.06207881862547308,0.005828384836766466,0.037635498943043896,-0.19361375989738328,0.08690362621588023,-0.00158598641607941,0.12876219605265465,0.03988781464586282,0.14759741099202137,-0.13358521222877778,-0.009668552259039337,-0.08246292630318616,-0.10147276925621815,-0.1207495605148554,0.16471704782990715,0.10316189158871714,-0.0762398718047851,-0.01181343359616227,-0.029787951847806454,-0.17484159419463796,-0.008165191904505067,0.06269355136253818,-0.11569189456301716,0.1340957275903397,0.004194095476462904,0.12782310937756677,-0.03350881956826032,-0.11858923061009446,0.039824180536126436,-0.011659837048488586,-0.008608216223798017,0.14574049988586787,-0.19133095560456612,-0.21127784552625403,0.13000178626870684,-0.013226966786768985,0.030473985705390987,0.16614298003999836,-0.0715712545537411,-0.17897175274008895,-0.1188210214653664,0.011957813553022037,0.009600436640325345,-0.08866923787900045,0.014790451380356682,0.002814584054678979,-0.025521121840348486,0.1916510282569649,0.060943905654223106,0.0018362514393036537,-0.15649407186817718,-0.005104660969029339,0.022371139781648047,0.023926095027374816,0.1794814426130281,0.03487427282724598,-0.0021924241128398257,0.11130300268415168,0.04175357814730714,0.0891014825478391,0.027007486396881178,-0.07366628910324179,0.028604072973250856,0.008420739634240325,-0.059438894753777255,-0.02612551292485508,-0.13420345232873385,0.05580420329622482,-0.004450998587746703,0.07836516493712802,0.04377035045688968,-0.16544176420859763,0.024220787624033267,-0.018789108706824504,-0.10276264679748925,-0.0021748354229249255,-0.06940457302572037,-0.07833014597745137,-0.07445660066352726,0.020729142317275677,-0.12031494446949359,0.2415961915525924,0.05555510526692844,0.01164046581186808,-0.2517535935875358,-0.08103207116481549,0.049381651939764855,-0.037196944441470314,0.052201728625068854,-0.008385682789929894,0.03916979763782834,0.09799069005588401,-0.18054045487862372,-0.0019660037741895,-0.06416278098009867,-0.03547076414333847,0.06733232462902489,-0.09568359860444757,0.03953965784598629,0.07327858484513311,-0.11224182136702462,-0.2622482763346513,0.10875381797790076,0.09974975663974356,0.05534537319173328,-0.12751706773347662,-0.1705876040704832,0.005920988357984298,0.14479992954144047,0.11444849029408004,0.1825579343112749,0.10499131313353177,-0.06585994201920407,-0.30492703710897556,0.07226258850837519,-0.08869053327264012,0.07315393733757608,0.11975261609618938,0.02381038593998424,-0.021092764084640957,0.08589622108901807,0.1092036278461496,0.08363802751619477,-0.006435028556732053,0.03202415454729273,-0.08430270594324683,-0.039727266262737454,0.01769415239210631,0.07073720283544818,-0.017708415407005663,-0.034392546584484096,0.12289852637479987,-0.22640070826748507,-0.04978461595512586,-0.0954177707536716,0.1382296821583489,0.0736553281222239,0.19777675673412612,0.03444272322701569,-0.0465885491518641,-0.15575617852576662,0.09732918861721225,-0.19152513747749075,-0.08222067191103569,0.15770740479134207,-0.015789617820733105,0.010540151928034376,0.08943984463582375,0.06203679734655187,0.058542088721381544,-0.09820080431643342,-0.09471470100277636,0.11550746075273445,0.06994705241023443,0.02264209049189872,0.11685455564687107,-0.1378735395642266,0.1304909513098256,0.0464574036622766,0.021999392830170692,0.1674933719960642,0.10991713094884997,0.05877911774831506,-0.0375538331578337,-0.16063416208074063,0.1831922106535256,0.012110222391346239,0.02464237679837702,-0.00956630946860124,0.05921757437130801,0.11958647802847265,0.08417802229110287,0.20754999348884662,-0.17575675727470363,0.022509668985092195,0.08305889458088422,-0.019224852901755858,0.08659827085136475,0.02374899256782091,-0.16594665022465538,0.021683009410733506,-0.004608390023970216,-0.16719772401803268,0.014964463912920044,0.019195220071472518,0.22517038534657802,-0.02367440561678177,0.0305347823795471,0.01892317816792285,-0.04705001403574671,0.054188996679933855,-0.19937588049765134,-0.1555096965596095,-0.16505921570870483,0.020835181040343837,0.1205812931371353,0.07461294781910009,0.07548834234052838,0.022662493304962648,-0.13422486194506197,0.05048717242684103,-0.17362655338965038,-0.0063801659136044405,0.017384930038889624,0.0086643730824766,-0.240438155184405,-0.047074213042283,-0.041203325217457315,0.11154987453135298,-0.1180078856964716,-0.03738518394312475,0.013620842445802753,-0.08696692147502882,0.12222393553228351,-0.0736400759713467,0.009593216128127535,0.04659499394451064,-0.1887794548710787,-0.18124689940734107,-0.033807009243899955,0.10054041148379993,0.048461369675996034,-0.018737554048953498,0.2067098918056129,0.18971295017842185,0.06562844899558126,0.034176210244355326,-0.059944177381029,-0.07680770762735376,0.09809878341464039,-0.02387092461892949,0.03450699542774354,0.1390647885644791,-0.050777694338025,-0.1873266835582227,0.04732295719475457,-0.09180584334358348,0.14139060576719728,-0.06644877875888332,0.14945303395655815,0.08795343218730219,-0.026446367554079954,0.09699122162155703,0.014778892607815706,0.09582864762233076,0.09889579258456972,0.07314437529967807,-0.006845948932100888,0.017963522607596306,0.11827590793034386,-0.018374632410538116,-0.08738272980047283,-0.041751534447372354,-0.19137351747422876,0.08923057747230871,-0.2640033546728365,0.030142058078740742,0.291615848819808,-0.061717635204923516,-0.008954948373771669,-0.061204676407088814,-0.03337855402099743,0.06877434464714542,0.09914830676140814,-0.12098651547158776,-0.036020052753450896,0.006938907397526456,0.15406873271467836,0.03757988613649239,0.004983907808583395,-0.002645297821527673,0.06208823178995373,0.06377328935024923,-0.11632666081421064,-0.013660867041188738,0.241759043201676,0.04643061349932652,0.17257284172462997,0.09732506086315287,-0.1807315233280972,-0.1040157159683809,-0.051233675599814926,-0.044456483565109055,0.041265215440978664,0.06367668638725722,0.20779794192367743,0.014117427061220097,-0.03550244705346668,-0.05122068788571759,0.04106654830857627,0.0730659557834816,-0.19483795234957718,-0.11064172904056777,0.19519364000056377,-0.03389552049179365,0.06279577389668604,-0.1085399934511376,-0.023396178401347303,-0.10408007300896306,-0.02589377521639535,0.011416402850265489,-0.061633582918117484,0.048645799979589135,0.04332818947706951,-0.07025684373831201,0.18741995656347385,-0.021397912876138778,0.02376768620051952,-0.01853452815846862,-0.15569608772991642,0.023920276394629087,0.17441006033402448,0.06074895846261682,0.07394981972948579,-0.05664653950693122,0.041265733673735545,0.2371382930604302,-0.07982667700028072,0.08914239854002666,-0.05964734172363553,0.03159454769431448,0.08538992512801048,0.0698431203235158,0.017327602997472543,-0.014507938143094423,0.033319604376065626,-0.09745558472522117,-0.1392631666734249,0.029730855906132038,0.06687272266182576,-0.20764188952030732,-0.027604815477677413,-0.0037670580224317294,0.010598921301625961,-0.0049645930944610065,-0.06894573029598054,-0.02865012894059944,0.03501182183405387,-0.013559315786765056,-0.10147893157835122,0.21110892095083617,-0.023764254683632066,0.2021380977712985,0.021875611596765786,0.071933620157176,-0.19081335605777644,-0.05171119285715306,-0.033718415183599124,-0.0008436305983741967,-0.057383745562911405,-0.1554290866180489,-0.01562399167462371,-0.049216019998991764,0.05711307673944757,0.04468355831387251,-0.007495273123710369,0.004434120618590221,-0.25569215626895686,0.13269099315014388,-0.08741220907594603,0.013906859213700915,-0.0628475357288479,0.0754692301423303,0.15434205752958996,0.1375360577428546,0.11578205798472054,0.20759874230225253,-0.035522672732456094,-0.10606056316936936,0.04444477433274219,0.07609002868741724,0.047310696185509836,0.12501753239917107,0.011485449217500221,-0.1270136411854699,0.09124152548173256,0.043467644981323356,-0.037796143573261685,-0.18606442011305463,-0.14542635037842938,0.11010019497980494,0.010407813528003518,-0.059994728230648095,0.09881800626266585,-0.1803826192879281,-0.07940081302159487,-0.03769247681170815,0.0046770035960292024,-0.1297249478645208,0.024487172256757464,0.017803793961272227,0.006287000116063571,0.11874385434252845,-0.1657731594416125,-0.10299039487613579,0.08201564374840609,0.07966841169921736,0.12546788014359225,-0.014122655985654152,-0.016485155136729355,-0.06549787306912595,-0.025650528521446447,-0.09342989919382441,-0.010468101540803647,0.0688751381501119,0.06032990881298649,-0.12409020903936949,-0.07899615922709938,0.09319884944889446,-0.03887590535518417,-0.02495814617520822,-0.12367372131546357,-0.05510109437213418,0.10149929591496447,0.014895750381574152,-0.018053317535145465,-0.10206578716381472,0.1100968887899416,-0.07138468839524803,-0.052105052087423054,0.05555956307543185,-0.024031836988002833,-0.10751926963722633,-0.09069498938344944,0.030988783636275066,-0.05112912824317668,-0.022381088361857794,-0.004317244043602904,0.008593740578566048,0.12893557884700646,-0.06405504238207221,-0.04507334465778933,0.011981873903831748,-0.03222263925611894,0.29767462380875936,-0.09064864844221171,-0.10291040282250974,0.09243984654843716,0.001193700134271281,0.1133219334230123,-0.019539054817495814,-0.026649935443411293,0.19374732354672358,-0.08332283619676065,0.07039093175377618,-0.04984038928634706,-0.02712049723262763,-0.13703297807297102,-0.07711748456465524,-0.06534174983312761,-0.15782909720635308,-0.08452607397077579,-0.11442173773650174,0.005031660702960544,-0.00956818773766235,0.27208856307943285,-0.004221682205282731,-0.04439647555307194,-0.0012269879508631895,0.08002769808998268,0.15480922153256166,-0.014377905968445388,-0.07921472474000783,-0.18345098596919385,0.012865363038753054,0.05402641056845499,0.06626711781292798,0.026268973029789606,-0.010096684845376427,0.06623531782525316,-0.08080219188235255,0.0596677676995873,0.15045211307258644,-0.011714800545422819,-0.10572967499936743,0.07042761328847513,-0.24441906692522142,-0.15626146628053286,0.11150875025163443,-0.07355554541791938,-0.10872480374727052,0.0331380500623447,0.09005407928737158,-0.07683316446464855,0.01283017616200516,-0.17290951300403645,-0.07710223616405648,0.09629749306458746,-0.020753066972393777,0.01616030621632761,-0.01375329320211755,-0.08630977827621364,-0.16809975498694113,-0.13394243870683054,-0.07180574011463586,-0.0039018532034115487,-0.0394906847346383,0.08818235455916987,-0.04182477407506986,0.13676221567280952,-0.1793747917945287,0.12744638533476269,0.15447620929565833,0.1850830487445841,-0.07596820622195975,-0.022774160038829542,-0.10090886260660294,-0.05754241868918102,-0.12035843514900901,0.05277673084760333,0.04312464058748489,0.17286106045606442,0.08107053546092736,0.04530104728773431,-0.02289515212139419,0.11218671152303142,0.10745623954047709,0.019302623546709936,-0.07242272539992145,-0.14916176847525228,0.0033761225772054285,-0.008831822171917397,0.22833065942480968,0.04115110341548739,0.16020016496540865,-0.07942212824155305,0.11834695395372416,-0.05552846229867139,-0.11523465272232794,0.09310478915503734,-0.13111827085968034,0.014612452183166971,-0.05037970468683944,0.03913164188688301,-0.006508731416894756,-0.07063594248096446,-0.06489996314716678,-0.0649829250009671,-0.03411996648918434,0.16933545643270326,-0.14290452873954476,-0.13656723124453862,-0.05437697436820433,0.08271995299667595,-0.13863049471688785,0.07946162060725627,-0.08119968276843517,-0.0020023337392286776,0.03181460912005213,-0.0825828270612415,-0.0443982038951832,-0.014024854173298781,0.11085637857520954,-0.05663207676864378,-0.021703439056649405,-0.14046435210414182,0.11965889402938762,0.10102393663139776,-0.017459602581230485,-0.11313623988623453,-0.06210520730736617,0.0026738896510192806,-0.12694077200993792,0.023522505813531207,-0.05916120912763499,0.024905009511014188,-0.18746117509285318,0.024957974651172773,0.02515111296979803,-0.15113092109264745,-0.11530431618888118,0.08009529072430212,0.03395943449486654,0.09408481835093366,0.1493106410722423,-0.0896403576737388,-0.20068385231069932,0.09262314398712052,0.009371989244274027,-0.09562836939690272,0.13286826979182947,0.012237248451677342,-0.15740415565014854,0.004143609770010958,0.05161932539673312,-0.09126790103314295,0.09634250124193212,-0.04818886603374992,-0.131982318739705,-0.09521681548651058,-0.07265977664407325,-0.18111073763880212,-0.06855013786864174,0.0874426700299692,0.0032872498268873306,0.09822579169829808,0.031375902688400285,-0.06796418087505918,-0.10115284686593926,-0.051908700343302645,-0.13073126891159692,-0.3308942540005888,0.09599326629675707,0.06203864808519653,0.10335268874640008,-0.17533314340829612,0.049349809345423025,0.054231257414886685,-0.04528243081378316,0.23547168912057373,-0.04664447618782365,0.013470782174883572,0.10384088854979755,-0.07994800393139838,-0.017318139495888445,0.09542403424300584,-0.08060952930139326,0.04185982258934668,-0.030517284402360872,0.0855389851693592,0.08275185578106534,-0.06182076371054965,-0.006265196660799167,0.04144327101040906,0.006834292598225209,0.0729335090657586,-0.016811922175406238,0.043347003690184384,-0.016008250871309034,-0.11135737534262137,0.1506323110424254,0.17301009515768612,-0.11660940907076625,-0.06073363060757488,-0.09182093335008044,0.04418728858672474,0.23400321180180567,-0.10291293834591005,-0.04399551384371194,0.04621673676833315,-0.013994468827088439,-0.07781980884711139,-0.0009685517172343015,-0.09962598337382221,0.1333394421298594,-0.01836440246722619,-0.04566174051527735,0.31758737088047484,0.17576033760422227,0.06269427852980684,-0.13557544944541347,0.07863079552226789,