0.2542707826632956,-0.13696926151369002,-0.0909653141827867,0.01946436221195315,-0.13757321784024232,0.04776743636023674,0.08770595287108895,-0.05879807454701021,-0.0012261944359031483,0.1769868558436162,0.11711585001404631,-0.029289416911734874,-0.14637385926314858,-0.10723609211005514,-0.001268649045308784,0.00820937853895142,0.1044186467507093,0.03653001740846866,0.006204629324806159,0.06457355464317632,-0.19435886134156152,-0.0916089628086727,-0.005881720674157669,0.03362106613029062,-0.10649345524410977,0.03659819084521512,-0.056887013070075515,-0.11922954348220802,0.042214478768233296,-0.11861860028196575,-0.007296227780717811,-0.0817440960192164,-0.12875232752912444,-0.043536379528265196,-0.10468231177628315,0.03288605385415608,0.014869514504173785,-0.028931119895693157,-0.08066895656226167,0.09086725005665956,-0.07540921768634186,0.06348175966568079,0.038556711467369165,0.0789810288101052,0.08763850108663324,0.19462142147409203,-0.03756483214035901,0.030574496237262404,-0.003979762178706872,-0.15439585900195413,0.043609918242779794,-0.1116703915997341,0.1996720294914006,-0.08270182910842583,-0.01682349729516846,-0.24034079675937683,0.0551856491000117,0.1274643561975237,-0.012182107516864932,0.09083125642004547,0.0819118315548249,0.08555327988598982,0.10198748761192188,-0.12345923314691154,0.0826101061353837,0.2129057375208878,0.3705409402544895,0.39285654104984713,0.2597004587971557,0.32634861983163727,0.38757743442965686,0.38708459927004213,0.6066306437187009,0.14552182726551635,0.3334741859720523,0.06531284594793467,0.2148734518182669,0.3611486230140964,0.2935105801501824,0.12158422603694358,-0.0906772719073119,-0.06424109486433302,-0.1323214512230645,-0.11523407562551316,-0.07725617889511369,-0.03722890315524967,0.1617002131033238,0.011775218147732799,-0.08967885358974383,-0.014489750012411646,-0.21013932593351156,0.023045924388253314,0.16747251772322536,0.40265222278833834,0.4122980094218487,0.2948984367032755,0.39656625783967747,0.477906122008112,0.4853022475857204,0.4560906359428447,0.4080539859883895,0.03578441836005965,0.05435773085364733,0.11610501102437518,0.4128854458846252,0.3019278091224952,0.24518193699731988,0.30931218057517684,-0.07253461509987591,-0.01839690642677779,-0.03220647637440302,-0.028579784645737932,-0.04351179348381859,-0.19242696428860553,0.053726341907903485,0.11134566178864067,-0.15328616098622294,0.06664816939364848,-0.03868722770057358,-0.12257924602783751,0.20821347642771315,0.16332878515702096,0.3505461161973379,0.14011091894051433,0.07940756298075426,0.2682582871536722,0.1817328253543216,0.5334479025197147,0.18581639515470144,0.177428085017163,0.4400902780664481,0.3212567867160147,0.33488207299505435,0.2923563375792893,0.26515230671118983,-0.05213609666051374,0.16524895353803012,-0.043226961933964594,0.0634331979822149,-0.2646465966503895,-0.11320956276762922,0.021833226056087084,0.050836419027808166,-0.1306113230796063,0.1547075744407428,0.00787632325948324,0.005146857322554227,0.20326672981926783,0.2985645215244282,0.14930527671241375,-0.088344797784581,-0.08826950500099438,0.1752233411199322,0.2629779551405329,-0.042900979749910195,-0.10237937954786272,-0.23594917424709613,0.058745215164160564,0.36086606781537484,0.19428047520170127,-0.0255837119003809,0.04354404189588039,-0.10324344079318051,-0.3021728318015562,-0.3126340245993302,-0.14450570121015072,-0.017528591674076104,0.09560438811543308,-0.04060056412704299,-0.13319244903425198,0.010487730627587549,0.1591940087118469,-0.05421752095325929,-0.06724820937993639,0.24041374723242473,0.1699031559200706,0.1595280064018504,-0.006622853369961117,-0.0892646176715494,0.39216311279353416,0.6068094179083386,0.4724094107062228,0.15926513085030256,0.40681983028040664,0.4806021243565061,0.534786564160187,0.38379409394873815,0.22673049148420682,0.06316391171285843,-0.6659928376704912,-0.4261088703696879,-0.3584620992783911,-0.40247518918969594,-0.21568551915405862,-0.1709069787155782,-0.1688788261536091,-0.09982599579198317,-0.010964650009263813,-0.1197446846520145,0.18285746251455795,-0.031831532341922535,0.04740379459593026,0.3024945353646888,0.4611678569709126,0.4516020754294338,-0.00930634229520042,-0.032959573898841736,0.5868295637848915,0.6402407267792901,0.3851155917659957,0.38938129112036857,0.7700949720805867,0.5512005100230474,0.02145381784204712,-0.35462844166300883,-0.34817028661660476,-0.5667672194445804,-0.6773350795407124,-0.5772418144819409,-0.5586835550052014,-0.5911960797982636,-0.1051673374857348,-0.11866333942490302,0.2068196584525752,-0.1753789854225083,-0.18373017976010972,-0.09852473730520905,-0.08533983748922323,-0.035402119169988686,0.1694433061471011,0.38704310244529544,0.5197448843438671,0.3292905458320548,0.005877543922236186,0.15824532152094123,0.3816243862782194,0.30180863745185504,0.45131469727515094,0.8727422741471732,-0.06962024312036702,-0.24900984418178876,-0.6359830945514581,-0.845314531713793,-0.3948064985751087,-0.7235942392667226,-0.5410163013294236,-0.49984449694696836,-0.2537088960458134,-0.5851434705645716,-0.3258698645323476,-0.06904783967611139,0.05848964314106746,0.029549377764763306,0.16424329076907992,0.03353764866856574,0.008505230768777253,-0.006994982195454295,-0.17998764628651875,-0.05074075573347433,0.4411905921873469,0.475042875617342,0.12737886732169737,0.13844882047805332,-0.3606347014883205,-0.2582650616691298,0.29183229792606824,0.6345485467316533,-0.05741910856228346,-0.5510234593507805,-0.7404094997728575,-0.7540850428949532,-0.37917478574423785,0.11115380994367051,0.0005416790311355616,0.20400077378285647,0.19843314214337987,-0.1675505749942297,-0.3780283730698649,-0.4226002961277328,0.04266162376224969,-0.048252421843372126,-0.04660962505131139,0.008978458678865821,-0.04618722629625771,-0.02148295978561615,-0.15737292722320176,0.29704101191829985,0.2895057837778014,0.01380302640545468,-0.21817057907124415,-0.1255809830010299,0.019443038272836406,-0.19861647859551324,0.3998376067687101,1.0781403632553537,0.04086572382801803,-0.30787616517975835,-0.7915210721323916,-0.5642975231936873,-0.09535599780588605,0.1738191129052187,0.18103102189255307,0.4429055593707201,0.21390860447021628,-0.19457517869270416,-0.521632736132168,-0.092039814012065,0.06799786427551754,-0.039960042026338585,-0.028078056327303962,-0.11629185083919875,-0.15927470249823567,-0.07732942938853625,-0.016965496034751792,0.2722223659901828,0.3936092337930721,-0.19773589771087546,0.07247335072355834,0.19658566234119673,0.4587302326415007,0.2243037875077112,1.0330866632657114,1.1747055517051963,0.2816550298515253,-0.42639720762584815,-0.04182614287507829,-0.2642723365911482,-0.12420057731541732,0.32507006535506777,0.16651800884368062,0.5566768624553424,0.44590362975915177,0.09104363773270266,-0.19074968184290986,-0.08075933152829169,-0.03894038245016579,-0.0841875166412745,-0.018452013595324467,-0.05701278163827868,-0.06437629032044659,0.27476160959626883,0.40499906514960227,0.31297430783369196,0.17712321846658338,0.06831190301346013,0.23005280465869565,0.4639471325679627,0.5205437424092941,0.3111532878178129,0.5729281750676478,0.8093411912444719,0.39922929893904135,0.26876974301148093,0.21799704854348076,0.044102020920783955,0.1986291275649057,0.5662943955503308,0.4366811597959295,0.6337560518194693,0.6093776751603888,0.4922513129501102,0.012255280527296228,0.1520204102098665,-0.04793562783639027,-0.11262860099585212,-0.10625909977818766,0.08528454525196869,-0.18032083426637396,-0.15343558694782022,0.12181534157200104,-0.11471652276491706,-0.32557027614294337,0.18753208386347822,-0.2263342353804132,0.1273488677848879,-0.1916425246977916,-0.10617999861618611,0.3546558696807877,0.11586740231240691,0.48787176806326166,0.21447880713800324,-0.15871957539894282,0.12989835489531396,0.24441277178769444,0.07396862788837585,0.23344869837139826,0.5855510471603322,0.5395330521641739,0.3974298736627477,-0.25347581739734143,-0.10850879006018037,0.13584352379416628,0.007488767845704054,-0.05972699145169871,0.09577065792144275,-0.23144423701383954,-0.2590721829632138,-0.3344246128652035,-0.2537683174650863,-0.6014930350083255,-0.6551915527153909,-0.5910502754247094,-0.49444478259106217,-0.1658263521279031,-0.3032667832333624,-0.09662237464289747,-0.06988229926485923,-0.008219965039090359,-0.8627507428490165,-0.688774227683931,-0.34713699443480783,-0.08977862251121378,0.018140779971089732,0.5302293853348683,0.6597335322190726,0.38901376570780977,0.011009955534284984,-0.07266380627584933,0.054292642551316925,0.008349412967526726,-0.07113358805958044,-0.14176718198731816,0.017216587825335895,-0.1554990388527717,-0.2775759606690058,-0.8113197314278611,-0.8132429168210025,-1.1995259298817804,-1.1375232366557948,-1.3804567865340456,-0.9036058777777343,-0.8234456213838705,-0.48882627830332825,-0.1017905103352137,-0.19638798238362207,-0.4852601883007719,-0.8351733254431007,-1.1944545361892287,-0.6533413450709112,0.03235936588253527,0.3760085993906867,0.5409208218108783,0.026383129139531537,-0.13452862896976397,-0.08797334754851902,-0.05015630513135347,0.011355467163205676,-0.09463297941378429,-0.09738859891648091,-0.06915457350593462,-0.03242058061072785,-0.24234819344980205,-0.2599853841641145,-0.4230616084902937,-0.8161992787173622,-1.2283663039569708,-1.384863646447299,-1.2147692582144998,-0.8988502534418601,-0.860389255607044,-1.1282337779617857,-0.7665902133696086,-0.6186068540197491,-0.969322903034399,-1.3838839435735253,-1.2067293504943182,-0.8507350575945634,-0.13004341026373056,0.08629900076524884,-0.20618046866480122,-0.19055357717478635,-0.17995943816072055,-0.08594172272043761,-0.1821079206360044,0.0043638178876808,0.120709495038739,-0.04955879534171759,0.14939329735828402,-0.11194733074804797,-0.0038521446462885366,-0.1547123451305273,-0.2455530102238905,-1.009226092056364,-0.8832840761190013,-0.5200247167007133,-0.3362828235881182,-0.70349524872194,-0.7483663810478569,-0.33940957092321766,-0.5522128914620997,-0.7930763252022298,-1.3902443615140492,-1.6282576015413548,-1.1626066618643887,-0.586321728569011,0.20405796238941748,0.18650243733905733,-0.09390938364328907,0.12858515435534978,-0.12425147069150155,-0.08594073399919196,-0.4269948288941873,-0.2313810085666272,-0.09146001735880135,-0.10785695718744387,-0.1598687065420778,-6.697604103326246e-05,-0.2306030869342275,-0.18794304052237776,-0.47652181522629106,-0.955155996246891,-0.4153984749006797,0.24129240551485026,0.05407677665732534,0.055441629284276504,-0.2357951741053166,0.17876316979508797,-0.0477980924607136,-0.6164979785238454,-1.0511367738881308,-0.7592945344198228,-0.4547972455082533,-0.03371677193640879,0.48424913083793003,0.5291088082572757,0.05782387960690671,0.14558263267478444,0.018225962877161696,-0.14037002743934926,-0.1859961602563353,-0.0735176608924786,-0.07269967362359778,-0.16830371250933615,-0.012521284812235989,-0.004391877387059977,-0.15792446873795946,-0.21623299787879588,-0.1677561253137526,-0.12470560376756165,-0.031032942684899145,0.24566074229292326,0.19690690623597887,0.22270360842269415,0.6786696986274989,1.0905360157749433,0.6215330939460422,-0.04536189186446931,-0.4297220194839494,0.08884096061876143,0.18106322299882605,0.19445373062314694,0.3751497992917413,0.5551962285895076,0.4740709266374249,0.26792164302603894,0.1304613182268085,0.0017323665901823582,-0.09868521600175038,0.007394256015568205,0.04822350417863286,0.0020775864985939805,-0.09550239949681784,0.03729702962665371,-0.13372555099911837,-0.06762715815860808,0.11895922935226676,0.06355445877714179,0.13831518214241137,0.16643913021741732,0.27622911790527194,0.8724760606683646,0.9095352147214386,1.1876183665052928,1.1318863972697109,0.733789532360864,1.0754340902227517,0.4805569259556703,0.16903848014105397,0.1997041469349742,0.4840030690499893,0.3067110151179641,0.16332627421434429,0.00876751985149892,-0.07672484734718721,-0.17640850158596974,-0.2450372986786568,0.028011319593883036,-0.23869227926429804,-0.09620812999896342,-0.03338144207002504,0.05320101746611169,0.06980603429334485,0.038877936585768165,0.24360244324404254,0.4386320626541192,0.4249180278020083,0.16053083716045213,0.32700757190187885,0.8762807713568187,0.6192470388528343,1.1983802623884114,1.0292597859273325,0.8769646964981695,0.7785091686767126,0.4333939344099639,0.48388255748941933,0.6663956812553885,0.5354461876825511,0.09009375957097283,-0.14835333568741224,-0.12268965494706026,0.002516309094784127,-0.08326113859410807,-0.17160879577459998,-0.11512257859574664,-0.11147868458693422,-0.06289110942632888,0.010158360003791075,-0.03797920848008735,0.07674209053493748,0.16662148762960763,0.26301153020559137,0.29219023526033444,0.6074979146770586,0.4814213004450213,0.6641926964451158,0.9265328534840821,0.3585171107065496,0.5214107938304642,0.7893083576253103,0.6679466082964349,0.2938177352040148,0.5549779209849621,0.5223373636966883,-0.044180415404189016,-0.07430065267874367,-0.00908072350559735,-0.3275658014985052,-0.15644861393370132,-0.00803803140055676,-0.1306527533488699,-0.16659126802707971,0.028298598353173214,-0.09949518137936453,-0.11323258515437676,-0.16923336833512967,0.0772896455718064,0.06336530498254908,0.02177373448653543,-0.057160516044901424,-0.03221064697956767,0.1864409183848134,0.15366255737552914,0.44185689726307453,0.4198167660498379,0.18588458366856947,0.5348314652812688,0.45243242151294777,0.055357608982759154,0.4185256351420192,0.19966574363899997,0.005954345224857423,-0.048682129380336635,0.14428510646775555,-0.13550740906987602,-0.2379596656108435,-0.10699246852554962,-0.07192180619509192,-0.012462125037067171,-0.13195021954385172,-0.03871992140910058,-0.14512388788727573,-0.12655913468356889,-0.019321426000621617,0.10829675255734443,-0.0011094231988781399,0.33411124674674886,-0.1899777454661207,-0.2342512092961448,0.21693423640246765,0.5277851008598026,0.54929745870271,0.7029321631515266,0.09379071715989756,-0.15389791739434167,-0.19156820704870275,0.1816680369306968,0.025651756168840373,-0.044604089623369515,0.043600935725839576,-0.04680485009032932,0.07058827889393995,-0.044110088081319505,-0.1695898991925927,0.11175732386208989,0.1511501759068744,-0.23629976698441563,-0.06193339349397458,-0.052295610245259305,-0.12362835861354149,-0.07653834498956338,-0.07364749692317074,0.05166206408695859,0.07079582728130636,0.01250512126239361,0.011692671566997628,0.06080870187495566,0.10344459669902871,0.18467377469618604,0.3588795051146851,0.3174513348402861,0.23208543883222912,0.16800041258210394,0.014233760961662718,0.007695826366477616,-0.03520140138148918,0.04597028042262152,0.23462145019101627,0.14425968791128993,0.38530018495741375,0.20889597717864308,0.09147566688733587,-0.09041925996326267,-0.18410016991615655,-0.06481021933505235,-0.06903176429345141,-0.026165426229404848,-0.0016753820236849741,-0.1913786494546563,-0.04253677541454509,0.24068876701325675,-0.031379229924030284,-0.0790737880400019,0.06721615896463876,-0.0003515100156520542,-0.17034984297641534,0.05495668105604984,0.008214939831207238,-0.0033121306888902937,0.16709993732342904,0.019330979969878388,0.07180565760317179,0.19824593776612118,-0.2849974584656103,-0.04189885330512923,0.07027534023814047,0.2610975915356591,0.009147107323906785,0.12218894988248802,0.10065899736156267,-0.00981657864976833,0.09545673087028264,0.050442152595805395,0.11666235935477248,-0.04565222589284544,-0.06243229574758424,0.03861214790437868,0.11332684534062598,-0.15402434839438908,0.019709396982234,0.10756405620232662,-0.14514572761282094,0.07624229573387721,0.02785268726101832,-0.18014915606490461,-0.018458146202059163,-0.05694633491215533,0.09808208530789286,-0.12968306412863292,-0.0714086665773465,-0.08094407208778202,0.013053323245199817,-0.1537321465840851,-0.040723996083270125,0.002577686673604314,-0.14577490656590797,-0.001798515793548553,0.14203455299818005,0.11589381075305201,-0.06094759495230449,-0.0908927352579138,-0.14269456524137944,-0.1438750893585045,-0.06620846951607928,0.026938023171017615,0.09651791358452329,-0.054474421519419704,0.1023724659781212,0.03416057196246124,0.1445171622615793,0.03690442902533846,-0.08080326446520207,0.07362880993385214,0.16798613727496048,-0.08129449800212397,-0.026234431930096537,-0.07538751550624916,-0.007918841697489567,-0.10384801905712839,0.15456513389119125,0.08571116009736375,0.023700547461827558,-0.04747392449731077,-0.1819610122643554,0.10472762824068084,-0.10802924559640541,-0.14651848405290385,-0.04974331048217808,-0.0010596676581515025,0.06629776105956765,-0.07576061311984487,0.006974511421870773,-0.17004648281289547,-0.0054782225232890775,-0.11825195600536208,-0.04147317526804634,0.006743166863283055,0.064386345112652,-0.1896258900536211,0.012565735992909222,0.07442322814457772,0.03226964781395069,0.028963216190327656,0.1309082549819124,-0.017146922220550784,-0.14910001514024837,-0.04021764827335991,-0.07904427681408677,0.0879536631225162,0.05235546881032687,-0.013154058772297618,-0.008748941805984406,0.07728538400350582,0.19707111305790406,-0.09145143751649573,-0.11746672807775246,-0.08710530334141629,-0.06417862815450963,0.02814193961324353,0.006390822378221629,0.09164379830027843,-0.12424051670590383,0.045898667598970065,0.2629192647045786,-0.09162252537564523,-0.04677066757420324,0.06590874402060158,-0.15996447515336754,-0.13485892836320282,0.2469190274138776,-0.03179288965750345,0.05941908402898372,-0.03336916609660353,0.03322017173596839,-0.16011066640632468,-0.005422037084993869,-0.0944310942505822,0.0001540731093099308,0.14561599425341185,-0.17928233167605945,-0.01334056813380074,0.0018600130631031054,-0.00040648567354754743,0.21093317258835098,0.05093299958185964,-0.06855758475131002,-0.020556417086705338,-0.10690926099391858,-0.023135971100090268,-0.03213618136733795,0.18739011273547215,0.040261713079988916,-0.09910399242100047,0.04835962609290667,-0.013666843046640169,0.0033850191212067325,0.024145208819104626,0.16310633339857325,-0.14034516208595463,-0.2763294331651307,-0.10171944841426711,-0.132252835497093,-0.10252959646981007,-0.2540264757122179,-0.1764590704806528,-0.20497605043857647,-0.11271761077082867,0.01710134957438922,0.14134538722093531,0.08052321658916346,-0.06919688947716796,-0.01626544858312133,-0.08825997299021117,-0.016482928164268544,-0.04316883425835736,0.13327704138792423,-0.08407688169655582,-0.12422679300831435,-0.043482584295819,0.13703323434208275,-0.09180999169226144,-0.028991155495210075,0.09876928969341867,-0.017503279313538404,-0.08332997234103917,0.06971247228235376,-0.042261626133764434,-0.030838562082327936,-0.1854265844379681,0.10144990559697842,-0.08601151482343317,0.17152056602186486,0.1754873717215798,-0.05801083215739708,-0.10077142464746547,0.10025463341538798,-0.4182016795051831,0.04341593271565306,0.17098832475958917,-0.056557402905142336,-0.14799640825734792,-0.0411459607677845,-0.10358801399982774,0.05265952596507558,-0.11692565212570379,-0.07571631950283318,0.035557213847057394,0.04234278956423553,-0.011985070855407027,0.05309842782952988,0.05142256706284385,0.12488602477517391,0.14210397371130976,-0.18553303785899325,-0.32401197662325415,-0.14249195171304743,0.09151709522758496,-0.14243578879657703,0.3793035361876171,-0.02666044774760644,-0.27608753144761006,-0.7847896107262456,-0.5167687070942176,-0.29391721124869535,-0.12007971617876813,-0.22112388268111818,0.05885878108416693,-0.11488538555418842,-0.1055726180954123,-0.09914171688437666,-0.17538241492418413,-0.008514986788588707,-0.11622475017662066,-0.0684817164850261,0.0514344989784988,0.08076542040736114,-0.18584169399119216,-0.03213163731629466,0.16110249217714037,0.11459555396205567,-0.00769799527611638,-0.06543061409049516,0.052915612390680315,0.38350175139245574,0.2718912543372753,-0.002151868927646805,0.4562187115301794,0.010921296238209397,-0.19670140303592867,-0.3788363439906243,-0.5243427256662558,-0.35590523608349456,0.036462201643857134,-0.23826447947276527,0.13390172501935887,-0.10343563231069039,0.003697835043277275,-0.188920680487572,0.03229431061571107,0.10543609924283723,0.05253606983985656,0.12423340193135955,-0.08971417576312057,0.0758933211629267,0.141290460749456,0.048202671916563564,-0.07337453043377626,0.05436766411624353,-0.23799084471616883,0.043255926775941915,0.11166257558077783,0.5475421605684003,0.10831020576337141,0.22047639425944324,0.22018619527169175,-0.5273019215415217,-0.19631743768189128,-0.003869277122521702,-0.08165383400103786,-0.1545190589649557,-0.06874403419607678,-0.10350237013635566,0.03339136348785814,0.027917697659225554,-0.12210747077924772,0.08877892710648272,-0.11502605872248878,-0.0364041047204969,-0.015517382411304632,0.18406325395782974,0.035888937411842126,0.06874152880804464,-0.15463477029468864,-0.09733625442706755,0.1129599406768413,0.09681547073557965,0.026592019275679193,-0.06809519170805454,0.10271454566441317,-0.061790114083021465,-0.20840131686599053,-0.05604389423734909,0.48187764585663606,0.36925711320981697,0.06097710987781378,-0.5974643222411916,-0.2383049484971183,-0.4419614728181525,-0.2410266933916166,-0.47542037456918335,-0.18050601454729823,0.01170281025675504,-0.23379802226792643,0.023184029378493697,0.049536213998296025,-0.04171883178803983,0.02768379830480979,0.07651077167911643,-0.278705580294469,0.10706647052731863,0.036015696657951936,-0.09029437511000105,0.0693671753804378,0.39260586699725747,0.17489158259051368,0.08629350063605279,0.04719796900143844,-0.36990686315228644,-0.5618021787844187,0.09785984236997888,1.1594988266059232,0.7769606483489869,0.8270330708744061,-0.04693043286495817,-0.39605481903450573,-0.8147981581174424,-0.66063323233128,-0.14820292593616405,-0.017700003527758513,-0.005830396632163805,-0.16709106839672844,-0.03202294405140086,0.15499438309581576,0.1869308018953782,-0.04059269944514811,-0.04275490084502294,-0.08667494366419916,-0.06530257948429051,0.3044230304973757,0.4169665737328441,0.07904039322863708,0.26197288634686977,0.07063577755419562,0.07355474921701256,-0.022972987026245506,-0.6369446183608317,-0.6545043366951523,0.15397342871329098,0.6651734990712419,0.8010648952569928,0.1226464282181015,0.20163008428888055,-0.4328279878648872,-0.9342172067629784,-0.6842567914180235,-0.03655251875473977,0.016505013954014415,-0.1334565519143948,-0.0523428767993123,-0.04827188523631031,-0.012694446045948373,0.027147692613769214,-0.20581030939052425,0.0006479570793914836,-0.22090213316783444,0.05185247454284677,0.15161287086970907,0.1198812017946613,0.39123284953080545,0.42393584196223083,0.1654858690552194,-0.04348148545956904,-0.4573687031212139,-1.252134744829699,-1.3109498416239351,-0.79342166260163,-0.028808604937465006,0.43829058143028277,0.4036439348798294,-0.15965561517145727,-0.6089133854247256,-0.7980102011493531,-0.38797948067419,-0.20499552403336263,-0.22615831960015775,-0.14278365774592425,0.06303945141284444,-0.16271889297181252,-0.0753790978533202,0.04850522445972468,0.18219500531537003,0.02360321545915695,0.09860778824740396,0.13076932800224417,-0.1919410062578712,0.07115739381032349,0.04317636107484378,0.09692605525271732,-0.13438669354154045,-0.8110264255542146,-1.087931675136809,-1.8589112329490782,-1.2854233324147517,-1.226746602435137,-0.5759543237714451,-0.2101264780103996,0.05643848650191275,-0.08651623988003328,-0.9625835017211486,-0.6493186479574191,-0.2605205087144211,-0.254787893105483,-0.22974260008320638,0.01055950617274043,-0.1184120732260096,-0.009711082745520017,-0.01681600743787472,0.005755462301205198,0.006391713589333344,-0.21237306524741936,-0.16081267968235832,-0.1578694974252718,-0.13381514683907267,-0.31763153291081514,0.04433114452970096,-0.3458371168154392,-0.4030024984922875,-1.1191017040203537,-1.402754759595654,-1.6086760637381128,-1.2233071359006011,-0.5166561791068426,-0.22685732636824077,0.031079423377896154,0.10171206199170578,-0.13022031954504568,-0.625296304646071,-0.5362746077161776,-0.23977536901481303,-0.15312817271942256,-0.20480357907990557,-0.0527519492658493,-0.09001657307327018,0.06889090659569026,0.0015785535378471458,-0.15694755245405206,0.06887571830813755,0.06181657624511572,-0.041394722746186156,-0.11587089272498663,-0.19442608439078135,-0.11792624761203496,-0.33752203520256147,-0.4856912411789249,-0.6726335904100745,-1.0373044724619112,-1.0469682153446114,-1.096364696857102,-0.6523841633194157,-0.3466877037750475,0.055163786595110856,0.40264582722716397,0.39493611792824435,0.09522854663851879,0.11778767069909488,0.2752283347555801,0.22830131629567563,0.04279177813737598,-0.027772621890052175,0.09116817091603759,-0.011034513226180874,0.06951329042958529,-0.053455808985400775,-0.05631387121930296,-0.023264273013930983,0.16488223760097986,0.0018841691124479377,0.027528022194316718,-0.25043526068619426,-0.30254003539160956,-0.29454308894494763,-0.5577329855840852,-0.5486003504571255,-0.6073739116975775,-0.46006728886358234,-0.06275506687842969,0.29472622218871114,0.05539058106868939,0.1133163491835587,0.3831325846999831,0.2477927704525426,-0.1885631080755909,0.012160844270601472,0.3287785344122768,0.42015889050382266,0.2105774103212917,0.12093343938841705,0.23406943391702822,-0.015686421583498138,0.18033263123194454,0.01791750585807358,-0.09150748779309532,-0.15934506753045374,0.015323992003922253,-0.11094968171749178,-0.0101081824108755,-0.13306928489010764,-0.234995830861779,-0.5515379691698943,-0.7180786553206997,-0.4440398095393744,-0.2073952939433056,-0.0973416030891243,-0.15846891542237693,0.4064449164460965,0.4447127449333313,0.5351057509514731,0.1960051467091236,0.023485081955554904,-0.4956668633365902,-0.03691651159578325,0.3306416432576109,0.21445580096140404,0.1477358373006458,0.21039096276297659,0.21812315387615044,0.006984472627578694,0.017185453107127744,-0.16949501671570333,0.10722257228386124,0.013391740119842718,-0.054229915705427255,-0.08588147461316822,-0.10666256988371906,-0.22457872593477254,-0.1718342881171387,-0.5542158811934295,-0.3622368250296142,-0.3656033374608159,0.10952608062421015,0.2355911832442967,-0.4260780840175531,0.4193985716391263,0.704373803121753,0.5823007764543353,-0.18553308530278342,-0.29219094793760825,-0.4865769222533328,-0.27123276297009413,-0.1744995907521864,-0.026724822152520845,-0.15244333729321285,0.006219246794299224,-0.07973080634930835,0.029348540010383325,-0.06215132248342325,-0.1591245835222407,-0.035225237606761585,-0.0753933940377521,-0.1331970991791327,-0.05791919116572156,-0.09414625125207872,0.040494430714469204,-0.3065094541753229,-0.3437955811252363,-0.3807757427200614,-0.486036669372639,-0.2868527859090812,-0.2249891907650859,-0.16220964949906883,0.520782044935781,1.193570652890144,0.44822577420011717,-0.44514016573864257,-0.6407614724693881,-0.7309030892560417,-0.5411259307136563,-0.4025467865740478,-0.34313280755022485,-0.19691197497531576,-0.10816224784042625,-0.17332581743926984,-0.005072443775481064,0.11769435754944135,-0.08466282900681867,0.05591494511392877,0.16149002390178674,-0.06844136512241294,-0.17289554084854625,0.1512466008847414,0.11332422444424059,-0.278475251552877,-0.22406436559468357,-0.4554724821994317,-0.5349763094242983,-0.6631106504294699,-0.5186922940419608,-0.38592651227690494,0.7083892874730665,0.9383282511831266,0.26666037636435386,-0.1602522940774624,-0.3994247111074377,-0.7629501445998678,-0.6231069575820818,-0.6827143853773342,-0.6460790861300928,-0.452619036446978,-0.2748841997450152,-0.0804558028523253,-0.1753223669854251,0.015435218022761892,0.08069694172568836,-0.07017543583836552,-0.08115779697376611,0.08906587231290246,-0.08833575418846815,-0.18453095445315273,-0.13426134544760054,-0.18995764986135194,-0.44432042478383854,-0.4630276876243893,-0.48443324161523554,-0.43839467748786204,-0.16521877055024695,-0.01636375443541904,0.5945088980531396,0.8569038529009422,0.8055091467627361,0.5386050307659841,-0.00476967199011725,-0.7639496855128626,-0.9156603706631744,-0.8511104467286272,-0.3349139861499995,-0.5292853658955888,-0.33116934059248393,-0.21759776772047631,-0.1120341516091069,0.019928055741212886,0.052676537242130894,0.017028198646374445,-0.008928769080742745,0.16908835295792932,0.1713998324025097,-0.09358583537080031,-0.17046936478994287,-0.2299313080982593,-0.28496984443002743,-0.5759475941256821,-0.4440206444839869,-0.249820494210561,-0.0612914967926587,-0.16065844224887663,0.12276998557744052,0.7253206014043503,0.5189009164706572,1.0237071475421802,0.19641011581753579,-0.45588140357354334,-0.4403921702243266,-0.5318267744126824,-0.37926941218255245,-0.2672789960609244,-0.18952384970238084,-0.06049028359619599,-0.18737441885267073,-0.1653729994689443,-0.05214420199940352,0.08368167384491763,0.07478857850138824,-0.07610896575001078,0.08524957977578444,-0.17280305782789998,-0.07176552002239077,-0.03951409708988122,-0.19340834982182414,-0.25475011634177336,-0.21238139832386135,-0.3006451865437507,-0.44604358512173614,-0.45635515908673047,-0.27861405202020567,0.4555072717919127,0.5342720904180882,0.9264551179598933,0.530594179170972,0.027563849411124372,-0.13341187688427097,-0.16195452646320999,2.5069100410672205e-05,-0.02361243607187068,-0.17191310061651496,-0.10845823416750901,0.08998722141703056,0.0853595265130488,-0.06245166392434065,-0.02291613046668385,0.17343968964704504,-0.06560185881837689,0.09141047827883171,0.12029348696471984,-0.16537329840254386,-0.11865077445754897,0.012629905898327173,-0.2516652137197095,-0.2485939306618773,-0.41148125419775067,-0.45519442617885114,-0.35208264872029965,-0.2277002381771066,0.047680057686403404,0.1766837089919473,0.7880750526619058,0.4456362070732182,-0.07115227799318306,-0.4943135534328455,-0.17952356208550216,-0.2381423349355272,-0.13984981757828757,-0.19068398157558286,-0.13523768720722446,-0.05517311932157934,-0.13715778621585534,0.06229378852033716,-0.025526326435662786,0.054288881826468106,0.09862054632799803,-0.10818294753101412,-0.12224091901200224,-0.007290739158654269,0.21189895693227712,0.18133621466120345,-0.15100514929436412,-0.348149280115477,-0.3636120980573869,-0.4300111214649425,-0.21558562094677977,-0.3267298528668389,-0.032158575190981066,0.15951928717402133,-0.1453167119539178,-0.20571731705104274,0.027430237997217194,-0.35680922262741266,-0.11409349308116162,-0.2314538392700937,-0.32609373547122406,-0.16143376602227538,-0.05437784792764552,-0.047641331346689283,0.22130203366103532,0.023563371082457263,-0.034984244581390066,-0.17497774136386707,-0.19715357470671707,-0.1971040752457308,0.07536578153565651,0.10536030762307588,-0.044791150684555685,0.06633813619329669,-0.14357789353330544,-0.15809306587770253,0.05961596310633119,0.034450530412565204,0.16406835417721635,-0.015611609973278704,-0.00973630274821618,-0.09444296050488565,-0.13249690148932963,-0.12407684086166942,-0.2172201339085223,-0.05655912043172925,-0.31603520953972275,-0.2864310207385884,-0.011277649200850445,-0.035990264413607094,0.11982056120027852,-0.170195405440715,-0.007542751326788918,0.022458484774347698,0.039776376001300816,-0.02223680328948372,0.008301477455600878,-0.04169295115626503,0.047633328945149676,-0.19044622665550226,0.008954374791582476,-0.07635061842894421,0.04300282456065119,-0.020043400735012606,0.23105084907865153,0.2205907789199932,-0.16270824382837865,-0.07186631402729729,-0.2522590725144622,-0.26095626142911293,-0.19371286191350448,-0.20238603413087042,0.012757833745366518,-0.010660374953567777,-0.038383075642242546,-0.09333212680394247,-0.04309262455714794,-0.12470583870228395,-0.14013715620111786,0.09482556234783412,-0.08553147908780478,0.004109964043792683,-0.05025220331764329,0.018101870606220385,-0.04224620885931401,-0.046902764721105515,-0.0683541576651387,-0.1193981623176458,0.038201377430518255,-0.10090719722070582,-0.2140636520185526,-0.02588418057760237,0.048499655782318754,0.05981985072186298,-0.08319854248267869,0.08354273701571513,-0.016399418580617255,0.21077340371336156,-0.015264108909414105,-0.08210940199656135,-0.18146659375609267,-0.1629633312184062,0.05267901858637597,-0.11093053261553376,-0.09335336720866093,0.09818964349354033,0.05423418979291105,-0.08401075475514554,-0.16596595991744367,-0.07192663873631257,0.09538534027138802,-0.051912558913153294,0.08483410141166914,-0.02805051223253496,-0.07942437093459509,0.05713457620305438,-0.01729071961783807,0.1151704840225155,0.009770103303476047,0.014088575551323439,-0.04191444437142718,-0.016013964331413312,-0.05203873379501454,-0.10771634709268235,0.026223348024562308,0.04736215720808782,-0.10918197474085342,0.1396495003178954,-0.017805759136638587,-0.03478466751598298,0.10641691048519467,0.0483591143721226,0.0005795989602662679,0.0642600437491701,0.014254873612273303,0.16311678023890527,-0.05218206361600269,-0.2168700785600586,-0.03412848915189467,-0.0012981934161619643,0.12434645211526055,0.2796247422405105,-0.15037640210156053,0.0726729707728449,0.0751735655478909,-0.05081990568136761,-0.18272330513784305,-0.12693291817980712,-0.12098393740443286,0.1593759189663217,-0.03613805593284622,0.04058393781684517,-0.19261789970800103,-0.1596299132553172,-0.134058490635036,0.02912106571264883,-0.21340988336077973,0.1328761305712053,-0.19804600318279147,-0.08522295983268639,-0.01320359912209227,0.003934936354782232,-0.027717680020070457,0.05696748686227802,-0.09058795724034935,-0.04117080351127481,-0.03821818157347379,-0.12341851631504888,-0.08194135995423293,-0.1297388015873888,0.020238886686064626,0.04711146928776361,-0.04951486991304521,0.12789391642867035,0.0002226775059742502,0.14326197775693839,-0.044426932199535446,-0.21182985594835932,-0.46150257556153895,-0.4371258712492684,-0.14464387909494558,-0.283316308301845,-0.38949175545377035,-0.2731139497790311,-0.24514953936507317,-0.13889074956549158,-0.34444293321829633,-0.35643232402323094,-0.1070950027867992,-0.2081941198812138,-0.15162418074008618,-0.07612981398927315,0.09690904442018525,-0.12444536602940001,-0.1530416126115736,0.008029422825926332,0.11082613306446287,-0.1292565000653432,-0.09133717885990077,0.08674332042241965,-0.13129045125431452,0.16848986823210943,-0.18800724098163193,-0.054034406708687976,-0.12897410804991033,0.08445507484703273,-0.0903237489011177,-0.021179455920816163,-0.43055420429097563,-0.615880747822895,-0.5561644235260306,-0.5592526923352251,-0.48629865160574126,-0.5186300586099385,-0.5778649230544798,-0.8315511499411775,-0.1120911644907401,-0.013252455568731723,-0.13599633426332985,-0.005498063691268811,0.17030950537496697,0.030405763930667032,-0.20704467398170692,-0.0025969936245746838,0.06891810473377105,0.04365453547626307,-0.05895033789873921,0.2006102923658649,0.15034259708868958,0.058326005134290246,0.009772291536617246,0.09330786050460972,0.1897990327222002,-0.08790156776327931,-0.15650412288773358,-0.126892673179295,-0.4365658749610009,-0.4659131063839958,-0.5228022842127836,-0.31982891600353397,-0.29966493815396433,-0.41361587987565296,-0.33501565663246446,-0.23924397198509958,-0.30509020438361234,-0.1894450467904591,0.016275201205525808,0.046456931199215026,-0.054329812333887346,-0.1933194578872646,-0.08474829185191551,0.24245138627105509,0.049230511432376826,0.06700894624556847,0.09204410477852112,-0.11638857616276174,0.28475433496722075,0.29528966811324725,0.6337141791625368,0.34647711548634,0.1619360069062425,0.04197391449966067,-0.10654626655508508,-0.244154545488726,-0.6581610561273872,-0.5605793032508775,-0.3599991142556381,0.04468994951799774,0.20758661509247,0.000967371670759231,-0.3040296423807601,-0.24950846155016373,-0.12214339013708414,0.13067264189885422,-0.0653452972899064,0.4010908987540461,-0.0568754001221788,0.11404938186730848,-0.192131850889454,-0.3448231250115593,0.08745080567203059,0.16730086741346742,-0.008454217915457541,-0.05458371029917275,0.36354157721308467,0.19744149672888273,0.017933395031143974,0.3030932544871512,-0.005285251156601644,0.25962070256615966,0.2331517186507988,-0.19853516344553385,-0.5682251184721759,-0.7594090889505106,-0.30860701248888184,-0.4546581838160218,-0.23404319196273837,0.056642818602162484,-0.15156617040209017,-0.11002837816059635,-0.20173014614098164,-0.018255741329266537,0.1792765115232267,0.053963084211766696,0.09970732073950123,-0.048126557585733414,-0.1773806496357714,-0.09612919829717745,-0.16643122092663362,-0.040328110923763094,-0.07514194697228017,0.08601590197586173,-0.07011158295516488,0.32265246333334496,-0.16922343205656135,-0.12398276495073383,-0.30705384070115715,-0.30562076028146745,0.2884873490899434,-0.17512007925609838,-0.39464524543914015,-0.30516424047313906,-0.6950000835271403,-0.49279331900548673,-0.4836772623496677,-0.2531825727679855,-0.21675565235124544,0.15703713493977056,0.22594892561495913,0.04487657147284058,-0.01336049944119712,0.2856835824750885,0.19080892807784938,0.06043817545887151,-0.04263200249105915,-0.09079699655700249,-0.018874919509844976,-0.0007292099193480102,-0.05006849845996281,0.0996143444004047,0.07186751058223909,-0.02673988253544412,-0.1108285335367431,-0.320363587345352,-0.3531588346533901,-0.035865536385350935,0.07355307745300108,-0.2602620551388413,-0.049643427087350776,-0.09715885236731199,-0.30978325319738287,-0.5524587061173731,-0.03862701822540767,0.414447111002415,-0.01836084753887214,0.17573299726346736,0.16729711555490054,0.16608692381291354,0.19842007854748797,0.2099305348638224,0.22499058981747172,0.03578508707843569,0.06290128501064272,-0.030060774426629452,-0.17496048183346724,0.17559640169051385,-0.16163792088000725,-0.08922921982113313,-0.1485485351758142,-0.2234674980491694,-0.32302454104359957,-0.4161652033364158,-0.13114490910099522,0.30766816200024116,0.5399295369299766,0.47188373247540183,0.3039276547237137,0.20039984410269754,0.18199333394619605,0.1341716975230272,0.23543496325767987,0.18283973852240806,-0.02641826679863909,-0.06856460823179207,-0.17406734770150456,0.052271731323095726,-0.3237334379238073,0.23740053511600723,0.2926254527985006,0.2042777585677966,-0.16441899653626066,-0.02938995882874706,-0.2457474147270159,-0.09306392436563256,-0.21932580469422416,0.021979319909844516,-0.061248317202991544,-0.23973836334043877,-0.11637055441272276,-0.407207025627718,-0.08984721094598239,0.3131717120443519,0.4361176076610501,0.8222003121621595,0.38818682993117304,0.09161453371107457,0.13594984369733717,0.14446480103130402,0.0166536293085694,-0.061988968229666014,-0.12688946287512742,-0.8338567237708364,-0.31907899637296083,-0.7852437807351235,-0.5074189126254588,-0.05741562937121186,0.037278022532453735,-0.12532342482801603,-0.07404949767142983,-0.012995585019329585,0.010292638723803637,-0.07290716539005614,0.01880112168066729,-0.22739705266549792,-0.07593818238392433,-0.24315566483375223,-0.352746303829946,-0.1781727073098567,-0.4087683378489534,0.023232394291427982,0.16937025576066944,0.1367063412740988,-0.38828954045023545,-0.24497879258514704,-0.14584858209032692,0.06622904631904875,-0.28704862610339094,-0.41258371215991985,-0.600136947103744,-0.7768883329351682,-0.69942371964819,-0.8822784817098326,-0.80098678998364,-0.39484403402158713,0.11947834733944186,-0.0807336182281666,-0.050921066743797504,0.0050375037815001255,0.11798995749108421,-0.12975031631800873,-0.03050836561087357,-0.3350156464940001,-0.3196785159320799,-0.23705746822829687,-0.24669479905976652,-0.6858046413903891,-0.6489441639837868,-0.5640923227993112,-0.3283291993112548,-0.5996637711725489,-0.21396531234141994,-0.09527950592528461,-0.30780399377720047,-0.035231117166288475,-0.1340870174155865,-0.5124844572679988,-0.6222466806993332,-0.6829435515619926,-0.6585343355527585,-0.8767724570784421,-0.8205997227696549,-0.3626215838591604,0.10328916949935411,0.032590052808524464,0.09418305375209626,-0.006268026207571347,0.1143715796541829,-0.17013339846831535,0.058915938706542305,-0.5022457654974615,-0.4223093928719739,-0.48513879254866127,-0.45841326937309207,-0.8492251264110208,-0.7825473833342487,-0.8425214853072348,-1.0340941756208892,-0.41551771742710075,-0.10001093790189527,0.08275588894060401,-0.05940414416701283,-0.10677931689492447,-0.097293017482726,-0.014815048341850039,-0.5599851618724262,-0.30450735054513395,-0.4027117381219091,-0.7698500573454379,-1.0149790414948188,-0.4939848902138299,0.2826632663704971,-0.1356259334237642,-0.14473307475020286,0.0580907826540732,-0.05479479485905508,-0.014268768287384251,0.1687398132526583,-0.1480616118678709,-0.44545992487282726,-0.4601890177106095,-0.5433955707636967,-0.8519792461494851,-0.7627515262196836,-0.8713884656959567,-1.1843833101210905,-0.4537442870051252,-0.02720462594886461,-0.16978610640061098,-0.2021307102425585,0.012318829235072506,0.19877267444729219,-0.15055950418044245,-0.6019101281287705,-0.6743713755287644,-0.5107375250755563,-0.7993994232818689,-0.694086566980125,-0.3195958574188779,-0.05288706497968297,0.08168112406518922,-0.03573028291717769,-0.04151882744181467,-0.07740501702042166,-0.11685362204269195,0.15069180164821563,0.19265654012940003,-0.6128652059073553,-0.5555342204486019,-0.856851900809401,-0.762359953666141,-0.5699921885906405,-0.7202457667675521,-0.3790751780849835,-0.08935072929282153,0.13314527255240893,-0.07145125224289176,0.039790722153139585,-0.052007534484488506,-0.12645202956093352,-0.5809864558219326,-0.6536541123991286,-0.3271490642209753,-0.5572808498826455,-0.5605836118109521,-0.46611460250277287,0.1274025128108635,0.2494652879092652,-0.0627081550050245,-0.006531606115798085,-0.176234447118523,-0.0554735751591749,-0.18874354362223494,0.29571278052965855,0.21002214729781674,-0.2243878728997263,-0.20340480224825552,-0.5639018251037581,-0.34012766564837044,0.02776032817284869,-0.012704925934641927,-0.42859601553224635,-0.21491552531998073,-0.13476521782856887,-0.2580630407336147,-0.07619037603315756,0.15404778772791705,0.05606530110556913,-0.25940284181158235,-0.06805727174132073,0.23324030527979947,0.388801698008655,0.27530915576263504,0.15147651887737865,0.2202181067678236,0.2538481337863023,0.15964324003470573,0.05073582844006322,0.012245443336880468,-0.020511974347221063,0.20781169315905937,0.2884812673070226,0.40443571550090196,0.3903958829483426,0.25022995321772845,-0.05161661645640837,0.4348742236932988,0.5491907202432433,0.30787584651912275,0.012852011431183263,-0.2962561687288656,-0.16110624543921948,0.24013427915801422,0.5677144817893318,0.4358576172435671,0.03503442988131228,-0.03132137444675303,-0.01876145420456157,0.17044936316087464,0.05591803012725154,0.13058565245892387,0.38045852415682013,0.26435256002545665,0.2991466699949439,0.04726086177651926,-0.15470580884500557,0.018582852121993308,-0.12884440994545437,0.0239925844022106,0.371985432699781,0.16871673530085834,0.38185604868605055,0.49970696588108693,0.34754647908271213,0.4888230742046043,0.7465256225480257,0.5659993733152406,0.14296233500326064,0.3134835716364294,0.9146130590599587,0.981675785800118,0.9981387994526683,0.42782987530954314,0.33882300817300004,-0.016822745049059874,0.09511652618646435,0.6445018945809102,0.5808595507689291,0.8036827997355125,1.0081134092045738,0.5793759639976949,0.1938603102632331,0.07152415125994473,-0.05116762340675297,-0.041738543754800995,-0.0587371795550032,0.03773214661947395,0.2022572077700927,0.5821948245115814,0.21374580924394668,0.5290772802921146,0.7458514219267446,0.5966472425100838,0.5466295645841983,0.10974903703328331,-0.20485227458669963,-0.2500427534271201,0.44791675899066163,0.2873390943753218,-0.07769544717357832,0.1140419760010161,0.12013920612883955,-0.14330841570531755,0.20614913561711554,0.11989446578267435,0.8128018227366215,0.8467265034060901,0.7901250821102778,0.5289546392340577,0.24467680339678693,0.00932853290659132,-0.14715431082260474,0.09938955561178542,0.08276281071484529,-0.01392214289472155,0.2478240818761331,0.4610180919262419,0.145625339960511,0.6493529583063098,0.5572200271569154,0.18730272461921138,0.2075016915778523,-0.11912069935138439,-0.6369489965214601,-0.8498725869578745,-0.7799572578688639,-0.5710160057132155,-0.6348957875501138,-0.1443403708184317,-0.1395666406976362,-0.014485927526009482,0.01524777144054868,0.14733159791732878,0.42088864927523356,0.9340571063465926,0.842208633527269,0.2521800553192414,-0.02589952137949133,0.026547011726976932,-0.006289201555455478,0.002297656361854484,0.02677587947552593,0.044199563634392106,0.12309651073586422,0.35180794717549074,0.06120427175428485,-0.11149175861094045,-0.19174845024200668,-0.18205595803636743,-0.24031911762092464,-0.5352149357937216,-0.7005214339185913,-0.9564688726075725,-0.6746980594210387,-0.9742461930469393,-0.7697171172841091,-0.536084465195639,-0.21418938831541304,0.09903175275678805,0.1815919203918094,0.3289828588575722,0.23696882962136404,0.5501907422029177,0.34572890269966466,0.3098717397293049,0.026254672168045588,0.0918761986955325,9.299186485977857e-05,-0.02486741696986435,0.004872439898813835,-0.014555180818683821,0.06994521046921226,0.12189582498869601,0.038311002193795934,-0.22012741957683107,-0.3753800901409208,-0.4832707727674425,-0.501750774005934,-0.8309974380894846,-0.5405234296998491,-0.6663995925661277,-0.8071802027332177,-0.8213024399618747,-0.6203218493909376,-0.14896113970049216,0.09073291139226862,0.24089703677378305,0.24107483015223186,0.15764956490190324,0.13350884737598165,0.08208992250103826,0.20550620915627515,0.3685075308419118,-0.013620280590000543,-0.12029712423594491,-0.11323258545522652,0.09726432335982538,-0.11234972007848945,-0.05886060711497857,-0.053195928183405794,-0.048120090795244014,-0.01279662907866387,-0.3110300780158737,-0.7124100442465184,-0.5293023016110351,-0.5629117472457605,-0.5592059452031094,-0.5358498086527882,-1.0027374703974574,-1.1095080713314838,-0.6948135450884088,-0.6226469688350743,-0.36075648315102393,-0.20621660934301442,-0.2811621504960204,0.15454903521936922,0.29750433295288914,0.029151085466085948,0.07373752408276497,0.05486726132774217,-0.06733803255280943,0.08596713005858725,-0.0324984932186237,-0.10841979461549606,-0.03536486264197928,-0.10183883262291732,-0.04780884531881127,-0.17308290893818917,-0.0005073062032431434,-0.19533672359059548,-0.25205878262597237,-0.38306773631682844,-0.4179355544710846,-0.5553840828305461,-0.5695021350729953,-0.6196124730032768,-0.6719344677144419,-0.6102979664724113,-0.7948586135666554,-0.560249116426902,-0.33466436722712406,-0.40245226490579056,-0.4039123351396627,-0.2540499997624296,0.08543205394455906,0.11696253733023525,0.11154329778514326,-0.03335420886358959,-0.002594976307381268,-0.03441412131580776,-0.09698207984969195,0.036626732247887324,-0.038945550104557296,0.028356199479434574,0.08798750063769809,-0.059261015687753237,0.09476362711609433,-0.1080952498091241,-0.014753291043052527,-0.31273628642622253,-0.2407764861163113,-0.27416573592276766,-0.28371350795544087,-0.4951528087973526,-0.444024038861171,-0.46222473161081107,-0.6812860099111141,-0.49297823009116554,-0.371347056045616,-0.23238329255111567,-0.24374422099622012,-0.2316849290956844,-0.17913087753630103,-0.1121679937908299,0.08998966501538484,0.06887292021639141,-0.04983140218535074,-0.049940595222036276,-0.051621119657802784,-0.008723815871309392,0.07163724395313739,0.04664585229137517,0.060206603796948484,-0.046369901406594284,-0.2280783474314704,-0.05196991180731762,0.19016567097288856,-0.11009138720356301,-0.15582217996547132,-0.09329026487298525,-0.050080344913884516,-0.1956737165243369,-0.09259714776528741,-0.12139393637797374,-0.22791266276130182,-0.02783848246694661,-0.3046645084398198,-0.2276140430604788,-0.38157180616170977,-0.18793044782471666,-0.1329376768330353,-0.07125979356919576,-0.20700023809323215,0.13563664802073483,-0.12583886456271207,0.1357119370364716,-0.12155733286968556,-0.1047908704449001,-0.012945922058315957,0.06562498571587255,-0.21561427081419163,-0.09296041558805399,0.04314260641711055,0.020120951049608534,-0.12387005440960008,-0.04167355331751795,-0.21900787406586472,0.06425487797002771,0.045908509549707766,-0.01206831773024923,-0.10458846894831533,0.07997661569751653,-0.10323610088486455,0.13752746950628827,-0.03337596712616181,-0.0005403855138280988,-0.1769689305423832,-0.18358432191548743,0.030754526941218687,0.16438246371723855,-0.025909155997737462,-0.04274040705173109,-0.0012367450049324581,0.01058837522994333,-0.02008686661434631,0.024302532373250866,-0.058350679864567594,0.023320559107487367,0.1470981700446417,-0.051876679821639855,0.11752955065139772,0.06465458476939231,0.1925032247180194,0.012819881288911763,-0.0871886848248423,-0.11830116054383877,0.1320329500698756,-0.08679872276211414,-0.06442274433216104,0.006704172954216487,-0.12157478772397169,-0.0761526867527404,-0.06067143207800351,-0.07146188242176135,-0.10752580093792871,0.04925821126842805,-0.05739244564039823,-0.10863344802425115,0.10461364560331568,-0.019488224913175645,-0.01567086633207807,-0.043598724852639735,-0.05244396717921399,-0.11484833308533055,-0.03618932297530109,0.10015864521001644,-0.06272767797413215,-0.001677611248103352,-0.011847405972379614,-0.17339144200355106,0.03629118847723195,0.031708734685345956,-0.1509157683486775,-0.1869365944966808,0.07080918455782989,-0.16562863265027913,0.020589735646524922,0.07491533112118469,0.01176525073116955,0.04881553716976086,-0.010282960515668307,0.12826703143944165,0.051275752515551914,-0.103401993215942,-0.118133476036666,-0.1848152109583012,0.013871607759935883,-0.051118099124392476,0.05021578085570023,-0.034768627137104505,0.06323386283372878,-0.017286590914204925,0.0729473443446487,-0.014903505203715835,-0.04487826317188877,-0.1012263426402447,-0.015100022695458655,0.07258170035934997,-0.038566064649194126,-0.00463736402546069,0.1063054308794922,-0.0033315018666979462,-0.03138721783568943,0.06976013666908822,0.012685011398916023,-0.001826608741813462,0.027381334259883594,0.10237833111211321,0.028149079562848643,-0.11361405901982989,0.00244651627415946,-0.19031599268837943,-0.16341852024054018,-0.04705416528160277,-0.07523103482812647,-0.06391276676346977,0.06525190461962992,0.0356472456518442,-0.1270095996768291,-0.14029261919684693,-0.010848994613476501,-0.23564191179846022,0.16464048717147056,-0.10083545132127943,-0.1087053407711741,0.07640086350092631,0.07801104500247405,0.03269912980157279,-0.09136636006869066,0.058600306592179845,-0.16101061639174105,-0.24860567876653872,-0.20887260432191343,-0.1198550640609038,-0.1233951050448319,0.05313065875234096,-0.04598750091636444,0.14529028160883686,0.15329643702691667,0.05387087832002004,0.05351887901540692,0.05829399557264821,-0.05050402747405645,0.058411852114620445,0.09884482579797152,-0.054986150733761965,-0.10286086422892458,-0.07730976625758726,0.07718764115969867,-0.08802350494417133,0.018792936344901177,0.019049677313908605,-0.15697988101804616,0.030286660553854594,0.0354802246728359,0.11859758357199617,-0.06043850136075377,0.0714710134976516,-0.10927854524303074,0.04710852729037773,-0.33739299972307946,-0.09962299619715523,-0.14742581297929847,-0.20434891708371283,-0.08736191206910318,0.03580280137882607,0.17825926964483887,0.1999668975647165,0.18460199129746244,0.06471899802942269,-0.09074635795584518,0.010274594734691429,-0.009513776479326316,-0.11994586607799543,-0.010197882841692419,0.05529175243655386,0.051270782924373044,0.08228900580351564,-0.16508487300810942,-0.050618000766466546,0.07846919784423502,0.1618322831451325,-0.2120696531596601,-0.15989983557673124,-0.11688400895766021,-0.1127691960697339,-0.2692102477400541,-0.10140654082430704,-0.27714082658401373,-0.15256105075970341,-0.30091509300669644,0.0823418687767576,0.13312495534082755,0.0420066695986719,0.07636041134571579,0.028187527838533254,0.06874622584926475,-0.30548526754891814,-0.40006753888693064,-0.19244616286183377,0.01571495185504647,-0.08973163536407407,-0.15135923815926078,-0.000414333194683385,-0.05396065485278242,0.01998030244247126,0.06718882238029635,-0.04563383652388246,0.029990236360540067,-0.21773666845936837,-0.24761771727335888,-0.3147821007076054,-0.33535018427281543,-0.3162525561870503,-0.3662872421113612,-0.1922148539454816,-0.11356631850189501,0.09916603159333204,0.021527186373965633,-0.08269954788775173,0.11593038755711745,-0.09599103683336488,0.03179200080580522,-0.007149500250799164,-0.22371626352603438,-0.19675960545361043,-0.2857963000615868,-0.150540935574018,-0.19294991456104094,-0.06899270583018868,-0.1551838126959049,-0.10274374007169022,0.11475769394811741,-0.0396370739287794,0.03415599080475354,-0.10889086304101181,-0.14174966517720528,-0.030206453628781323,-0.02694166776039811,-0.33168591340088077,-0.3175434618427155,-0.35588949768902156,-0.15021061960007615,-0.32215744501406096,-0.24218005671438336,0.08906200438288792,-0.005522673642240996,-0.049136477725586776,-0.010019510599806216,-0.08997038248310484,-0.32894203834964436,-0.36240961630106505,-0.2161596249997102,-0.06566339805692117,-0.10002055978436457,-0.11976338524164477,-0.0865626164098609,0.027831058530414017,-0.04390587790421625,-0.04339760848142274,0.043283072608872715,0.06666691143318396,-0.06859371839081281,-0.11382339287791615,0.03136823736161397,-0.12250049320841946,-0.14831940398707516,-0.03576351373107688,-0.1312317801557864,0.11403697971574224,-0.2787155553500496,-0.16569068615459942,-0.08997846748059007,-0.10143264424849349,-0.14600926319072552,-0.09300946474360046,-0.29763308468763555,-0.5259150929191022,-0.4285429254229817,0.02476958463577629,-0.22146832699193003,-0.18075236121312138,-0.008396503631593992,-0.262780570982141,-0.11372930116508091,-0.21428141570443615,-0.09989482542095876,0.05184471790139235,0.020992471239541177,0.04678248965361746,-0.09248355929539166,0.02349766420468778,-0.041247064099250344,0.03211477642406093,-0.1442639119775871,-0.07987466522586538,0.08446108171987995,-0.21702152505010014,0.11691695468154824,-0.19936573785597125,0.11102457132926606,-0.0036610428582129384,0.08800000096814685,-0.3139474465217043,-0.22461749941023504,-0.3966350484779271,-0.10365502684731327,-0.15574314829935126,-0.04218471378557776,0.16666700205873078,0.027541125559940552,0.03621661342486892,-0.08334121899954737,-0.10706900054475971,0.1107670644365516,-0.08546228748923507,0.13220675308994886,-0.2602573622069155,-0.10932350389353085,-0.07329063900098784,0.0012100472637706782,-0.07667145581892286,0.04510416643586951,0.04740380786261805,0.13430861828169752,0.10789361384923767,-0.20712177682176974,-0.07181239611993132,-0.12149082523291317,-0.13250576807962103,-0.4895318966139294,-0.5442054313971455,-0.6657653479144987,-0.3954423160550043,-0.22039399734120318,0.27742664261757294,0.002688054003247422,-0.008964260612755341,0.0897813835820647,0.19678072854258047,-0.11738679699271921,-0.2043767639738506,-0.05093985791336163,0.03003705821343699,0.1791955902597186,-0.039420215739564266,-0.027949854353704527,-0.07413612988795812,-0.08730838281047995,0.05544621108177915,0.18729015679971706,0.20306679594402877,0.04734823841898461,0.2010268298012221,-0.06696650925639881,0.12872495046509386,0.12980007042758496,0.049161522648946215,-0.1541650074055998,-0.6902518829403832,-0.4921832883972984,-0.09470748195444603,-0.18058044347999408,-0.10939925123646184,0.38130082509601093,0.24202573774870714,0.262579539210331,0.05133038751256184,0.21594311459874183,-0.04664141003929229,-0.07825160430108809,0.04005286442958729,0.0008381916930519558,-0.046747511870398994,-0.0026154863412279684,0.07037913505243608,-0.249199619228757,0.27660982762034014,0.15625902720767773,0.07852092608240782,0.02832474736142786,-0.3213896016973898,0.16755742563127574,-0.005007490210084067,-0.07984880460448392,0.044866606960792116,-0.26805620391217194,-0.5712274970956035,-0.3003376279586421,-0.05948694161857172,-0.05032599080838119,0.025674234012202007,0.3262243451625461,0.381980230490407,0.2802038758265027,0.16786416259984413,-0.16566840296098181,-0.07929552020089341,-0.2661037245061395,0.05122448044614953,-0.018628606124865343,0.10954133273568334,0.010807473282475727,0.1151398688256411,-0.04713587469213732,0.04695791501759749,0.263220159485232,-0.10644279340420944,-0.16803567869354388,0.05986074484661207,0.18264912991368792,-0.07452091394885516,-0.11187672019735485,-0.17849601179559124,-0.03066273300098765,0.030085807112434047,-0.05005048001370022,-0.04426930114119341,-0.2072772728779806,-0.18079901869448475,0.19601362168234235,0.11705476043987668,0.3187713396748584,0.07855311472287214,0.07336230900651229,-0.004378368643953366,0.11859650095494013,0.03458985817051459,-0.06162035946775746,-0.06474055038374722,0.058833040304879375,0.07647954978314493,-0.17918557520108488,0.5081577257569614,0.04391849865862244,-0.008684893144433468,-0.04160555317652658,-0.23388921187343362,-0.36506382962445744,-0.17745027958348478,-0.3293016500192091,-0.16750857063430505,-0.1634465498662297,-0.07739014266519521,-0.31567840772212763,-0.19214492745086073,-0.3321748680478069,-0.14255361221574198,-0.08328112983497328,0.10746284161135443,0.3239129211686588,0.26418604440167875,0.17530282362332997,0.0037276389894358997,-0.17720342870781083,-0.06720247100119263,0.049197624818628036,0.05237617850760202,0.08742406595768745,-0.27877531370051195,0.00745884112359416,0.008520124766065137,0.19433971878254516,-0.0504991458899378,-0.2975770119080441,-0.5520193084884203,-0.5264395952516038,-0.3572934623576774,-0.21506184866135838,-0.17606626828640998,-0.021946095664400336,-0.17963596498994316,-0.275917046065203,-0.3035946326733901,-0.2721210768529747,-0.20138074334795178,-0.14552531313040018,-0.13529253390036294,0.10289045802710477,-0.14849455551770901,0.22064595965048578,0.062274063586670224,0.05109033655186074,-0.1439653249239358,0.2344994172350417,-0.08493150806907336,-0.2578750297009713,0.16251564605793317,-0.10990019021726628,-0.03785110126531492,0.2170569196876022,-0.019654334818089543,-0.08579097825404812,-0.21951518177283688,-0.24043051252887607,-0.23013263764092393,-0.19367876042816268,-0.14492925405169968,-0.24309476320093076,-0.3430061170794747,-0.2380064979521572,-0.7855755476377072,-0.5599371896694716,-0.3968620648253717,-0.09630975208267645,0.09191339006097336,-0.16278294416309105,0.17092495797719157,-0.20508800471154706,0.10221851101134014,-0.12796353367726393,-0.0582075970484162,-0.05833606599239952,0.08130479204595557,0.01768554160076432,-0.015513829570857375,0.055259415705708144,-0.24254531586277217,-0.14347338332688098,-0.11482250333473017,0.08376194429501599,0.2993697139051167,0.2005601986012172,0.44416295780059806,0.1619210113260729,-0.2560175551661537,-0.15062387488509615,-0.2784314181132533,-0.38076809803027106,-0.4843402491126448,-0.357260195976054,-0.17828614936078027,0.11491342850590885,-0.16287156061454072,-0.08547876258746845,-0.04840608639041367,-0.16868040862142936,-0.20738187783221262,0.005266339416208683,0.07746800719072579,0.04162168829079017,-0.02040806056341252,0.08363269200611245,0.04420111838375918,-0.14621431566002524,-0.22112660918841076,-0.3502186913283939,-0.20762078579666673,0.19043518297155335,0.21494230524513916,0.40883016970659714,0.14153061991886012,0.001266514179257211,-0.02751693768790651,-0.06748367514846472,-0.16356734698089306,-0.3691323171313696,-0.2700128047757922,-0.2349805866909592,-0.07678283190203126,0.08987877699050033,0.00218775297894106,-0.35508186204434045,-0.08213954069864804,-0.18746111461621695,-0.06075552378436656,-0.0066271993852846725,-0.02894384275945236,0.010853928230197282,0.031383950213181244,-0.11602661383692218,0.041294356122415145,-0.2955714887467085,-0.19735341518480148,-0.28116886398920543,-0.2978387655364894,-0.27704836004280503,-0.008377731891683452,-0.020521467600115556,0.07846209252388904,-0.2643635940501217,-0.09242527448842958,-0.14501976088783172,-0.169898133447951,-0.35461569241648394,-0.20034092695020467,-0.1713730977911393,-0.10076728261157633,-0.18926480094000778,-0.270435888363009,-0.32555480332644254,-0.029547998625243137,-0.07707988125861537,0.11348593399620373,-0.03760302173855143,-0.09126904967869687,-0.1243011281837492,-0.029830866904319478,-0.0620821829824085,0.014916254717881152,-0.2285814855656905,-0.17324297941579742,-0.31900710735888593,-0.463217578489341,-0.2084742321943187,-0.058079578375815004,-0.26264091145388857,-0.40365035896111945,-0.2725646005410305,-0.012729409832108497,-0.15276683268983313,-0.025479306550679443,-0.42029156643845345,-0.2441309421157605,-0.21311695212727289,-0.17813909607672707,-0.17816657064582378,-0.2928451613833066,-0.05307703028159182,-0.2230775612992187,-0.09050824473449975,-0.09905478753711017,-0.015471877325752838,0.10692951060988624,-0.021756805525559388,0.04032930995548687,-0.10401405372671237,-0.05989509198151745,-0.2726932907937334,-0.1368645182201945,-0.11897615541042439,-0.2647042280045864,-0.23795057494369934,-0.38088313904460824,-0.21026009038309804,-0.5042249330555882,-0.3348631189152659,-0.02546159399315286,0.13177066682454594,-0.004884278610505087,-0.08579069522561782,-0.16108873106800345,-0.2408375895150771,-0.26588582775670033,-0.3981497787130552,-0.037437794194521826,-0.03290147924358473,-0.06380442269363215,0.00425625302663729,0.0034996757888258014,0.010468934081373005,-0.057806627547708954,-0.0574677935580438,-0.20863171661526422,-0.014334583217460787,-0.052499669789691936,-0.03843824580731333,0.06394275520424096,0.18686773993407302,-0.20171544024828172,-0.19992026908234817,-0.139218820453299,-0.12516751407072152,-0.24164883722509706,0.08472965857190043,-0.04240201143706194,0.008761965039358673,0.005660397268698632,-0.3093008451880869,-0.45093684619062013,-0.37381121654645527,-0.23222282275459658,-0.15617632205759616,-0.2470853060239906,-0.18495990694537023,-0.015000800988127939,0.09375100667578197,0.02026494299416311,-0.0905465779526584,0.17376264862083982,0.11470032607979916,0.23358615001110772,0.05857215090382808,0.012078056839717358,-0.012987570375081981,-0.07599846524190795,-0.08089228986845556,0.07418817106120504,0.040173355860609314,-0.11218769567897957,0.26997428094489334,0.2345483208141481,0.3932090837740925,0.37482972648741864,-0.09487463074959954,-0.2840046671395477,-0.22092751990735077,-0.2276318150501299,-0.11143272422263714,-0.2514055211920098,-0.10157133376163546,-0.1437342430650573,0.1716530529161392,-0.0002791497955804029,-0.000401302944988513,0.024855921177816088,-0.0006875675494350029,0.008816710266391388,0.10367945041923729,0.13263772832043536,0.11126115320871476,-0.05922880720103615,-0.1658174849092411,0.16534696557688364,0.004279591566499495,-0.06330355522201665,-0.19284837260846704,-0.03455206518783096,-0.07367832789618736,0.013064507760225892,-0.05882805388677396,0.002523987002944079,0.1078609431420876,0.025290127634037558,-0.08190674282245958,0.04502792592774917,-0.15289003353261255,0.09829446293485,-0.0696630978141624,-0.10964247944273411,-0.1513720130619099,-0.005482619064664936,0.00949441379791335,0.051626413517717136,0.036380508808253616,0.14512053344960651,0.11154650828157534,-0.06629524491207674,0.06434555554123675,-0.11860738881349732,-0.14816808510716123,0.21818674001257107,-0.25912912571772134,0.0169542913191619,0.10003718557272162,-0.1748390477154307,-0.06057106134769804,0.08087409623225139,-0.05833881770447114,0.07839368194322649,0.013986597382924246,0.10011493138159104,0.02357553822045188,0.015585218468150867,0.012314626133367373,-0.1226981173353363,-0.027063973307886444,-0.011024727937909358,0.01771150849845013,0.0006651060660187152,0.0006311471610936929,0.1048647389636943,0.1901912811328391,0.008448558029523151,-0.07972941104475334,0.1876481070051118,0.07574143829874896,0.14124527285970795,-0.0017222058716992016,0.049356310315905906,-0.12480798070554354,-0.08631476550243367,-0.006962479250909849,-0.09343018031302253,0.05124516562199578,0.10462494625508574,-0.06901904582978198,0.013755003673098119,0.023188659836906624,-0.08506144649549983,0.11321078181025404,0.2971231432694717,0.1459929429977742,-0.049199711794509327,0.14340825309098007,-0.11175334446702254,0.022366780715280296,-0.06668709674652512,0.0797849636927071,0.06894013914244175,0.03693255725094328,-0.0886154939703997,0.08625718932757004,-0.08583583130803124,0.14628181445900584,0.06066546841853281,0.10811329421789366,0.058291751813815025,0.006248891942006672,-0.03992272483539447,0.034201676055516314,0.014981618503184213,0.13790380836949864,0.006000738825073005,-0.043247710949123164,0.02489515025830832,-0.09179691485416955,-0.09940666742617998,0.038451361307822604,-0.012864477433931864,0.09468523750667253,0.036490967190352434,0.03879040622847873,-0.09385999797650153,-0.07798717159581994,0.020895335758461916,-0.07618798450796413,-0.062019881651883886,-0.09048838383479055,-0.13478242737317508,0.19642886843102314,-0.09474469718909533,0.04505052618327134,-0.0076112402055569855,-0.007136853373530095,0.17765637901972342,0.13521566498667265,0.009142104371720212,-0.0529193194961824,0.08088208413535393,0.05151239330615221,-0.027298904344452733,0.008363820780951258,-0.0052411118233295344,-0.05683958251075328,-0.04244005551641627,-0.12106030223046836,-0.14228868740388784,0.11396833978432731,0.04816645818385298,0.10524108734434788,-0.11061458666716077,-0.12211599410003553,-0.21844844289256515,-0.09376386450615175,-0.1470608794339262,-0.18216521462465496,-0.11685138565229293,-0.052844191617962756,-0.1207803774252015,0.06150965500717545,-0.2032643158203925,0.06468004970264395,-0.02211435907856984,-0.11693985735021932,0.10517984615616299,-0.08813526319156241,-0.08974973049014942,0.1330291635292662,0.04197070441457102,-0.052368484927148004,-0.1805333394333614,-0.05934240549517744,0.15095600157882513,-0.008674425992349721,-0.07250013884851847,-0.16237613706087423,0.033086649157522026,-0.1314368043768144,0.029887522743681994,0.09525857847073095,-0.1569057980281621,-0.0058164983001543075,-0.045172472063391776,-0.23702580627112602,-0.009224552748620104,-0.0238668469367349,-0.046703773540031364,0.09300974047886261,0.03543456614652058,-0.08735016861026025,0.021100649129208178,0.1591078447807307,-0.06417588003542958,0.06363329905842786,0.07636697948734418,0.0933781054261786,-0.08048656271691403,0.027792457583043877,-0.13016197344344257,-0.18450131223892763,-0.04838091776105541,0.029427267011721298,0.05824757807321085,-0.019134763579522655,0.06399564638812148,0.2019082272070102,-0.01904103358172739,0.07670143503325987,-0.11469441847855119,-0.06400001866651718,0.05680843839628297,-0.027216520398388813,0.13327580421779117,0.11678643584137903,0.1323962390836303,0.04137678677552027,0.08753996408284637,-0.05880869539064646,0.06064402124442709,0.23698714392878467,-0.1517919777987756,-0.28704625723924587,-0.09479849496442591,0.027199251849839196,-0.09352030890297122,-0.08803251146734499,-0.09344259187186367,0.14296034506145264,-0.18666303931033298,0.11304716204124544,-0.03674303358328725,-0.08749207063011619,0.16115663846622758,-0.13613802435499642,-0.03259516855366837,-0.03494125929415385,0.11999384264941881,0.06789917224633017,0.05457115914325067,0.12612393545678818,0.01625789023795861,-0.1310490689543472,0.1397195228587231,-0.09789328640056001,-0.2589022341969469,0.2153055225004119,0.11000172151110293,-0.07929895964206057,-0.08733274937474732,-0.04252053502716413,0.019354727171839083,-0.11091501909009295,-0.06880756337577168,-0.0856638178937146,-0.14993660625702487,-0.23433816863247744,-0.16706574359984372,-0.13546093983146137,-0.12936131875113618,-0.00805996122103122,-0.10893509849411986,-0.2859091812252627,-0.1619313265045582,-0.23537320631566766,-0.08583423515703477,0.07964182415474201,-0.26968813381607104,0.23541554215591007,-0.0043162228127787815,-0.1964547122005631,-0.008306220778745904,0.25714785970947923,-0.015830299517532558,-0.025986893813961267,0.0004979968872684585,-0.08317182596511845,0.16500505048739164,-0.07005330471772993,-0.11681898696308003,-0.2149765185412603,-0.18109092847180086,-0.1332518045805899,-0.2501103490152242,-0.18579851252447072,0.10685681713860266,-0.19760394662849026,-0.0956512908725006,0.09518663067511822,-0.1716943759073168,-0.12921229110854301,0.10628163623105262,-0.009216577100477292,-0.18577769968338556,-0.07088813312157531,0.1001168498395955,0.13437338234603477,-0.0023642098192408183,-0.07816006725977208,0.025635731696033007,-0.05713192876807422,-0.10704935526074415,-0.14195315514726384,0.11117586118500389,-0.028984372442040836,-0.13405031139026982,-0.185242033184251,-0.25338739521330067,-0.23122593347235953,-0.07866608013134535,-0.2343670393308134,-0.13101537985099884,-0.24829302882521428,-0.3075124338141053,-0.09371744480118985,-0.24587184982527707,-0.019648909296015194,0.06668567165852776,-0.04138612102384147,0.020065582589252343,0.03825248504711317,0.09585150429060967,-0.0632407738094723,0.007596960453917108,-0.08823657993290314,0.04285997338287355,0.1706626204930543,0.019837417695995844,0.08706997443086356,-0.17369307664085293,-0.1964982635293332,0.19826985054600152,0.058726645105507465,0.07692969654294893,0.010199519074741434,-0.00563927129592798,0.02182073593075162,-0.258937363192722,-0.13621595184432847,-0.29828080686677516,-0.3587269258801341,-0.31822780260170386,-0.43527846349773236,-0.40616476940633633,-0.07108749413580674,-0.04071675718086141,-0.06712671658590194,0.014820049479542644,0.1379534217164409,0.1816694976804288,0.02608628022552868,0.15091622822960551,-0.006771655301743606,0.17395170422023556,-0.14229785245258472,0.044140562850859384,-0.0749993866135651,0.07454504338600845,-0.04350779503220248,0.011598064225817887,0.2646185065340551,0.05599714434129281,0.22430751416979489,0.39403452200421546,0.17192163732323565,-0.2018469591721536,-0.4166075506809447,-0.19422954538317894,-0.1648393922403048,-0.1231659072013341,-0.4781781798840949,-0.18758823462090238,-0.027900113373892504,-0.09161795968565295,-0.042190131033897356,-0.009544928271830209,-0.018505921984190432,0.06448423650750679,-0.0752127079185743,0.003976666816081606,0.04220746652061392,-0.051780034839225046,-0.006200898065799076,-0.12549783748293364,0.10350183321942509,-0.08974268449965606,0.04967244889603837,-0.09367723497264918,-0.06398736481988586,0.029801786625818366,0.18804219549518306,0.46401586041729426,0.2280738608483749,0.2259844085163371,-0.09317692887347619,-0.2934916287890079,-0.1336485962209157,-0.28985743888963983,-0.32294715661759543,-0.1992676009692884,-0.16041562523371533,-0.08160243743211193,-0.07033826090681189,-0.043111230275530696,0.27284824598414614,0.03604144787088178,0.13562924901863785,-0.07165114738926692,-0.21008242859651483,-0.06573628926913244,-0.15266781617893233,0.06366578579175142,-0.033579706183086144,-0.0013198727153255186,0.11699070164743477,0.14663164238445991,0.08017544439476283,0.34291828784165934,0.11952804602898356,0.38059166018387264,0.4382864064122321,0.34933902361422153,0.16826022479684785,-0.42245816983060686,-0.39748667055814463,-0.43276249015959295,-0.35095364985977656,-0.25317381467793637,-0.18152581855424557,-0.11621854706201265,-0.12347447310840196,0.0855871295788376,0.15995424122864038,0.19090162805063687,-0.06599841351137296,-0.15526771937677225,-0.07047391630692722,0.11058966877535419,-0.12938755164989643,0.09753763602856755,0.017978099068712484,0.0936685065455595,-0.05220035958326955,-0.20163775294776515,0.29082655616244824,0.27387869262309805,0.2274531033182692,0.22375940624624116,0.157724659461443,0.02799705526201079,0.14105121097539128,-0.17819173931150348,-0.06260581811070445,-0.45852742785499706,-0.5340306174113024,-0.42379578931811934,-0.23663804121356405,-0.10169155358701375,0.051007932168832634,0.11742976470601948,0.06462353603322525,0.08297225499432688,-0.003353188469535234,-0.19023214745192157,-0.020302379051321626,-0.09258365858324934,0.09859911875509976,-0.16608158364516684,-0.048390679029802174,0.2015759568762232,-0.0866512398615923,0.04625949596774159,0.01478466501928733,0.06399508000919693,-0.0065843472575089655,0.0015385635688581797,-0.24906530550748257,0.027670393880566708,-0.0781910049754388,0.3102831027891711,0.04933601588144448,-0.1096683042022832,-0.2236493677900994,-0.22412184531544366,0.021954665088760004,0.13732241421442798,-0.0919561932195775,0.04253717474890855,0.003983310156439476,0.30979258104839513,0.15555367232117312,-0.1383170761683979,0.01902817756494982,-0.03100476478163073,-0.1507258010051972,-0.2517114455476974,-0.06858884066052486,0.0907105007619654,-0.04673888404063804,-0.2041053475059923,-0.2204087677756938,-0.32314237538171087,-0.19738594879221372,-0.4491600106009087,-0.4653897168552131,-0.3074093615071978,0.13032213684301105,0.24177068923810746,-0.03280641880133761,0.13144626593437175,0.1612788542891909,-0.20474319270818922,-0.08902396598837309,-0.1842825647692091,0.06632037075910667,0.06875004984585457,-0.03140426654499745,0.32842226074599706,0.14433999042004023,0.08083997487654335,0.1787962505423535,0.13019704261451784,-0.2274857496176463,-0.008416123521960629,-0.016704167642934465,0.07965874632808177,-0.08602635969901003,-0.19979581656390666,-0.27598230383579636,-0.5190318052185293,-0.7313046272428773,-0.5495679009540755,-0.4366395692696239,0.051853710219074256,0.22416234958888534,0.4325219972488704,0.016987195176788573,-0.08348282070470427,0.1503769665344801,-0.14592462367024034,-0.0326884888711084,-0.1654575388989997,-0.0484945937923511,-0.11500648031269274,-0.028427096540212464,0.10372692617526108,0.06034222312092226,-0.03187042528642356,-0.2208313338972124,0.03457935717025381,-0.1933034809964443,-0.07545723425211691,-0.05511311748214939,-0.0471602849061021,-0.12677566223590656,-0.40768630839308106,-0.23638011237266174,-0.341826401959955,-0.5027916468269193,-0.5501895600686793,-0.36911254602640226,0.17316506312267252,0.22474136345915482,0.4551691442149351,0.17927892457381792,-0.01694986558056276,-0.21706017994152285,-0.039884624457928855,-0.1323864793200379,-0.18712560990496163,0.021661072552528294,-0.14278850558479905,-0.14033449086770397,-0.0763564668014261,0.2726421090987194,-0.05538053617221096,-0.03092819386919848,0.026175418584260323,0.06599094838364745,-0.07396652059627958,0.06794789814665841,-0.07609855049118988,-0.019153016149408647,-0.023828809077258848,-0.2908031781544892,-0.29637722417733037,-0.47006584469672313,-0.1884870125301337,0.0961568488575941,0.40259291421789534,0.5305834792584534,0.29835855196795674,-0.05940440159566896,-0.06374853641992191,-0.15149499571025135,-0.3294954170726605,-0.412278448318918,-0.34895427680450747,-0.21975311526604244,0.04353855938254336,-0.03381914883430893,-0.03486850345874955,0.013215288406400542,0.21596226041056318,0.14009332018226792,0.08568637150909733,-0.013138823647592581,0.01699695787090211,0.14311947771983163,0.15072331280252466,0.03270908282162602,-0.1864360901759302,-0.3752216171839173,-0.21668677385091561,-0.24686408095527887,0.5204856761316579,0.8156298858427184,0.3962775786629652,0.09764650679444639,-0.17042648331736948,-0.10888934421230154,-0.23606319878651333,-0.43421960422742245,-0.42069595015608796,-0.22356578954350778,-0.33791525023091423,-0.1527350933452082,0.0585265688140748,0.018178471822787295,-0.08243829357447029,-0.00919282940841386,-0.010527259657949024,-0.025283060375978942,-0.09527710718154286,-0.07690202204995474,-0.03654417171012659,0.08256366307889076,-0.10481230473208285,-0.13365267789819535,-0.27187112329128316,-0.3852134254498317,-0.35116989053495345,-0.1346022135606652,0.4339010897861415,0.9156695963350228,0.4870438796531732,-0.14991493686254756,-0.28853482329984104,-0.14799870365517112,-0.10571704183507889,-0.11406522927073766,-0.2324634096284294,-0.465914541774057,-0.05790359302508909,-0.051271835145209374,-0.0630436504314574,-0.10358697284741014,0.0388647059094825,0.08001462777388191,0.13266018261176318,-0.07486740002199041,0.020976551114087087,0.08869007204586098,-0.05957909576122406,-0.15328295292773933,-0.06033922320650319,-0.10753593444512362,-0.31754181752896243,-0.3119293851402783,-0.3155011969056188,0.13119074164752959,0.505799193810828,0.557199598476127,0.1908656418174038,-0.07966239585625436,-0.25619951605083097,-0.3390741900115953,-0.055458943397770424,0.02628199725809363,-0.14800810027492,0.011971258569969402,-0.03507545281563406,-0.25911957155820375,-0.20742102699560785,-0.08211510329655639,-0.13170162257371906,-0.06433654156148785,-0.051870742213975675,0.00557929520129036,0.07932506532512743,0.25830084098287726,0.13375877367968633,0.16777553573836718,-0.09128704437891316,-0.03865294634362606,-0.11598858043157982,-0.07309892901597878,-0.18288031394746748,0.16402769936183856,0.24339295213418952,0.5594740729704951,0.11068569960295829,-0.2883585925732219,-0.5860020779622575,-0.2666912820762684,-0.09238555170028613,-0.3256582121183482,-0.17796159746541831,-0.23599991925500904,-0.24388219909026948,-0.23387299225352132,-0.04115787731299448,-0.13168800599300698,-0.04984743885521569,0.07245111830169117,0.008319397970671502,0.011032783292737129,0.00012506239823245835,-0.017865248558937518,-0.07020279897651642,0.09628369090562483,-0.06946758437750064,-0.20525850158752,-0.038238993045192064,-0.21206146495030384,-0.11875204524266947,-0.2002118159450098,0.15500071897748585,0.12053661556235128,-0.22826017473466095,-0.3354283471045318,-0.35787516328958463,-0.14370212445275668,-0.1348458565147781,-0.15834223609205975,-0.28391596733041724,-0.06747281657991425,-0.06073580844199453,0.04923855725741858,-0.2098444567169871,-0.3401759512642933,-0.1524420308613888,-0.07821480492992636,-0.047350774615530764,-0.13907544455739632,0.06678252467227051,0.20222407735414372,0.05112148465447077,-0.21982828064788304,-0.08286500525783973,-0.03263696077845804,-0.2599139446145545,-0.11789119520955009,0.011970164755797055,-0.15112534110038278,0.010313541921518553,0.18896767953521723,-0.016182160420735676,0.09997023841904035,0.06732987880823417,-0.1302356674946473,-0.22553780736576015,-0.24024625577748038,-0.02210372192517154,0.1458549426972041,-0.026520458457062482,-0.04261131745913123,-0.2339362649358983,-0.04770288166410324,-0.055017103350270755,0.06314907912868553,-0.07295667719135558,-0.08812188445950545,-0.0013032292880185896,0.15656819340999073,-0.021379084850617288,-0.0678692780795826,-0.01301879191053808,-0.08346345363794615,-0.17963399625302595,-0.40705105577680545,-0.4334932170565706,0.018878767730319275,0.11724951305687493,0.02727747559728453,0.16816874989047292,0.44708925227256807,0.37202284985265804,0.2378747141945365,0.3288714531361199,0.22059717122151667,0.0666063028610945,-0.061264114541875615,0.08620541970808725,-0.1100498255996475,-0.19399587377112018,-0.08326646773928437,0.056005642838405326,-0.07765090408144154,-0.0637752009613124,0.14854821630683776,0.06631651861361955,0.10905500181928161,-0.055376393565028596,0.08719417680881263,-0.15305299500534422,0.125521057054631,-0.2813360891675757,-0.21662095125408842,-0.13303411856544553,-0.22514138774548914,-0.07307929741878842,0.1142569586549776,0.2953943687154745,0.1522543125084735,0.20015831999771647,0.23356376217128116,0.17333815672954717,-0.003080672041283642,-0.16280114920769576,-0.097330872551015,-0.07499843511728861,0.038947667734272245,-0.0027222760604794266,-0.19301086555300537,-0.14464930864445774,0.08153726496492626,-0.06055059415264367,0.03347580210078335,0.0008691290764735837,-0.24450612283550527,-0.06944312279980618,-0.16768890286475496,0.08558685208455173,0.08791230781972226,0.053605277434553546,-0.1560464667235409,-0.3792166800603431,-0.21128544801304175,-0.1701704727655874,0.026318723592491256,-0.23629531991298275,0.07956570381885117,0.003046479498155721,-0.08506225818557825,-0.14847721341955056,-0.022886637917424506,-0.032140170221377565,0.0409485478252203,-0.22778856176400852,0.06586605782989785,-0.016601032027512175,0.05684266759399146,-0.014759750615028213,-0.026501896979724465,-0.14689185620648715,-0.1388735635908407,-0.15629906646180558,-0.023520172382563567,-0.007154463668969608,0.035580343006795266,-0.01280370184130215,-0.17821162530430754,0.018755232636846066,-0.022928477403844384,0.06237867332371262,-0.14339838363050014,0.0004673252264512274,-0.12275331195488345,-0.10153230464149851,-0.1111722196351046,-0.08220308821613985,-0.15579515672249833,-0.19049239934698553,-0.025301753983505332,0.011887054222135514,0.006088427143458065,-0.14430033500222064,-0.23506729086645697,0.0026198025600185737,0.24501348876554713,0.00022066384310688396,0.1963748546073029,0.01995980503386004,-0.041778640755752224,0.06325024887880089,0.03917922523926708,-0.11906234673333872,0.1097401524798841,0.056343187700823305,-0.1777609466578193,-0.05728984514836808,0.01585904032610314,0.005354401077651474,-0.06884697606979763,0.1250159952121515,0.10168374142481253,0.012488395425482343,-0.12558456994883388,0.13320588260426855,0.05022759745670949,0.10953349220160978,-0.1529896677911596,0.03664538540433721,0.011355710004385039,-0.08335327686928971,0.06285502989983086,-0.03595400234386174,0.07726094669035567,-0.07962107729570124,0.16264980131469176,0.042387521586051725,0.1290077039596642,0.03769915290935456,-0.07825623700572344,0.1114104942847751,-0.09635345328965884,-0.16819681857192828,0.13203727236016322,0.15955957138384796,-0.1612134811176729,-0.02876097139881477,-0.14586601591550585,0.12737423555932462,0.05041737633766739,0.10361360393803677,0.03495388103626378,0.12628195460321595,-0.11801369336734399,0.06943820304098954,0.09654636707359583,-0.033015048711100226,-0.02320803684567256,0.007409682496488991,-0.043912859455819776,-0.026018254224870793,0.001555870131848627,-0.20243308527958226,0.10771511175605857,-0.018693501785427637,-0.1610495641839667,0.24982948057089552,0.029766533086101353,-0.08521053684957687,-0.06362207402834572,0.07736093463682085,-0.022602027270493846,0.06848100553394044,-0.07417000355099913,-0.1049868821341702,-0.131936281125095,-0.08004440470583485,0.13915852200514206,0.1268820572618252,-0.016357025518095217,0.14110971361518007,0.07524343387055947,-0.017913610181326766,0.018533115942278737,-0.09804860275530512,-0.01566653589895881,-0.04689963588147744,0.09121149793888424,0.044196668672352564,0.06629820418478792,-0.04501003941005752,0.042567575971882356,-0.11167076340709113,-0.004917617911571647,-0.10823911983731048,-0.07645893019601631,-0.011709629564679672,-0.053229928747760065,-0.08591296507277174,0.011876659845592068,-0.09551611993466617,-0.006026427832557745,-0.10635774037855612,-0.15784320937356447,0.13838013505401323,0.07405623087233673,-0.011059998981794222,0.14151427173187847,0.09293376797765758,0.025518204026413825,-0.1881504738618804,-0.2061554775880767,-0.13210273621241456,0.0006043965831471398,0.20985546702082047,-0.06276824603988956,0.14762931698939685,0.08809184680210155,0.037829400189542985,-0.04805005565679785,-0.041212360907279005,0.0187374494581551,0.11608817105436726,0.06685508153388019,0.05704202170684691,-0.23479007024524925,-0.0277162046317684,0.033072680477200585,0.1441698701000967,0.13232307766464493,-0.07329446224114311,-0.02892743284946728,0.010965880400108622,0.08714032122144601,-0.036264894249836234,-0.13799276278757602,-0.0880889268034898,-0.01867740153089485,-0.018322067109179982,0.047062031963153256,0.017714811570554056,0.17517320026051467,0.014680360150306855,-0.03482679456262355,0.03628678522072482,-0.10595019117558756,0.14341847223216744,-0.1627382326412486,-0.10266047965310515,-0.0991484471623548,0.17455899378467665,0.08295327458071601,0.054205260917679764,0.08870558038237936,-0.1070371235651386,0.025102909157440515,-0.0021755980976819527,-0.09815298591440767,0.008256263416990008,-0.09676103429607576,0.018625506890716275,-0.048964698966825884,-0.14627124339297784,-0.44543277139466986,-0.22317429041499873,-0.03770497239520634,-0.10962756547682254,0.1196347466709176,-0.24177926557140977,0.055045271860836215,0.016980285049008354,0.08291452117695164,0.16879526958574254,0.24654656531379243,0.06643290987537664,-0.0016594341722290173,-0.014227561460373244,0.06800692454507569,-0.07942890835628962,-0.08220000864172301,0.13192886616315516,-0.11417695541211914,-0.04490435083793208,0.00907072422005777,0.07166474213251672,-0.0475592386339586,-0.04761590122781694,0.12044915693645296,-0.39452943140194113,-0.18074540420119728,-0.0685632895545824,-0.16913230167185897,-0.45926825892498785,-0.055255883188781406,-0.22968302514378466,-0.2699815828648918,-0.20740895711385207,-0.11392445295171179,0.05792950808501086,-0.023361274196654673,0.09347402537706721,0.03899887751106995,0.25895864339093516,-0.0878993728924885,0.031696056423493935,0.22292733860468603,0.08236511146025662,-0.0011231433783997396,0.1580210172914753,0.06344943730699447,-0.0920917209133303,-0.014130752003289107,-0.2350581847486481,-0.1548540742878401,-0.2227315819767563,-0.2238143360712709,-0.09127097773865285,-0.2102221783372156,-0.2643137944038609,-0.19359208873764538,-0.2674501232973223,-0.2731865751595577,-0.4207213507462255,-0.2870183914151046,-0.17542575624087298,-0.2422216491528305,-0.1839274260337786,0.017326206422531496,-0.09745610324658027,-0.019600814911445413,-0.042542169819225664,-0.0020749723503089732,0.0074649017275145455,0.022327490784164926,-0.05943595324181594,-0.07237862350119877,-0.09021706306563612,0.011865601452098898,-0.061831137138138384,0.0386678084776453,0.128328276209714,-0.06942059190613832,-0.1741451199905653,-0.08691045501713654,-0.2311272132265354,-0.15064559474641556,-0.24120059007005318,-0.10131264701977875,-0.24308620175937917,-0.1473807919187183,-0.29683596411008306,-0.24355334235508355,-0.2479678706029122,-0.3613757620247922,-0.4622282352126325,-0.3022076744315682,-0.11147878195681778,-0.0880853652307571,0.10164904910208186,0.06086871677526196,0.1424295159525044,-0.04509375603770932,0.01740307170829946,0.0612790172239224,-0.1650591598096779,-0.01595077325056623,-0.04802650585981528,0.10057510700514764,0.20696458740673093,0.05950102907292713,0.2566378109657349,0.08531228379413898,0.054413165371777476,-0.26389592771639275,-0.10618541864608384,0.08735173555676135,-0.2677863751153608,-0.24161938000626987,0.05390911343620687,-0.6212565472821217,-0.4002222311015646,-0.48732390049300983,-0.3684619681010823,-0.2969382196540669,-0.2246017016479964,-0.16195023747988324,-0.15002556304786246,0.13473690669402646,-0.13520009610402203,-0.0808166342736795,0.08720954812725104,-0.07032040988657505,-0.06608547999576701,0.002519171379279178,0.0391727249170747,0.1610330481333196,-0.15573749395387781,-0.05181005159752744,0.07497762146129051,0.154574392904759,0.017133283454705044,0.17969033560762587,0.32441349964042593,0.1461685800960682,0.05534972892170681,-0.10165377578798102,-0.1774893472298554,-0.7049985344904453,-0.2723560534365001,-0.16239055396350416,-0.36536873084872357,-0.5058140331411783,-0.13538901361946015,-0.2747161178551608,-0.14156123949642907,0.055612548098494224,-0.056903494666398685,0.08234479249226756,-0.13197056538294344,-0.04070227706320741,0.09567869989541651,-0.07379563024157794,-0.0708741410641528,0.05561615313300147,-0.04196566483303116,-0.002672874728141343,0.06712130240848202,0.23791809491424062,0.32235720572460635,0.40055014013429624,0.5613366656099235,0.27780053499336516,-0.01953426478522576,-0.18886134986258213,-0.5109080839756125,-0.5217037616911266,-0.41391952824127903,-0.20017453458689238,-0.22402655530050974,-0.2385184282845496,-0.22995669978382557,0.01962219484771469,-0.03772712266807598,0.1051146197990413,-0.0880671405777337,0.004504072160279364,0.14570319292000727,0.02074716557353544,0.08470049914205446,-0.08954035606325021,0.09235866662178394,0.20400279224006856,0.09739837061532101,0.06904109283089378,0.07602102760317885,0.12131027322743307,0.20244731784523032,0.03338187949517105,0.00326899694224927,0.13393716238876935,-0.10727063277043394,-0.635343310081671,-0.5284259579806044,-0.2807828461949863,-0.3287171594822369,-0.3130423797533039,-0.17827896118841147,-0.2617047816367619,-0.19983748085421701,-0.09333232408026354,0.07474427916587245,-0.051379344832466214,-0.017533794480679443,-0.0025505301572897442,-0.06800798070341092,0.00914991612159356,-0.13495620665988717,-0.12345852472709666,-0.12137691215817491,0.18278472057111086,0.10184216373124101,0.041558654406786424,0.21600793156299689,-0.09977615998802288,-0.23788289337440333,0.08471734123760423,0.016430607275663648,-0.1871711364654259,-0.4846673711148336,-0.5376136547487121,-0.28192195298864753,-0.20350305731648596,-0.40178060119529596,-0.4657379448059524,-0.18406119794915474,-0.13652227103159092,0.07545596564635619,0.07668889245920382,0.044755001865631604,0.16382875064644722,0.013484146930374103,-0.31362485771808407,-0.0465803276800987,0.020433728089536838,0.08630125410840488,-0.0821637219546631,-0.07142089895947742,-0.1455062039733916,0.06969470068365036,-0.03767851721744275,0.049721738675246686,0.032496920026027415,0.005175130013308257,-0.05594982637394429,-0.04351446461005823,-0.19576300728022433,-0.41984741102936696,-0.3569559250608643,-0.38194529082695894,-0.4594683306334442,-0.496139076630087,-0.16150629610531375,0.021702362234393185,-0.11291618325288416,0.16313026837629,0.0981966706775017,-0.2150541650510065,-0.3090811441554082,0.04346060449311261,0.08588563815328444,0.03827946857779061,0.034667951326444756,-0.19521734007145383,-0.03431406194032443,0.012343387100661974,-0.05857916437919279,-0.09450226675812819,-0.03079537106150334,-0.11354379207999266,-0.08519693884303904,0.043558238797053984,0.1751283495252263,0.04646145042402313,-0.20209202457460096,-0.5289315165241599,-0.2250685537096483,-0.25932657458153474,-0.2208704610190586,-0.26741222297421785,-0.419005896074372,-0.13698507286935452,-0.19782920144137506,-0.18020757343425972,-0.13872949582321278,0.030347388972546314,-0.040297703036035755,-0.008135146742488558,-0.08632732711993119,0.2300201593674805,-0.018038961001912962,-0.08832075210342519,0.16545468375095126,0.03270107390956175,-0.0212545466880858,-0.1245495870613178,0.010806728671488554,0.09162835717667812,0.3271001144357455,0.2609666116553907,-0.032164113648521835,0.11551868819359476,-0.0017875588384642172,-0.3360196787662942,-0.2584532565516452,-0.3139647380520858,-0.2822261773179375,-0.2590585587254447,-0.2331541640377867,-0.2280959711950153,-0.13400343034393772,0.034989851819955835,0.15850915077013195,0.002962893415146295,0.06302410371363872,0.1789272627927615,0.14685004298147386,0.06957940972597292,0.11436929634418969,-0.10284430882239032,-0.11721284598874651,0.01157684202031505,-0.1422715040192346,-0.25971275727480486,-0.029316443237471883,-0.062424169348310146,0.0023818002814789785,0.16965204462703148,0.23114524777897588,0.11615648272764874,0.14762059299218236,0.23746954974027423,0.07410414993077936,0.04983546908040641,-0.1770441482266918,-0.40527275640313404,-0.10200478993425603,-0.1423824496962182,-0.37800944722663626,0.02172520595119134,-0.08339511565552138,0.09593618072338984,0.11606385523991262,0.11277698105167819,-0.04131056636477967,0.07294725521782067,-0.1197052244900449,0.14242712710116676,-0.15142556294829831,-0.15842374446271112,-0.25027823476664357,-0.13520763942966885,0.21221693763423907,0.14864007350495323,-0.14985060726640698,0.2801461067875395,0.20415074446386353,0.3705883985024507,0.3791582458254739,0.27995345599999794,0.11952962977065303,0.07361542560269872,-0.15160477110383896,-0.11881095756868958,-0.32678452425406346,-0.22011351756208467,-0.17236744028844078,-0.32113265881805253,-0.12568234343567808,-0.018130199689252845,-0.12328086910359168,0.03145502976707121,-0.05692418565511887,-0.0017463043844370024,-0.11169067610622195,0.07954528068162645,0.023822830284070288,-0.04992644939616239,-0.3324580098455043,-0.273365739527332,-0.10841030146355593,-0.09043768649225499,0.05100506606606232,0.1184609311560239,0.31733237718250357,-0.06856698618569312,0.30865593177017,0.19385110287319998,0.06972528684742293,-0.18908623563242621,-0.16022315360462586,-0.3599886305929516,-0.27525704934682793,-0.2013482051249794,-0.040891727569587685,-0.13520978831748584,0.026625851296557902,0.14027904741253827,0.0045684683202966885,0.0668447627899935,-0.06248790861964433,-0.009936355194313724,0.10092350197362218,0.11887313716304719,0.07722605055890314,-0.16185989142806814,-0.16262509701719435,-0.24725543742064995,0.07246664942622405,-0.07550092547406755,0.05413768265007339,-0.1338570433731112,-0.07286933365807972,0.1313016969110674,-0.014176535099226827,0.025110430169396767,-0.01171383770076062,-0.12395698298738812,-0.46959660275968984,-0.18889660557681978,-0.12635221292034166,-0.22529983740057508,-0.24412772505898006,-0.1735927249476516,0.1501737221843162,0.27181508689502654,0.032906458415259056,0.04605709833178718,-0.027607860065166752,-0.04415444778300661,0.11902784306122945,-0.04895404419679407,-0.03980862231000419,-0.040673684569050746,-0.049432701297529615,-0.27204886097123987,-0.09908406124855212,-0.3318712462139651,-0.20243121508619788,-0.16752665176693804,-0.21294935154418423,-0.06267042100045063,-0.18941605546331083,-0.1833976984779515,-0.27550337899794364,-0.3309531628467955,-0.2994425354191775,-0.17491110135534602,-0.21023871572890884,-0.3348914437207039,-0.10470389975727289,0.04405774550097703,0.17586228196348358,0.21676996064547308,-0.027077842248027326,0.07437936781676882,0.11310227969327738,-0.0414178552326844,-0.06387054491515505,0.036777806340520865,-0.12973443842526017,-0.20091858118254838,-0.09201180816062467,-0.1459511074430773,-0.50440688131686,-0.39760576612803183,-0.22136918256150584,-0.3378396818939667,-0.20259191312730418,-0.13195785285140516,-0.10393430591214695,-0.402360352045882,-0.17469026099234425,-0.18605012313951763,-0.2963735615085933,-0.21662101730258737,-0.3183559627072888,-0.13415717329600035,0.23443335415398275,-0.04435036280685419,0.1707459324332945,-0.01809762752454726,-0.04430586515102586,0.013083168802833079,-0.07499905813688525,-0.10606807468588382,-0.0635186151731183,0.029644505606126657,-0.03837959591146631,-0.05639749795883103,-0.249999366942723,-0.26367507748651814,-0.31702259192503085,-0.2947849563204279,-0.3818843056107919,-0.5708711792329833,-0.03649980457371752,-0.08052119581370715,-0.18706043853877782,-0.11440104535485864,0.06855990910743498,-0.2299274031389162,-0.03696405617286709,-0.1536338343190005,-0.034501221681048126,0.07173049325140995,0.04611788494544514,-0.0850993495930969,0.07189891074507966,0.18932876231651888,0.1304692554120854,0.02572916322303239,0.08660584829831522,-0.11324588521880066,0.016079501506202812,0.015606762786053068,0.12615703077056528,-0.04036395421712949,-0.13626733947992867,-0.238923168242733,-0.170762856815153,-0.07673335905488289,-0.23546003521067602,-0.3631880580472662,-0.3323987552531721,-0.27778029206746857,-0.18911235024127263,-0.04826268163559557,-0.19898021250082013,-0.011015818269825738,0.011994173014497206,0.10639406581990371,0.03687562179321725,0.13022480588614294,0.035708388045478524,0.041471065664580885,0.002942969416038631,0.010416635172078465,-0.01322155100133269,-0.16317440828264856,0.06690017375119696,-0.008485566449211649,0.02830503817148038,0.07205936691434293,-0.08071094661012389,-0.13109315770675833,-0.015730703892163547,-0.06497481711533813,-0.06613907283704468,-0.39446564757250896,-0.35161319235746125,-0.19458225733082243,-0.05444788352044228,-0.08741564651184311,-0.164564853177809,-0.1260629182866997,-0.06960714541897074,0.08840059060810516,0.08720557408069292,0.19825428502399237,-0.06717794974590624,-0.08099557424141703,0.09206405592070224,0.04698672734696383,-0.11746967878708378,0.13678684682520303,0.0787543697728459,0.03425824070314921,-0.02015647170557069,0.09237388514310065,-0.05330910983096641,0.022829760542539962,0.18507330213443063,-0.01984144745085553,0.13430465349071516,0.17288359281762494,-0.22995845789618208,0.18904198681697038,-0.16240847948789286,-0.15788600243865666,-0.31778566522701546,-0.10527039732759119,-0.034721005866413995,-0.03159677263368501,0.1295123359672626,0.19769002293200874,0.10203910291950401,0.11295745656454749,0.0682744835513217,-0.013260768904154898,0.2849610731520945,-0.07924324288896685,0.0014708463192286845,-0.053839811946478924,0.13220768706517788,0.06231795067409482,-0.04978904699564909,-0.011488813204630776,-0.08626710504333383,0.24146951499086935,-0.07995459415474292,0.05726190701435778,-0.2386446059661313,-0.032099983635558736,-0.03432279587346242,0.059249938365235906,-0.0885237565868836,0.04376191343894343,0.28742587386137,-0.09223676606519113,0.1212148077294278,0.130108842436144,0.13501535268765052,-0.199963938994032,-0.03667309164519651,-0.11323707078180795,-0.12972645499798424,0.03552452686497842,-0.0828897913559716,-0.11129652568349598,0.1390184771475519,-0.0604026088412694,0.10334437695124604,-0.11875657178734579,0.05212468422192055,-0.2421600790448937,-0.19520744897426548,0.04521193468430373,-0.04570172877401408,-0.13141587168915028,-0.22163816859078753,-0.1268878178945419,-0.03508247234015413,0.01569872369943865,-0.14268013794376508,0.12784316767845158,-0.23248487190072395,-0.03943615004243301,-0.18016841144504125,0.11419868007315379,0.05253947979150776,-0.035155534357854755,-0.08216699167246935,-0.051818425858659756,-0.06392762162642104,-0.052412166755033456,0.10780049617062164,-0.09029282750947593,-0.10587297171976252,0.0017526934472195652,-0.2110048108703452,0.1481121453208979,0.11470133583759172,-0.04272902727755092,-0.12095968343664563,0.08629129910229409,-0.1469385760500347,-0.07983405297499545,-0.09104609451089059,-0.08032306628007006,0.028589471816445316,-0.03698137048596773,0.08110572301973447,-0.07338818360041331,-0.09457927905456075,0.012960061482412598,-0.09170945744633864,-0.05110408417776189,-0.040655385053340105,-0.20038586058946842,0.04018083976631159,-0.011468616265494586,0.039680238556339655,0.08801921846416651,0.06846650557697671,-0.15954154354100655,-0.025465102569012948,-0.17038401977292258,-0.06776015919663654,-0.10047415299780423,-0.18415598697784,0.184187928006202,0.11284523821303753,0.13183542141485718,0.05423331551615685,0.050670480649375634,-0.02852927442539766,0.03303101127668966,-0.00893461206301963,-0.20924864302642954,-0.21660281199878484,-0.008880571909270177,-0.10194013325158749,-0.05746169919950721,0.09795079983261074,-0.005553150403698967,-0.1001021623333179,0.132098320114504,0.20908051467550523,-0.19318139834593975,-0.04443701709503311,-0.13072311283035526,-0.11089933961032673,0.03263115682438265,-0.023535361779081505,-0.04212241351065457,0.2237534853422317,-0.09056191340269683,-0.04349935046756049,-0.17704185428778937,-0.12563169788270293,-0.02684875511936338,0.041463379564195706,0.04646097364878816,0.04759508088812592,0.04091719999597884,0.16306376660714197,0.15726688154275129,0.0037284098062077215,0.23978220235529435,-0.007550587703281691,-0.06954804310847275,-0.1451384386550704,0.04580811867318662,-0.17980591976556692,-0.20578410372836325,-0.20087483352062316,0.09386574634848698,-0.001876905952172222,0.022878804346885103,0.1410812087995088,0.0054905293570902645,-0.10505108377219083,-0.054252366647883826,-0.10652711456639473,0.04721725039193772,0.01681898762912906,0.02246546696705685,0.12325451543614062,0.053098123333248655,0.15540546821887785,-0.06002641525327652,-0.03311909533402656,-0.10501862874356635,0.14222727129524296,-0.05871446902937273,0.03722536763282205,-0.0734708903821642,-0.12817331434246362,-0.13455271692982457,-0.1754510903070326,-0.16089727468636042,-0.17008263156470083,-0.15979540461495537,-0.04636458471485622,0.16823495535218402,0.0898035270416763,0.3748853774668455,0.23216672429749743,0.13995589389384835,0.10063440755081744,0.046846117518194036,-0.19377609408566632,0.14622783723419103,0.07718543938568101,0.010402347257461558,-0.03514141249674845,0.04808676083213415,-0.06737472554410223,-0.06396767939052643,-0.1607437144219806,-0.16931173650725415,-0.06979141796334798,-0.10481388117817858,-0.2558218335100741,-0.28971231770287176,-0.46421410927072876,-0.29393708544836133,-0.44480555948478256,-0.1519229874782383,0.2356827540988554,0.14500261437892822,0.33469324264926603,0.1693924594784538,0.7110136988389423,0.3455458851795117,0.21042278676596488,0.5227332991453214,0.10268765867304491,0.16402670407055528,0.3811681798223659,0.025885577115649747,-0.04608330549623486,-0.09462187875999191,-0.10261540127190434,-0.11922383272005811,-0.012278731758899762,-0.24216723032653312,0.004468459074422663,0.007621891058790478,-0.2643830237226106,-0.17691150548622456,-0.33422553341807854,-0.4117505149551816,-0.5753980936505896,-0.17419303577516726,-0.18121418100305545,0.05794995209297032,0.31557440732221864,0.1260771889170261,0.2590031409979429,0.5800512114234293,0.46554232544802215,0.3094753476391299,0.4160640715878989,0.4374466109849093,0.5018367797214409,0.47591652849091487,0.22674318598197504,0.20245561510771343,0.143802542875526,0.056618753898295876,0.08857420550021637,0.11450314523060802,-0.033978470050403754,0.10994380449289773,-0.06984954925948604,-0.22009790688782532,-0.026203597131886552,-0.19313516546290546,-0.44624091351421835,-0.2696297660083012,-0.09386703396726077,0.25605094279266416,-0.051956197700781255,-0.5445023173549787,-0.15666666812739985,